<?xml version="1.0"?>
<opencv_storage>
<Classifier type_id="opencv-ml-svm">
  <svm_type>C_SVC</svm_type>
  <kernel><type>RBF</type>
    <gamma>5.0625000000000009e-001</gamma></kernel>
  <C>3.1250000000000000e+002</C>
  <term_criteria><epsilon>1.1920928955078125e-007</epsilon>
    <iterations>100000</iterations></term_criteria>
  <var_all>1000</var_all>
  <var_count>1000</var_count>
  <class_count>6</class_count>
  <class_labels type_id="opencv-matrix">
    <rows>1</rows>
    <cols>6</cols>
    <dt>i</dt>
    <data>
      1 2 3 4 5 6</data></class_labels>
  <sv_total>215</sv_total>
  <support_vectors>
    <_>
      0. 0. 0. 0. 0. 0. 0. 0. 0. 0. 0. 0. 6.94444450e-003 0. 0.
      6.94444450e-003 0. 0. 0. 0. 0. 0. 0. 0. 6.94444450e-003 0. 0. 0.
      0. 0. 0. 0. 0. 0. 0. 0. 0. 6.94444450e-003 0. 0. 0. 0. 0. 0. 0. 0.
      0. 0. 0. 0. 0. 0. 0. 0. 0. 0. 0. 0. 0. 0. 0. 0. 0. 0. 0. 0. 0. 0.
      0. 0. 0. 6.94444450e-003 6.94444450e-003 0. 0. 0. 0. 0. 0. 0. 0.
      0. 0. 0. 0. 0. 0. 0. 0. 0. 0. 0. 0. 0. 0. 0. 0. 6.94444450e-003 0.
      0. 0. 0. 0. 6.94444450e-003 0. 0. 0. 0. 0. 0. 0. 6.94444450e-003
      0. 0. 0. 0. 0. 0. 0. 0. 6.94444450e-003 3.47222239e-002
      6.94444450e-003 0. 0. 0. 0. 6.94444450e-003 1.38888890e-002 0. 0.
      0. 0. 0. 0. 6.94444450e-003 6.94444450e-003 0. 0. 0. 0. 0. 0. 0.
      0. 0. 0. 0. 0. 0. 0. 0. 0. 0. 0. 0. 0. 0. 0. 0. 0. 0. 0. 0. 0. 0.
      0. 1.38888890e-002 0. 0. 0. 0. 0. 0. 0. 0. 0. 0. 0. 0. 0. 0. 0. 0.
      0. 6.94444450e-003 0. 0. 0. 0. 0. 0. 0. 6.94444450e-003
      6.94444450e-003 0. 0. 0. 0. 0. 6.94444450e-003 0. 0. 0. 0.
      6.94444450e-003 0. 0. 6.94444450e-003 0. 0. 0. 0. 0. 0. 0. 0. 0.
      0. 0. 0. 0. 0. 0. 0. 0. 0. 0. 0. 0. 0. 0. 0. 0. 0. 0.
      6.94444450e-003 0. 0. 0. 0. 0. 0. 0. 0. 0. 0. 0. 0. 0.
      6.94444450e-003 0. 0. 0. 0. 0. 0. 0. 6.94444450e-003 0. 0. 0. 0.
      0. 6.94444450e-003 0. 0. 0. 0. 0. 0. 0. 0. 0. 0. 0. 0. 0. 0. 0. 0.
      0. 0. 0. 0. 0. 0. 0. 6.94444450e-003 0. 6.94444450e-003 0. 0. 0.
      0. 0. 0. 6.94444450e-003 0. 6.94444450e-003 0. 0. 0. 0. 0. 0. 0.
      0. 0. 0. 0. 0. 0. 0. 0. 0. 6.94444450e-003 0. 0. 0.
      1.38888890e-002 0. 0. 0. 0. 0. 1.38888890e-002 6.94444450e-003
      6.94444450e-003 0. 6.94444450e-003 0. 0. 0. 6.94444450e-003 0. 0.
      0. 0. 0. 0. 0. 0. 0. 0. 0. 0. 0. 6.94444450e-003 0. 0. 0. 0. 0. 0.
      0. 0. 0. 0. 0. 0. 0. 0. 0. 0. 0. 0. 0. 0. 0. 0. 6.94444450e-003 0.
      0. 0. 0. 0. 0. 0. 0. 2.08333340e-002 0. 0. 0. 6.94444450e-003 0.
      0. 0. 0. 0. 0. 0. 0. 0. 0. 0. 6.94444450e-003 6.94444450e-003
      6.94444450e-003 0. 0. 0. 0. 0. 0. 0. 0. 0. 0. 0. 0. 0. 0. 0. 0. 0.
      0. 6.94444450e-003 0. 0. 0. 0. 0. 0. 0. 0. 0. 0. 0. 0. 0. 0. 0. 0.
      6.94444450e-003 0. 0. 0. 0. 0. 0. 0. 0. 0. 0. 0. 0. 0. 0. 0. 0.
      6.94444450e-003 0. 0. 0. 0. 0. 0. 0. 0. 0. 0. 0. 0. 0. 0. 0. 0. 0.
      0. 0. 0. 0. 0. 0. 0. 0. 6.94444450e-003 6.94444450e-003
      6.94444450e-003 0. 0. 6.94444450e-003 6.94444450e-003 0. 0. 0. 0.
      0. 0. 0. 0. 0. 6.94444450e-003 0. 0. 0. 0. 0. 0. 6.94444450e-003
      6.94444450e-003 0. 0. 1.38888890e-002 0. 0. 0. 6.94444450e-003 0.
      6.94444450e-003 0. 6.94444450e-003 0. 0. 0. 0. 0. 0.
      6.94444450e-003 6.94444450e-003 0. 1.38888890e-002 0. 0. 0. 0. 0.
      0. 0. 0. 0. 1.38888890e-002 0. 0. 0. 6.94444450e-003 0.
      6.94444450e-003 0. 0. 0. 0. 0. 0. 0. 0. 0. 0. 0. 0. 0. 0. 0. 0. 0.
      0. 0. 0. 0. 0. 0. 0. 0. 0. 0. 0. 0. 0. 0. 0. 0. 0. 0. 0. 0. 0. 0.
      0. 0. 0. 0. 0. 2.08333340e-002 0. 0. 0. 0. 6.94444450e-003 0.
      6.94444450e-003 0. 6.94444450e-003 0. 0. 0. 6.94444450e-003 0.
      1.38888890e-002 0. 0. 0. 6.94444450e-003 0. 6.94444450e-003 0.
      6.94444450e-003 0. 0. 0. 0. 0. 6.94444450e-003 6.94444450e-003 0.
      0. 0. 0. 0. 0. 0. 0. 0. 0. 6.94444450e-003 0. 0. 0.
      6.94444450e-003 0. 0. 6.94444450e-003 1.38888890e-002 0. 0. 0. 0.
      0. 0. 0. 0. 0. 0. 0. 0. 6.94444450e-003 0. 0. 0. 0. 0. 0. 0.
      1.38888890e-002 0. 0. 0. 6.94444450e-003 0. 6.94444450e-003 0. 0.
      0. 0. 0. 0. 0. 0. 0. 0. 0. 6.94444450e-003 0. 0. 0.
      6.94444450e-003 0. 0. 0. 0. 0. 0. 0. 6.94444450e-003 0. 0. 0. 0.
      0. 0. 0. 0. 0. 0. 0. 0. 0. 0. 0. 6.94444450e-003 0. 0. 0. 0. 0. 0.
      0. 0. 0. 0. 0. 0. 0. 0. 0. 6.94444450e-003 6.94444450e-003 0. 0.
      0. 0. 0. 6.94444450e-003 0. 0. 6.94444450e-003 0. 0.
      6.94444450e-003 0. 0. 6.94444450e-003 0. 0. 0. 0. 0. 0. 0. 0. 0.
      0. 0. 0. 1.38888890e-002 0. 0. 0. 0. 0. 0. 0. 0. 0. 0. 0. 0. 0. 0.
      0. 0. 0. 0. 0. 6.94444450e-003 0. 0. 6.94444450e-003
      6.94444450e-003 0. 0. 0. 0. 0. 6.94444450e-003 0. 0. 0.
      6.94444450e-003 0. 0. 6.94444450e-003 0. 0. 0. 0. 6.94444450e-003
      0. 0. 6.94444450e-003 0. 0. 0. 0. 6.94444450e-003 0.
      1.38888890e-002 0. 0. 0. 0. 0. 0. 0. 0. 0. 0. 0. 0. 0. 0.
      6.94444450e-003 0. 0. 0. 0. 6.94444450e-003 0. 0. 0.
      6.94444450e-003 0. 0. 0. 0. 0. 0. 0. 0. 0. 0. 0. 0. 0.
      6.94444450e-003 0. 0. 0. 0. 0. 0. 0. 0. 0. 0. 0. 0. 0. 0. 0. 0. 0.
      0. 0. 0. 0. 0. 6.94444450e-003 6.94444450e-003 0. 0. 0. 0. 0. 0.
      0. 0. 0. 0. 0. 6.94444450e-003 6.94444450e-003 0. 0.
      6.94444450e-003 0. 0. 0. 0. 6.94444450e-003 0. 0. 0.
      6.94444450e-003 0. 0. 0. 0. 0. 0. 0. 0. 0. 0. 0. 0. 0. 0. 0. 0. 0.
      0. 0. 0. 0. 0. 0. 0. 0. 0. 0. 6.94444450e-003 0. 0. 0. 0. 0. 0.
      6.94444450e-003 0. 0. 6.94444450e-003 0. 0. 0. 0. 0. 0. 0.
      6.94444450e-003 0. 0. 0. 0. 0. 0. 0. 6.94444450e-003 0. 0. 0. 0.
      0. 0. 0. 0. 0. 0. 0. 0. 0. 0. 0. 0. 0. 0. 0. 0. 0. 0. 0. 0. 0. 0.
      0. 0. 0. 0. 0. 0. 0. 0. 0. 0. 0. 0. 0. 0. 0. 0. 0. 0. 0. 0. 0. 0.
      6.94444450e-003 0. 0. 0. 0. 0. 0. 0. 6.94444450e-003 0. 0. 0. 0.
      0.</_>
    <_>
      5.98802418e-003 0. 5.98802418e-003 0. 0. 0. 0. 0. 0. 0. 0. 0. 0.
      0. 0. 0. 0. 0. 0. 0. 0. 0. 0. 5.98802418e-003 0. 0.
      5.98802418e-003 0. 0. 0. 0. 0. 5.98802418e-003 0. 0. 0. 0. 0.
      5.98802418e-003 0. 0. 0. 0. 5.98802418e-003 0. 0. 1.19760484e-002
      0. 0. 0. 5.98802418e-003 0. 0. 5.98802418e-003 0. 0. 0. 0.
      5.98802418e-003 0. 0. 1.79640725e-002 0. 5.98802418e-003 0. 0. 0.
      0. 0. 0. 0. 0. 0. 0. 0. 0. 0. 0. 0. 0. 0. 0. 0. 5.98802418e-003 0.
      0. 0. 0. 0. 0. 0. 0. 0. 0. 0. 0. 0. 0. 0. 0. 0. 0. 0. 0. 0. 0.
      5.98802418e-003 0. 0. 0. 0. 0. 0. 0. 0. 0. 0. 0. 0.
      5.98802418e-003 0. 0. 0. 0. 0. 5.98802418e-003 0. 0. 0. 0. 0. 0.
      0. 0. 0. 0. 0. 0. 0. 0. 0. 5.98802418e-003 0. 0. 0. 0. 0.
      5.98802418e-003 0. 0. 0. 0. 0. 0. 0. 5.98802418e-003 0. 0. 0. 0.
      0. 0. 0. 0. 0. 0. 0. 0. 5.98802418e-003 1.19760484e-002 0. 0.
      5.98802418e-003 0. 0. 0. 0. 0. 0. 5.98802418e-003 5.98802418e-003
      0. 5.98802418e-003 0. 0. 0. 5.98802418e-003 0. 5.98802418e-003 0.
      0. 0. 5.98802418e-003 0. 0. 0. 0. 0. 0. 0. 0. 0. 0. 0. 0. 0. 0. 0.
      0. 0. 5.98802418e-003 0. 0. 5.98802418e-003 0. 0. 0. 0. 0. 0. 0.
      0. 0. 0. 0. 0. 0. 0. 0. 0. 0. 0. 0. 0. 5.98802418e-003 0. 0.
      5.98802418e-003 0. 0. 0. 0. 0. 0. 0. 0. 1.19760484e-002 0. 0. 0.
      0. 0. 0. 0. 0. 0. 0. 0. 0. 0. 0. 0. 0. 0. 0. 0. 0. 5.98802418e-003
      0. 0. 0. 0. 0. 5.98802418e-003 0. 0. 0. 0. 0. 0. 1.19760484e-002
      0. 0. 5.98802418e-003 0. 0. 0. 5.98802418e-003 0. 5.98802418e-003
      0. 0. 0. 0. 0. 0. 0. 0. 0. 0. 0. 0. 0. 0. 0. 5.98802418e-003 0. 0.
      0. 0. 0. 0. 0. 5.98802418e-003 5.98802418e-003 0. 0. 0. 0.
      5.98802418e-003 0. 0. 0. 0. 0. 0. 0. 5.98802418e-003 0. 0. 0. 0.
      0. 5.98802418e-003 0. 5.98802418e-003 0. 0. 0. 5.98802418e-003 0.
      0. 0. 0. 0. 0. 5.98802418e-003 0. 0. 0. 0. 0. 0. 0. 0. 0.
      5.98802418e-003 0. 0. 0. 5.98802418e-003 0. 1.19760484e-002 0. 0.
      0. 5.98802418e-003 0. 0. 0. 0. 0. 0. 5.98802418e-003 0. 0. 0. 0.
      0. 5.98802418e-003 0. 0. 1.79640725e-002 5.98802418e-003 0. 0.
      1.19760484e-002 0. 0. 0. 0. 0. 0. 0. 0. 0. 0. 0. 0. 0. 0. 0. 0. 0.
      0. 0. 0. 0. 0. 0. 0. 0. 0. 0. 0. 5.98802418e-003 0. 0. 0. 0.
      1.19760484e-002 0. 0. 0. 0. 0. 5.98802418e-003 0. 0. 0. 0. 0.
      5.98802418e-003 0. 0. 5.98802418e-003 0. 5.98802418e-003 0. 0. 0.
      0. 5.98802418e-003 0. 0. 0. 0. 0. 0. 0. 0. 0. 0. 0. 0. 0.
      5.98802418e-003 5.98802418e-003 5.98802418e-003 0. 0. 0. 0. 0. 0.
      0. 0. 0. 0. 0. 0. 0. 0. 5.98802418e-003 0. 0. 0. 5.98802418e-003
      5.98802418e-003 0. 0. 5.98802418e-003 1.19760484e-002 0. 0.
      5.98802418e-003 1.19760484e-002 0. 0. 5.98802418e-003 0. 0. 0. 0.
      0. 0. 0. 0. 0. 0. 0. 0. 0. 0. 0. 5.98802418e-003 0. 0. 0.
      1.19760484e-002 0. 0. 0. 0. 0. 0. 0. 0. 5.98802418e-003 0. 0. 0.
      0. 0. 5.98802418e-003 0. 0. 0. 5.98802418e-003 0. 0. 0.
      5.98802418e-003 0. 5.98802418e-003 0. 0. 0. 0. 0. 5.98802418e-003
      0. 0. 0. 0. 0. 0. 0. 0. 5.98802418e-003 0. 0. 0. 0. 0. 0. 0. 0. 0.
      0. 0. 0. 0. 0. 0. 0. 0. 0. 0. 0. 5.98802418e-003 0. 0. 0. 0. 0. 0.
      0. 0. 0. 0. 0. 5.98802418e-003 0. 0. 0. 0. 0. 0. 0.
      5.98802418e-003 0. 0. 0. 0. 0. 0. 0. 0. 5.98802418e-003 0. 0. 0.
      5.98802418e-003 0. 0. 0. 0. 5.98802418e-003 0. 0. 0. 0. 0. 0.
      5.98802418e-003 0. 0. 0. 0. 1.19760484e-002 5.98802418e-003 0. 0.
      0. 0. 0. 0. 1.19760484e-002 0. 1.19760484e-002 0. 0. 0. 0. 0. 0.
      5.98802418e-003 0. 0. 0. 0. 0. 0. 0. 0. 0. 0. 0. 0. 0. 0. 0. 0.
      5.98802418e-003 0. 0. 0. 0. 5.98802418e-003 0. 0. 0. 0. 0. 0. 0.
      0. 0. 0. 0. 0. 0. 0. 0. 0. 5.98802418e-003 0. 0. 0. 0. 0. 0. 0. 0.
      0. 0. 0. 0. 0. 0. 0. 0. 0. 0. 0. 0. 5.98802418e-003 0. 0. 0. 0. 0.
      0. 0. 0. 0. 0. 0. 0. 0. 0. 0. 0. 0. 0. 0. 0. 0. 0. 0. 0. 0. 0. 0.
      0. 0. 0. 0. 0. 0. 0. 0. 1.79640725e-002 5.98802418e-003 0. 0. 0.
      5.98802418e-003 0. 0. 0. 0. 0. 0. 0. 0. 0. 0. 0. 0. 0. 0. 0. 0. 0.
      0. 0. 0. 0. 0. 0. 0. 0. 5.98802418e-003 0. 0. 0. 0. 0.
      5.98802418e-003 0. 0. 0. 0. 0. 0. 0. 5.98802418e-003 0. 0. 0. 0.
      0. 0. 0. 1.19760484e-002 0. 0. 0. 0. 1.19760484e-002 0. 0. 0. 0.
      0. 0. 5.98802418e-003 0. 0. 0. 0. 0. 0. 0. 0. 0. 0. 0. 0. 0. 0.
      5.98802418e-003 0. 0. 0. 0. 0. 0. 0. 0. 0. 0. 0. 0. 0. 0. 0. 0. 0.
      0. 0. 0. 5.98802418e-003 0. 0. 0. 5.98802418e-003 0. 0. 0. 0. 0.
      0. 0. 0. 0. 0. 0. 5.98802418e-003 0. 0. 0. 0. 0. 0.
      5.98802418e-003 0. 0. 0. 0. 0. 5.98802418e-003 5.98802418e-003 0.
      0. 0. 0. 0. 0. 0. 0. 0. 0. 5.98802418e-003 0. 0. 0. 0. 0. 0. 0.
      1.19760484e-002 0. 0. 0. 0. 5.98802418e-003 0. 0. 0. 0. 0. 0. 0.
      0. 5.98802418e-003 0. 0. 5.98802418e-003 0. 5.98802418e-003 0.
      5.98802418e-003 5.98802418e-003 0. 0. 0. 0. 1.19760484e-002 0. 0.
      0. 0. 0. 0. 5.98802418e-003 0. 5.98802418e-003 0. 0. 0. 0. 0. 0.
      2.39520967e-002 0. 0. 0. 5.98802418e-003 0. 0. 5.98802418e-003 0.
      0. 5.98802418e-003 0. 0. 0. 0. 0. 0. 5.98802418e-003 0. 0. 0. 0.
      0. 0. 0. 0. 0. 0. 0. 0. 0. 0. 0. 5.98802418e-003 0. 0. 0. 0. 0. 0.
      0. 0. 0. 0. 0. 0. 5.98802418e-003 0. 0. 5.98802418e-003 0. 0.
      5.98802418e-003 0. 0. 0. 0. 0. 0. 0. 5.98802418e-003 0.
      5.98802418e-003 0. 0. 0. 5.98802418e-003 5.98802418e-003 0. 0. 0.
      0. 0. 0.</_>
    <_>
      0. 0. 0. 0. 0. 0. 0. 0. 0. 0. 0. 0. 0. 7.69230770e-003 0. 0. 0. 0.
      7.69230770e-003 0. 7.69230770e-003 0. 0. 0. 0. 0. 0. 0. 0.
      3.07692308e-002 0. 0. 0. 0. 0. 0. 0. 0. 0. 0. 0. 0. 0.
      7.69230770e-003 0. 0. 0. 0. 0. 0. 0. 0. 0. 7.69230770e-003 0. 0.
      0. 0. 0. 0. 0. 0. 0. 0. 0. 0. 0. 0. 0. 0. 0. 0. 0. 0. 0. 0. 0. 0.
      0. 0. 0. 0. 7.69230770e-003 0. 0. 0. 0. 0. 0. 0. 0. 0.
      7.69230770e-003 0. 0. 0. 0. 0. 0. 0. 0. 0. 0. 0. 0. 0. 0. 0. 0. 0.
      0. 0. 0. 0. 0. 0. 0. 0. 0. 0. 0. 7.69230770e-003 0. 0. 0. 0. 0. 0.
      0. 0. 0. 0. 7.69230770e-003 0. 0. 0. 0. 0. 7.69230770e-003 0. 0.
      0. 0. 7.69230770e-003 0. 0. 0. 7.69230770e-003 0. 0. 0.
      7.69230770e-003 0. 0. 0. 3.84615399e-002 7.69230770e-003 0. 0. 0.
      0. 0. 7.69230770e-003 0. 0. 7.69230770e-003 0. 7.69230770e-003 0.
      7.69230770e-003 0. 0. 0. 0. 0. 0. 0. 0. 0. 0. 0. 0. 0. 0. 0. 0. 0.
      0. 0. 0. 0. 0. 0. 0. 7.69230770e-003 0. 7.69230770e-003 0. 0. 0.
      0. 7.69230770e-003 0. 0. 0. 0. 0. 0. 0. 7.69230770e-003
      7.69230770e-003 0. 0. 0. 7.69230770e-003 7.69230770e-003 0. 0. 0.
      0. 0. 0. 0. 7.69230770e-003 0. 0. 0. 0. 0. 0. 0. 0.
      7.69230770e-003 0. 0. 0. 0. 0. 0. 0. 0. 0. 0. 0. 7.69230770e-003
      0. 1.53846154e-002 0. 0. 0. 7.69230770e-003 0. 0. 0. 0. 0.
      7.69230770e-003 2.30769236e-002 0. 0. 0. 0. 0. 0. 0. 0. 0. 0. 0.
      7.69230770e-003 7.69230770e-003 1.53846154e-002 7.69230770e-003 0.
      0. 0. 0. 0. 0. 0. 0. 0. 0. 0. 0. 0. 0. 0. 0. 0. 7.69230770e-003 0.
      0. 0. 0. 1.53846154e-002 0. 0. 0. 0. 0. 0. 0. 0. 0. 0. 0. 0. 0. 0.
      0. 0. 0. 0. 0. 0. 0. 0. 7.69230770e-003 0. 3.07692308e-002 0. 0.
      7.69230770e-003 0. 0. 0. 0. 0. 0. 0. 0. 0. 7.69230770e-003 0. 0.
      0. 0. 0. 0. 0. 0. 0. 0. 0. 0. 0. 0. 0. 0. 0. 0. 0. 7.69230770e-003
      0. 0. 0. 0. 0. 0. 0. 0. 0. 0. 0. 0. 0. 0. 7.69230770e-003 0. 0. 0.
      0. 0. 0. 0. 0. 0. 0. 0. 0. 0. 0. 0. 0. 0. 1.53846154e-002 0. 0. 0.
      0. 0. 0. 0. 0. 0. 7.69230770e-003 7.69230770e-003 0. 0. 0. 0. 0.
      0. 7.69230770e-003 0. 0. 0. 0. 0. 0. 0. 0. 0. 7.69230770e-003
      7.69230770e-003 0. 0. 0. 0. 7.69230770e-003 0. 0. 0. 0. 0. 0. 0.
      0. 0. 0. 0. 0. 0. 0. 0. 0. 2.30769236e-002 0. 0. 0. 0. 0. 0. 0. 0.
      7.69230770e-003 0. 0. 0. 0. 0. 0. 0. 0. 7.69230770e-003 0. 0. 0.
      0. 0. 0. 0. 0. 0. 7.69230770e-003 0. 0. 0. 0. 0. 0. 0.
      7.69230770e-003 0. 7.69230770e-003 0. 7.69230770e-003 0. 0. 0.
      7.69230770e-003 0. 0. 0. 0. 0. 0. 0. 0. 0. 0. 0. 0. 0. 0. 0. 0. 0.
      0. 0. 7.69230770e-003 0. 0. 0. 7.69230770e-003 0. 0. 0. 0.
      7.69230770e-003 0. 0. 0. 0. 0. 0. 0. 0. 0. 7.69230770e-003 0. 0.
      7.69230770e-003 0. 0. 0. 0. 0. 0. 0. 0. 0. 0. 0. 0. 0. 0. 0. 0. 0.
      0. 0. 0. 0. 7.69230770e-003 0. 0. 0. 0. 0. 0. 0. 0. 0. 0. 0. 0. 0.
      7.69230770e-003 0. 0. 0. 0. 0. 0. 0. 0. 0. 0. 0. 0. 0. 0. 0. 0. 0.
      0. 0. 0. 0. 0. 0. 0. 0. 0. 0. 0. 0. 0. 0. 0. 0. 0. 0. 0. 0. 0. 0.
      0. 0. 0. 0. 0. 0. 0. 0. 0. 0. 0. 0. 0. 0. 0. 0. 7.69230770e-003
      1.53846154e-002 0. 0. 0. 1.53846154e-002 0. 0. 7.69230770e-003 0.
      0. 0. 2.30769236e-002 0. 0. 0. 0. 7.69230770e-003 0. 0. 0. 0.
      7.69230770e-003 0. 0. 0. 0. 0. 0. 0. 0. 0. 0. 0. 0. 0. 0. 0. 0. 0.
      0. 0. 0. 0. 0. 7.69230770e-003 0. 0. 0. 0. 0. 0. 0. 0. 0. 0. 0. 0.
      0. 0. 0. 0. 0. 7.69230770e-003 0. 0. 0. 0. 0. 0. 0. 0. 0. 0. 0. 0.
      7.69230770e-003 0. 0. 0. 0. 0. 0. 0. 0. 0. 0. 0. 0. 0. 0. 0. 0. 0.
      0. 0. 7.69230770e-003 0. 0. 0. 0. 0. 0. 0. 0. 0. 0.
      7.69230770e-003 0. 0. 0. 0. 0. 0. 0. 7.69230770e-003 0. 0. 0. 0.
      0. 0. 0. 0. 0. 0. 0. 0. 0. 0. 0. 0. 0. 0. 0. 7.69230770e-003 0. 0.
      7.69230770e-003 0. 0. 0. 0. 0. 0. 0. 0. 7.69230770e-003 0.
      7.69230770e-003 0. 7.69230770e-003 0. 0. 0. 0. 0. 0. 0. 0. 0. 0.
      0. 0. 0. 0. 0. 0. 0. 2.30769236e-002 0. 0. 0. 0. 0. 0. 0. 0. 0. 0.
      0. 0. 1.53846154e-002 0. 0. 0. 1.53846154e-002 0. 0. 0. 0. 0. 0.
      0. 0. 0. 0. 0. 0. 0. 0. 0. 0. 0. 0. 0. 0. 0. 0. 0. 0. 0. 0. 0. 0.
      0. 0. 0. 0. 0. 0. 0. 7.69230770e-003 0. 1.53846154e-002 0. 0. 0.
      0. 0. 0. 0. 0. 0. 0. 0. 0. 7.69230770e-003 0. 0. 7.69230770e-003
      0. 0. 0. 0. 0. 0. 0. 0. 0. 0. 0. 0. 0. 0. 7.69230770e-003 0. 0. 0.
      0. 0. 0. 0. 0. 0. 0. 0. 0. 7.69230770e-003 0. 0. 0. 0. 0. 0. 0. 0.
      0. 0. 0. 0. 0. 0. 0. 0. 0. 0. 0. 0. 0. 7.69230770e-003 0. 0. 0.
      7.69230770e-003 0. 0. 0. 0. 0. 0. 0. 0. 0. 0. 0. 0. 0. 0. 0. 0. 0.
      0. 0. 0. 7.69230770e-003 0. 0. 0. 0. 0. 0. 0. 0. 0. 0. 0. 0.
      7.69230770e-003 7.69230770e-003 0. 0. 0. 7.69230770e-003 0. 0. 0.
      0. 0. 0. 0. 0. 0. 7.69230770e-003 7.69230770e-003 0. 0. 0. 0. 0.
      0. 0. 0. 0. 0. 0. 0. 0. 0. 0. 0. 0. 0. 0. 0. 0. 0. 0. 0. 0. 0. 0.
      0. 0. 0. 0. 0. 0. 0. 0. 0. 0. 0. 0. 0.</_>
    <_>
      0. 0. 0. 0. 0. 0. 5.34759369e-003 0. 0. 0. 5.34759369e-003 0. 0.
      0. 5.34759369e-003 0. 0. 0. 5.34759369e-003 0. 0. 0. 0. 0. 0. 0.
      0. 0. 0. 5.34759369e-003 5.34759369e-003 0. 0. 0. 5.34759369e-003
      0. 0. 5.34759369e-003 0. 0. 0. 0. 0. 0. 0. 0. 0. 0. 0. 0. 0. 0. 0.
      0. 0. 0. 0. 0. 0. 0. 0. 5.34759369e-003 0. 0. 0. 0. 0. 0. 0. 0. 0.
      0. 0. 0. 0. 0. 0. 0. 0. 0. 0. 0. 0. 0. 0. 0. 5.34759369e-003 0.
      5.34759369e-003 0. 0. 0. 0. 0. 0. 0. 0. 0. 5.34759369e-003 0. 0.
      0. 0. 0. 0. 0. 0. 0. 5.34759369e-003 0. 0. 5.34759369e-003 0. 0.
      0. 0. 0. 0. 0. 5.34759369e-003 0. 0. 0. 0. 0. 5.34759369e-003 0.
      0. 0. 0. 5.34759369e-003 0. 0. 0. 0. 0. 1.60427801e-002 0. 0. 0.
      0. 0. 5.34759369e-003 0. 0. 0. 0. 0. 0. 0. 0. 5.34759369e-003 0.
      0. 0. 5.34759369e-003 0. 0. 0. 0. 0. 0. 0. 0. 0. 5.34759369e-003
      0. 5.34759369e-003 0. 0. 0. 0. 0. 0. 0. 0. 0. 0. 0. 0. 0. 0. 0. 0.
      0. 0. 0. 0. 0. 5.34759369e-003 0. 0. 0. 0. 5.34759369e-003 0.
      5.34759369e-003 0. 0. 0. 0. 0. 0. 0. 0. 5.34759369e-003 0. 0. 0.
      5.34759369e-003 0. 0. 0. 0. 0. 0. 0. 5.34759369e-003 0. 0. 0. 0.
      5.34759369e-003 0. 0. 0. 5.34759369e-003 0. 1.60427801e-002 0. 0.
      0. 0. 2.13903747e-002 0. 0. 0. 5.34759369e-003 0. 0. 0. 0. 0. 0.
      0. 0. 0. 0. 0. 0. 0. 0. 5.34759369e-003 5.34759369e-003 0. 0. 0.
      1.60427801e-002 0. 0. 0. 5.34759369e-003 5.34759369e-003
      1.06951874e-002 0. 5.34759369e-003 5.34759369e-003 0. 0. 0. 0. 0.
      5.34759369e-003 0. 0. 0. 0. 0. 0. 0. 0. 5.34759369e-003 0. 0.
      5.34759369e-003 0. 0. 0. 5.34759369e-003 0. 5.34759369e-003 0. 0.
      0. 0. 0. 0. 0. 0. 5.34759369e-003 0. 0. 0. 0. 0. 5.34759369e-003
      0. 0. 0. 0. 0. 5.34759369e-003 0. 0. 0. 0. 0. 0. 0. 0.
      5.34759369e-003 5.34759369e-003 0. 0. 0. 0. 0. 0. 0. 0. 0. 0. 0.
      0. 5.34759369e-003 0. 0. 0. 0. 0. 0. 0. 0. 0. 0. 0. 0. 0. 0. 0. 0.
      1.06951874e-002 0. 5.34759369e-003 0. 0. 0. 0. 0. 0. 0. 0. 0. 0.
      1.60427801e-002 0. 0. 5.34759369e-003 0. 0. 0. 0. 0.
      1.06951874e-002 0. 0. 0. 5.34759369e-003 1.60427801e-002 0. 0. 0.
      5.34759369e-003 0. 0. 0. 1.06951874e-002 0. 0. 5.34759369e-003 0.
      0. 0. 0. 0. 0. 0. 0. 0. 0. 0. 0. 0. 0. 0. 0. 0. 0. 0. 0. 0. 0. 0.
      0. 0. 0. 0. 0. 0. 5.34759369e-003 0. 0. 0. 0. 0. 0.
      5.34759369e-003 5.34759369e-003 5.34759369e-003 0. 0. 0. 0. 0. 0.
      0. 0. 5.34759369e-003 0. 5.34759369e-003 0. 0. 0. 0. 0. 0.
      5.34759369e-003 5.34759369e-003 0. 0. 5.34759369e-003 0. 0. 0. 0.
      0. 0. 0. 0. 1.06951874e-002 0. 0. 0. 0. 0. 0. 0. 0. 0.
      5.34759369e-003 0. 0. 5.34759369e-003 0. 0. 0. 0. 0. 0. 0. 0. 0.
      0. 0. 0. 0. 0. 0. 5.34759369e-003 0. 0. 0. 0. 0. 0. 0. 0. 0. 0. 0.
      0. 0. 0. 0. 0. 0. 0. 0. 0. 0. 0. 0. 0. 0. 0. 0. 0. 0. 0. 0. 0. 0.
      0. 0. 0. 0. 0. 0. 0. 0. 5.34759369e-003 0. 0. 5.34759369e-003 0.
      0. 0. 0. 5.34759369e-003 0. 0. 0. 0. 0. 0. 0. 0. 0.
      5.34759369e-003 0. 5.34759369e-003 0. 0. 0. 0. 0. 0.
      5.34759369e-003 0. 0. 0. 0. 0. 0. 0. 0. 0. 0. 0. 0. 0. 0. 0. 0. 0.
      0. 0. 5.34759369e-003 0. 0. 0. 0. 0. 0. 0. 0. 0. 0. 0. 0. 0. 0.
      5.34759369e-003 0. 0. 0. 0. 5.34759369e-003 5.34759369e-003 0. 0.
      0. 0. 1.06951874e-002 0. 0. 0. 0. 0. 0. 0. 0. 0. 0.
      5.34759369e-003 0. 0. 0. 5.34759369e-003 0. 0. 0. 0. 0. 0. 0. 0.
      0. 5.34759369e-003 0. 0. 0. 0. 0. 0. 0. 0. 0. 0. 0. 0. 0. 0. 0.
      5.34759369e-003 0. 0. 0. 0. 0. 0. 0. 1.06951874e-002 0. 0. 0. 0.
      0. 0. 0. 0. 0. 0. 0. 0. 0. 0. 0. 0. 0. 0. 0. 0. 1.06951874e-002 0.
      0. 0. 0. 1.06951874e-002 0. 0. 0. 5.34759369e-003 0. 0. 0. 0. 0.
      5.34759369e-003 5.34759369e-003 0. 0. 0. 0. 5.34759369e-003 0. 0.
      1.06951874e-002 0. 0. 0. 0. 0. 0. 0. 0. 1.06951874e-002 0. 0.
      5.34759369e-003 0. 0. 0. 0. 0. 0. 0. 0. 0. 0. 0. 0. 0. 0. 0. 0.
      5.34759369e-003 0. 0. 0. 5.34759369e-003 0. 0. 5.34759369e-003 0.
      0. 0. 0. 0. 0. 0. 0. 0. 0. 1.06951874e-002 1.06951874e-002 0. 0.
      0. 0. 0. 0. 5.34759369e-003 0. 5.34759369e-003 0. 0. 0. 0. 0. 0.
      0. 0. 0. 5.34759369e-003 0. 0. 0. 0. 0. 0. 0. 0. 0. 0. 0.
      5.34759369e-003 0. 0. 5.34759369e-003 5.34759369e-003 0.
      5.34759369e-003 0. 0. 0. 0. 0. 0. 0. 0. 0. 0. 0. 0. 0. 0. 0.
      5.34759369e-003 0. 0. 0. 5.34759369e-003 0. 0. 0. 0. 0. 0. 0. 0.
      0. 0. 0. 0. 0. 0. 0. 0. 0. 0. 0. 0. 0. 1.06951874e-002 0. 0. 0. 0.
      5.34759369e-003 0. 5.34759369e-003 0. 0. 5.34759369e-003
      5.34759369e-003 1.06951874e-002 5.34759369e-003 0. 0. 0. 0. 0. 0.
      5.34759369e-003 5.34759369e-003 5.34759369e-003 0. 0. 0. 0. 0. 0.
      0. 0. 0. 0. 5.34759369e-003 5.34759369e-003 0. 0. 0. 0. 0. 0. 0.
      5.34759369e-003 5.34759369e-003 0. 5.34759369e-003 0. 0.
      5.34759369e-003 0. 0. 0. 5.34759369e-003 0. 0. 0. 0.
      5.34759369e-003 0. 5.34759369e-003 0. 5.34759369e-003 0. 0. 0. 0.
      0. 0. 0. 0. 0. 0. 0. 0. 5.34759369e-003 0. 0. 0. 0. 0. 0. 0. 0. 0.
      0. 0. 0. 0. 0. 0. 5.34759369e-003 0. 0. 0. 0. 0. 0. 0. 0.
      1.06951874e-002 5.34759369e-003 0. 0. 0. 0. 1.06951874e-002 0. 0.
      5.34759369e-003 0. 0. 0. 0. 0. 0. 0. 5.34759369e-003 0.
      1.06951874e-002 0. 0. 0. 0. 0. 5.34759369e-003 5.34759369e-003 0.
      0. 0. 0. 1.06951874e-002 0. 0. 0. 0. 0. 0. 5.34759369e-003
      5.34759369e-003 5.34759369e-003 0. 0. 0. 0. 0. 0. 5.34759369e-003
      0. 0. 0. 5.34759369e-003 0. 1.06951874e-002 0. 5.34759369e-003 0.
      0. 0. 0. 0. 0. 0. 5.34759369e-003 0. 0. 0. 0. 0. 0. 0. 0. 0. 0. 0.
      0. 0.</_>
    <_>
      0. 0. 0. 0. 0. 0. 0. 0. 0. 0. 0. 0. 0. 0. 0. 0. 0. 0. 0. 0. 0. 0.
      0. 0. 0. 0. 5.46448072e-003 5.46448072e-003 0. 0. 0. 0.
      5.46448072e-003 0. 0. 0. 0. 1.09289614e-002 0. 5.46448072e-003 0.
      0. 0. 0. 0. 5.46448072e-003 5.46448072e-003 0. 0. 0. 0. 0. 0. 0.
      0. 0. 0. 0. 5.46448072e-003 1.09289614e-002 0. 0. 0. 0. 0. 0. 0.
      0. 0. 0. 5.46448072e-003 0. 0. 0. 0. 0. 0. 0. 0. 0. 0. 0.
      1.09289614e-002 5.46448072e-003 0. 0. 0. 5.46448072e-003 0.
      5.46448072e-003 0. 0. 0. 0. 0. 0. 0. 0. 0. 0. 0. 0. 0. 0. 0. 0. 0.
      0. 0. 5.46448072e-003 0. 0. 0. 0. 0. 0. 0. 0. 0. 0. 0. 0. 0. 0. 0.
      0. 0. 0. 0. 0. 0. 5.46448072e-003 0. 0. 5.46448072e-003 0.
      5.46448072e-003 0. 0. 5.46448072e-003 0. 0. 0. 5.46448072e-003
      1.09289614e-002 5.46448072e-003 0. 5.46448072e-003 5.46448072e-003
      0. 0. 0. 0. 1.09289614e-002 0. 0. 0. 0. 0. 0. 0. 0.
      5.46448072e-003 0. 0. 0. 0. 0. 0. 0. 0. 0. 0. 0. 0. 0. 0. 0. 0.
      5.46448072e-003 0. 0. 0. 0. 0. 0. 0. 0. 0. 0. 0. 1.09289614e-002
      0. 0. 0. 0. 0. 0. 0. 0. 0. 0. 0. 0. 0. 0. 0. 0. 0. 0. 0. 0. 0. 0.
      5.46448072e-003 0. 0. 0. 0. 5.46448072e-003 0. 0. 0. 0.
      1.09289614e-002 5.46448072e-003 0. 5.46448072e-003 0. 0. 0.
      5.46448072e-003 0. 0. 0. 5.46448072e-003 0. 0. 0. 0. 0. 0.
      5.46448072e-003 0. 0. 0. 5.46448072e-003 0. 0. 0. 0. 0. 0.
      5.46448072e-003 0. 0. 0. 0. 0. 1.09289614e-002 0. 0. 0. 0. 0.
      1.09289614e-002 0. 0. 0. 0. 0. 0. 1.09289614e-002 0. 0. 0. 0. 0.
      0. 0. 0. 0. 0. 0. 0. 0. 0. 0. 0. 0. 0. 0. 5.46448072e-003 0. 0. 0.
      0. 0. 5.46448072e-003 0. 0. 0. 0. 0. 0. 0. 0. 0. 0. 0. 0.
      5.46448072e-003 0. 0. 0. 0. 0. 0. 0. 0. 0. 5.46448072e-003
      5.46448072e-003 0. 0. 5.46448072e-003 5.46448072e-003 0. 0. 0. 0.
      5.46448072e-003 0. 5.46448072e-003 0. 0. 5.46448072e-003 0. 0. 0.
      0. 0. 0. 0. 0. 0. 1.09289614e-002 0. 0. 0. 0. 1.09289614e-002 0.
      0. 0. 0. 0. 0. 0. 0. 0. 0. 0. 0. 5.46448072e-003 0.
      5.46448072e-003 0. 0. 1.09289614e-002 0. 0. 0. 0. 0.
      5.46448072e-003 0. 0. 0. 0. 0. 0. 0. 0. 0. 0. 0. 0. 0. 0. 0. 0. 0.
      5.46448072e-003 0. 0. 0. 0. 0. 0. 0. 0. 0. 0. 0. 5.46448072e-003
      5.46448072e-003 0. 5.46448072e-003 0. 5.46448072e-003 0. 0. 0. 0.
      5.46448072e-003 0. 0. 0. 1.09289614e-002 0. 0. 0. 0. 0. 0. 0. 0.
      0. 0. 0. 0. 0. 0. 0. 0. 0. 0. 0. 5.46448072e-003 0. 0.
      1.09289614e-002 0. 0. 5.46448072e-003 5.46448072e-003 0. 0. 0. 0.
      0. 0. 0. 0. 0. 5.46448072e-003 0. 5.46448072e-003 0. 0. 0. 0. 0.
      0. 0. 1.09289614e-002 0. 0. 0. 0. 0. 0. 0. 0. 0. 0. 0. 0. 0. 0. 0.
      0. 0. 5.46448072e-003 5.46448072e-003 0. 0. 0. 0. 0. 0. 0. 0. 0.
      0. 0. 0. 0. 0. 0. 0. 0. 0. 1.09289614e-002 5.46448072e-003
      5.46448072e-003 0. 0. 0. 0. 0. 5.46448072e-003 0. 0. 0.
      5.46448072e-003 5.46448072e-003 5.46448072e-003 0. 1.09289614e-002
      0. 0. 0. 0. 0. 0. 0. 0. 0. 0. 0. 0. 0. 5.46448072e-003 0. 0.
      5.46448072e-003 0. 0. 0. 0. 0. 0. 0. 1.09289614e-002 0. 0. 0. 0.
      0. 0. 0. 0. 0. 0. 5.46448072e-003 0. 0. 0. 0. 1.09289614e-002 0.
      0. 0. 0. 1.09289614e-002 0. 0. 0. 5.46448072e-003 5.46448072e-003
      0. 0. 0. 0. 0. 5.46448072e-003 0. 0. 0. 5.46448072e-003 0.
      5.46448072e-003 0. 0. 0. 0. 0. 0. 0. 5.46448072e-003
      5.46448072e-003 0. 5.46448072e-003 0. 5.46448072e-003 0. 0. 0. 0.
      0. 0. 0. 0. 0. 0. 0. 0. 0. 5.46448072e-003 0. 0. 0. 0. 0.
      5.46448072e-003 0. 0. 0. 0. 0. 0. 5.46448072e-003 5.46448072e-003
      0. 0. 0. 5.46448072e-003 0. 0. 0. 5.46448072e-003 0. 0. 0. 0. 0.
      0. 0. 0. 0. 0. 0. 0. 0. 0. 0. 0. 0. 0. 0. 0. 0. 0. 0. 0. 0. 0. 0.
      0. 5.46448072e-003 5.46448072e-003 0. 0. 0. 0. 0. 0. 0. 0. 0. 0.
      0. 0. 5.46448072e-003 0. 0. 5.46448072e-003 5.46448072e-003 0.
      5.46448072e-003 0. 0. 0. 0. 5.46448072e-003 0. 0. 5.46448072e-003
      0. 0. 0. 5.46448072e-003 0. 0. 0. 0. 0. 5.46448072e-003 0. 0. 0.
      0. 0. 5.46448072e-003 0. 5.46448072e-003 5.46448072e-003 0. 0. 0.
      0. 0. 5.46448072e-003 5.46448072e-003 0. 5.46448072e-003 0. 0.
      5.46448072e-003 0. 0. 0. 0. 0. 0. 0. 0. 0. 0. 0. 0.
      5.46448072e-003 0. 0. 0. 0. 5.46448072e-003 5.46448072e-003 0. 0.
      0. 0. 1.09289614e-002 5.46448072e-003 0. 0. 0. 0. 0. 0.
      5.46448072e-003 0. 0. 0. 0. 0. 0. 0. 0. 0. 0. 0. 1.09289614e-002
      0. 1.09289614e-002 0. 0. 0. 0. 5.46448072e-003 0. 5.46448072e-003
      5.46448072e-003 0. 0. 5.46448072e-003 5.46448072e-003
      5.46448072e-003 0. 0. 0. 0. 0. 0. 0. 0. 1.09289614e-002 0. 0. 0.
      0. 0. 0. 0. 0. 0. 0. 0. 0. 0. 0. 0. 0. 0. 0. 0. 0. 0. 0. 0. 0. 0.
      0. 0. 0. 0. 0. 0. 0. 0. 0. 0. 0. 0. 0. 0. 0. 0. 0. 0. 0. 0.
      5.46448072e-003 0. 0. 5.46448072e-003 0. 5.46448072e-003 0. 0. 0.
      0. 0. 0. 0. 0. 0. 5.46448072e-003 0. 0. 0. 0. 0. 0.
      5.46448072e-003 0. 0. 0. 0. 0. 0. 0. 0. 0. 0. 0. 0. 0. 0. 0.
      5.46448072e-003 0. 0. 0. 0. 0. 0. 0. 0. 0. 0. 0. 0. 0. 0. 0.
      5.46448072e-003 1.09289614e-002 0. 0. 0. 0. 0. 0. 0. 0. 0. 0. 0.
      0. 0. 0. 0. 0. 5.46448072e-003 0. 0. 5.46448072e-003 0. 0. 0. 0.
      0. 0. 0. 5.46448072e-003 0. 0. 0. 1.09289614e-002 0. 0.
      5.46448072e-003 0. 0. 0. 0. 5.46448072e-003 0. 0. 0.
      1.09289614e-002 0. 0. 0. 0. 0. 5.46448072e-003 0. 0. 0. 0. 0. 0.
      0. 0. 0. 5.46448072e-003 0. 5.46448072e-003 0. 0. 0. 0. 0. 0. 0.
      0. 0. 0. 0. 0. 0. 0. 0. 0. 5.46448072e-003 0. 0. 0. 0. 0. 0. 0. 0.
      0. 0. 0. 0. 0. 0. 0. 0. 0. 0. 0. 0. 0. 0. 0. 0. 5.46448072e-003
      5.46448072e-003 0. 0. 0. 0. 0.</_>
    <_>
      0. 0. 0. 0. 0. 6.21118024e-003 0. 0. 0. 0. 0. 0. 0.
      6.21118024e-003 0. 0. 0. 0. 0. 0. 0. 0. 0. 6.21118024e-003 0. 0.
      0. 0. 0. 0. 0. 0. 0. 0. 0. 0. 0. 0. 0. 0. 0. 0. 0. 0. 0. 0. 0. 0.
      0. 6.21118024e-003 0. 0. 0. 0. 6.21118024e-003 0. 0. 0. 0. 0. 0.
      0. 0. 0. 0. 0. 0. 0. 0. 0. 0. 0. 0. 2.48447210e-002 0. 0. 0. 0. 0.
      0. 0. 0. 6.21118024e-003 0. 0. 0. 0. 0. 0. 0. 0. 0.
      6.21118024e-003 0. 0. 0. 0. 0. 6.21118024e-003 6.21118024e-003 0.
      0. 6.21118024e-003 0. 0. 6.21118024e-003 0. 0. 0. 0. 0. 0. 0. 0.
      0. 0. 0. 0. 0. 6.21118024e-003 0. 0. 0. 0. 0. 0. 0. 0. 0.
      6.21118024e-003 0. 0. 0. 0. 0. 0. 6.21118024e-003 0. 0.
      6.21118024e-003 0. 0. 0. 6.21118024e-003 0. 0. 0. 0. 0. 0. 0. 0.
      0. 6.21118024e-003 0. 0. 0. 0. 0. 0. 0. 6.21118024e-003 0. 0. 0.
      0. 6.21118024e-003 0. 6.21118024e-003 0. 0. 0. 6.21118024e-003 0.
      0. 6.21118024e-003 0. 0. 0. 0. 6.21118024e-003 0. 0. 0. 0. 0. 0.
      0. 0. 0. 0. 0. 0. 0. 6.21118024e-003 0. 0. 0. 0. 0.
      6.21118024e-003 0. 0. 0. 0. 1.24223605e-002 0. 0. 0. 0. 0. 0. 0.
      0. 0. 6.21118024e-003 0. 6.21118024e-003 0. 0. 0. 0. 0. 0. 0. 0.
      0. 0. 1.24223605e-002 0. 0. 0. 0. 0. 0. 0. 6.21118024e-003 0. 0.
      0. 0. 0. 0. 0. 0. 0. 0. 0. 0. 6.21118024e-003 0. 0.
      6.21118024e-003 0. 0. 0. 0. 6.21118024e-003 0. 6.21118024e-003 0.
      0. 0. 0. 0. 0. 0. 0. 6.21118024e-003 0. 6.21118024e-003 0. 0. 0.
      0. 1.24223605e-002 0. 0. 0. 0. 0. 0. 0. 0. 0. 0. 0. 0. 0. 0. 0. 0.
      6.21118024e-003 0. 0. 0. 0. 0. 0. 6.21118024e-003 0. 0. 0. 0. 0.
      0. 0. 0. 0. 0. 0. 0. 0. 0. 6.21118024e-003 0. 0. 0. 0. 0. 0. 0. 0.
      0. 0. 1.24223605e-002 6.21118024e-003 0. 0. 0. 6.21118024e-003 0.
      0. 0. 0. 0. 0. 0. 6.21118024e-003 0. 0. 0. 0. 0. 6.21118024e-003
      6.21118024e-003 0. 0. 0. 0. 1.24223605e-002 0. 0. 0. 0. 0. 0. 0.
      0. 0. 0. 0. 1.24223605e-002 6.21118024e-003 1.24223605e-002
      1.24223605e-002 0. 0. 6.21118024e-003 6.21118024e-003 0. 0. 0. 0.
      0. 6.21118024e-003 0. 0. 0. 0. 0. 0. 6.21118024e-003 0.
      6.21118024e-003 0. 0. 0. 0. 0. 6.21118024e-003 0. 0. 0. 0. 0.
      1.24223605e-002 0. 0. 0. 6.21118024e-003 0. 0. 0. 0. 0. 0. 0. 0.
      0. 0. 0. 0. 0. 0. 0. 0. 0. 0. 0. 0. 0. 0. 6.21118024e-003 0. 0.
      6.21118024e-003 6.21118024e-003 0. 0. 0. 6.21118024e-003 0. 0. 0.
      0. 0. 0. 0. 0. 0. 6.21118024e-003 0. 0. 0. 0. 0. 0. 0. 0. 0. 0. 0.
      0. 6.21118024e-003 0. 0. 0. 0. 6.21118024e-003 0. 0. 0.
      6.21118024e-003 1.24223605e-002 6.21118024e-003 0. 0. 0. 0. 0. 0.
      0. 0. 0. 6.21118024e-003 1.24223605e-002 0. 0. 0. 0. 0.
      6.21118024e-003 0. 0. 0. 0. 0. 0. 0. 0. 0. 0. 0. 0. 0. 0. 0. 0. 0.
      0. 0. 0. 0. 0. 0. 0. 0. 0. 0. 0. 0. 6.21118024e-003 0. 0. 0. 0. 0.
      0. 0. 0. 0. 0. 0. 6.21118024e-003 0. 0. 0. 0. 0. 0. 0. 0. 0. 0.
      6.21118024e-003 0. 0. 0. 0. 0. 0. 0. 0. 0. 6.21118024e-003 0. 0.
      6.21118024e-003 6.21118024e-003 6.21118024e-003 0. 0.
      6.21118024e-003 0. 0. 0. 0. 0. 0. 0. 0. 0. 0. 0. 1.24223605e-002
      0. 0. 0. 0. 0. 0. 0. 0. 0. 0. 0. 1.86335407e-002 6.21118024e-003
      6.21118024e-003 0. 0. 6.21118024e-003 0. 0. 0. 0. 0.
      6.21118024e-003 0. 0. 0. 0. 0. 0. 0. 0. 0. 0. 0. 0. 0.
      6.21118024e-003 6.21118024e-003 0. 0. 0. 0. 0. 0. 0. 0. 0. 0. 0.
      0. 6.21118024e-003 0. 0. 0. 0. 0. 0. 0. 0. 0. 0. 6.21118024e-003
      0. 0. 0. 0. 0. 6.21118024e-003 0. 0. 0. 0. 6.21118024e-003 0. 0.
      0. 0. 6.21118024e-003 0. 0. 6.21118024e-003 1.24223605e-002 0. 0.
      0. 0. 0. 1.24223605e-002 0. 0. 6.21118024e-003 0. 0. 0. 0. 0. 0.
      6.21118024e-003 0. 0. 0. 0. 6.21118024e-003 0. 0. 0. 0. 0. 0. 0.
      0. 0. 6.21118024e-003 0. 0. 0. 6.21118024e-003 0. 0. 0. 0. 0. 0.
      0. 0. 1.24223605e-002 0. 6.21118024e-003 0. 0. 0. 0. 0. 0. 0. 0.
      0. 0. 0. 0. 0. 0. 0. 0. 0. 0. 0. 0. 0. 0. 0. 0. 0. 0. 0. 0. 0.
      6.21118024e-003 0. 0. 0. 0. 0. 0. 0. 0. 0. 0. 6.21118024e-003 0.
      0. 0. 0. 0. 0. 0. 0. 0. 0. 6.21118024e-003 0. 0. 0. 0. 0. 0. 0. 0.
      0. 0. 6.21118024e-003 0. 0. 0. 0. 0. 0. 0. 0. 0. 0. 0.
      6.21118024e-003 0. 6.21118024e-003 0. 0. 0. 0. 0. 0. 0. 0. 0. 0.
      0. 0. 0. 0. 0. 0. 0. 6.21118024e-003 6.21118024e-003 0. 0. 0.
      6.21118024e-003 0. 0. 6.21118024e-003 0. 0. 0. 0. 0. 0. 0. 0. 0.
      0. 0. 0. 0. 0. 0. 0. 0. 0. 0. 1.24223605e-002 0. 0. 0. 0. 0. 0.
      6.21118024e-003 0. 0. 0. 0. 0. 0. 0. 0. 0. 0. 6.21118024e-003
      6.21118024e-003 0. 6.21118024e-003 0. 0. 0. 0. 0. 0. 0. 0. 0. 0.
      0. 0. 0. 0. 0. 0. 0. 0. 0. 0. 0. 0. 0. 0. 0. 0. 0. 0. 0. 0.
      6.21118024e-003 0. 0. 0. 0. 0. 0. 0. 0. 0. 0. 0. 6.21118024e-003
      0. 0. 0. 0. 0. 0. 0. 0. 0. 0. 0. 0. 0. 0. 1.24223605e-002 0. 0. 0.
      0. 0. 0. 0. 0. 0. 0. 0. 0. 0. 0. 0. 0. 0. 0. 0. 0. 0. 0.
      6.21118024e-003 0. 0. 0. 0. 0. 0. 0. 0. 0. 6.21118024e-003 0. 0.
      0. 6.21118024e-003 1.24223605e-002 0. 0. 1.24223605e-002
      6.21118024e-003 0. 0. 0. 0. 0. 6.21118024e-003 0. 0.
      6.21118024e-003 0. 0. 0. 0. 0. 0. 0. 1.24223605e-002 0. 0. 0. 0.
      0. 0. 0. 0. 0. 0. 0. 0. 0. 0. 0. 0. 0. 0. 0. 0. 0. 0. 0. 0. 0. 0.
      0. 0. 0. 0. 0. 0. 0. 0. 0. 6.21118024e-003 6.21118024e-003
      1.24223605e-002 0. 0. 0. 0. 0. 6.21118024e-003 0.</_>
    <_>
      0. 0. 0. 0. 0. 0. 0. 4.36681230e-003 0. 0. 0. 0. 0. 0.
      4.36681230e-003 0. 0. 4.36681230e-003 0. 0. 4.36681230e-003 0. 0.
      0. 0. 0. 0. 0. 0. 4.36681230e-003 0. 0. 0. 0. 0. 4.36681230e-003
      0. 0. 0. 0. 0. 0. 4.36681230e-003 0. 0. 0. 4.36681230e-003 0. 0.
      0. 0. 0. 0. 0. 0. 4.36681230e-003 0. 4.36681230e-003
      8.73362459e-003 0. 0. 0. 0. 0. 0. 0. 0. 0. 4.36681230e-003 0. 0.
      0. 0. 4.36681230e-003 0. 0. 0. 0. 0. 0. 0. 0. 0. 8.73362459e-003
      0. 0. 0. 4.36681230e-003 8.73362459e-003 0. 0. 0. 0. 0. 0. 0. 0.
      0. 0. 4.36681230e-003 4.36681230e-003 0. 0. 0. 4.36681230e-003 0.
      0. 0. 0. 0. 0. 0. 0. 0. 0. 0. 0. 0. 0. 0. 0. 0. 0. 0.
      8.73362459e-003 0. 0. 0. 0. 0. 0. 0. 4.36681230e-003 0. 0.
      4.36681230e-003 4.36681230e-003 0. 0. 4.36681230e-003 0. 0. 0.
      8.73362459e-003 4.36681230e-003 0. 4.36681230e-003 0. 0. 0. 0.
      4.36681230e-003 0. 8.73362459e-003 0. 8.73362459e-003 0. 0. 0.
      8.73362459e-003 0. 0. 0. 0. 0. 0. 0. 0. 0. 0. 0. 0. 0. 0. 0. 0.
      4.36681230e-003 0. 0. 0. 0. 0. 0. 0. 0. 0. 8.73362459e-003 0. 0.
      0. 0. 0. 0. 0. 0. 4.36681230e-003 0. 0. 0. 4.36681230e-003 0. 0.
      0. 4.36681230e-003 1.31004369e-002 4.36681230e-003 0. 0. 0. 0. 0.
      0. 4.36681230e-003 4.36681230e-003 0. 0. 4.36681230e-003 0.
      4.36681230e-003 0. 0. 0. 0. 0. 0. 0. 8.73362459e-003 0.
      4.36681230e-003 0. 0. 0. 0. 4.36681230e-003 0. 4.36681230e-003 0.
      0. 0. 0. 4.36681230e-003 0. 2.18340605e-002 4.36681230e-003 0. 0.
      0. 0. 0. 0. 4.36681230e-003 0. 0. 4.36681230e-003 0.
      4.36681230e-003 4.36681230e-003 0. 0. 4.36681230e-003 0. 0. 0. 0.
      0. 0. 0. 0. 0. 0. 0. 8.73362459e-003 4.36681230e-003 0. 0. 0.
      4.36681230e-003 0. 0. 4.36681230e-003 0. 0. 0. 0. 0. 0. 0.
      4.36681230e-003 4.36681230e-003 0. 0. 0. 0. 0. 0. 0. 0. 0.
      4.36681230e-003 4.36681230e-003 0. 0. 0. 0. 0. 0. 0. 0. 0. 0. 0.
      0. 0. 0. 0. 0. 0. 0. 0. 0. 0. 0. 0. 0. 0. 0. 4.36681230e-003
      4.36681230e-003 4.36681230e-003 0. 4.36681230e-003 0. 0. 0. 0. 0.
      0. 0. 0. 0. 0. 4.36681230e-003 0. 8.73362459e-003 0. 0. 0. 0. 0.
      0. 0. 0. 0. 0. 0. 0. 0. 4.36681230e-003 0. 0. 0. 4.36681230e-003
      0. 0. 4.36681230e-003 4.36681230e-003 0. 0. 0. 0. 4.36681230e-003
      0. 0. 4.36681230e-003 0. 0. 4.36681230e-003 0. 0. 0. 0. 0. 0. 0.
      0. 0. 0. 0. 0. 0. 0. 0. 0. 0. 0. 0. 4.36681230e-003 0. 0. 0.
      4.36681230e-003 0. 0. 0. 0. 0. 0. 0. 0. 0. 0. 0. 0. 0. 0.
      4.36681230e-003 0. 0. 0. 0. 0. 4.36681230e-003 0. 4.36681230e-003
      0. 0. 0. 0. 0. 0. 0. 0. 0. 0. 0. 0. 0. 0. 0. 0. 4.36681230e-003 0.
      0. 0. 0. 0. 0. 0. 0. 4.36681230e-003 0. 0. 4.36681230e-003
      4.36681230e-003 0. 0. 1.31004369e-002 0. 0. 4.36681230e-003
      4.36681230e-003 0. 0. 0. 0. 0. 0. 0. 0. 0. 0. 0. 0. 0. 0. 0.
      8.73362459e-003 8.73362459e-003 0. 0. 0. 0. 8.73362459e-003
      8.73362459e-003 0. 0. 0. 0. 0. 0. 0. 0. 8.73362459e-003 0. 0. 0.
      0. 0. 0. 4.36681230e-003 0. 0. 0. 0. 4.36681230e-003 0. 0. 0.
      4.36681230e-003 4.36681230e-003 8.73362459e-003 0. 4.36681230e-003
      0. 0. 0. 4.36681230e-003 0. 0. 0. 0. 4.36681230e-003 0. 0. 0. 0.
      0. 0. 0. 0. 0. 0. 0. 0. 0. 0. 0. 0. 0. 0. 4.36681230e-003
      4.36681230e-003 0. 0. 0. 4.36681230e-003 0. 0. 0. 0. 0. 0. 0. 0.
      0. 0. 4.36681230e-003 0. 0. 0. 0. 0. 0. 4.36681230e-003 0. 0.
      4.36681230e-003 0. 0. 0. 0. 0. 0. 0. 0. 4.36681230e-003 0.
      8.73362459e-003 0. 0. 0. 0. 0. 0. 0. 0. 0. 4.36681230e-003
      4.36681230e-003 0. 0. 0. 0. 0. 0. 0. 0. 0. 4.36681230e-003 0. 0.
      4.36681230e-003 0. 0. 0. 0. 0. 0. 4.36681230e-003 0. 0. 0. 0. 0.
      0. 0. 0. 0. 0. 0. 0. 4.36681230e-003 4.36681230e-003 0. 0. 0.
      4.36681230e-003 0. 0. 0. 0. 0. 0. 0. 0. 8.73362459e-003 0.
      4.36681230e-003 0. 0. 0. 0. 0. 0. 0. 0. 0. 0. 0. 0. 0. 0. 0. 0. 0.
      8.73362459e-003 0. 4.36681230e-003 0. 0. 0. 4.36681230e-003 0. 0.
      0. 0. 0. 0. 0. 0. 0. 0. 8.73362459e-003 0. 0. 0. 8.73362459e-003
      0. 0. 0. 0. 0. 0. 0. 0. 0. 0. 0. 4.36681230e-003 0. 0. 0. 0. 0. 0.
      4.36681230e-003 0. 0. 0. 0. 0. 0. 0. 0. 0. 0. 0. 0. 0. 0. 0. 0. 0.
      4.36681230e-003 4.36681230e-003 0. 4.36681230e-003 0. 0.
      4.36681230e-003 0. 0. 0. 0. 0. 0. 0. 0. 4.36681230e-003 0. 0. 0.
      4.36681230e-003 4.36681230e-003 0. 0. 0. 0. 0. 0. 0. 0.
      4.36681230e-003 0. 0. 0. 0. 0. 0. 0. 0. 0. 0. 4.36681230e-003 0.
      0. 0. 0. 0. 0. 0. 8.73362459e-003 8.73362459e-003 0. 0. 0. 0.
      8.73362459e-003 4.36681230e-003 0. 4.36681230e-003 4.36681230e-003
      4.36681230e-003 0. 0. 0. 0. 0. 0. 4.36681230e-003 0. 0. 0.
      4.36681230e-003 0. 8.73362459e-003 0. 0. 0. 4.36681230e-003 0. 0.
      0. 0. 0. 0. 0. 0. 0. 0. 0. 0. 0. 0. 0. 0. 0. 0. 4.36681230e-003
      4.36681230e-003 8.73362459e-003 0. 0. 0. 0. 0. 4.36681230e-003 0.
      4.36681230e-003 4.36681230e-003 0. 0. 0. 0. 0. 0. 0. 0. 0. 0. 0.
      4.36681230e-003 0. 0. 4.36681230e-003 0. 8.73362459e-003
      8.73362459e-003 0. 4.36681230e-003 0. 0. 0. 0. 4.36681230e-003 0.
      0. 0. 0. 0. 0. 0. 0. 8.73362459e-003 0. 0. 0. 0. 4.36681230e-003
      0. 0. 0. 0. 4.36681230e-003 0. 0. 0. 0. 4.36681230e-003 0. 0. 0.
      4.36681230e-003 4.36681230e-003 0. 0. 0. 0. 0. 0. 4.36681230e-003
      0. 0. 8.73362459e-003 0. 0. 0. 0. 0. 0. 0. 0. 4.36681230e-003 0.
      0. 4.36681230e-003 0. 0. 0. 4.36681230e-003 0. 0. 0. 0. 0. 0. 0.
      4.36681230e-003 0. 0. 4.36681230e-003 4.36681230e-003 0. 0.
      8.73362459e-003 4.36681230e-003 0. 0. 0. 4.36681230e-003
      4.36681230e-003 4.36681230e-003 0. 0. 0. 0. 0. 0. 4.36681230e-003
      0. 0. 0. 0. 0. 0. 0. 4.36681230e-003 4.36681230e-003 0. 0. 0. 0.
      0. 4.36681230e-003 4.36681230e-003 0. 0. 0. 0. 0. 0. 0.
      8.73362459e-003 0. 0. 0. 0. 0. 0. 0. 0. 0. 0. 0. 0. 0. 0. 0. 0. 0.
      0. 0. 0. 0. 0. 0. 0. 0. 0. 0. 0. 0. 0. 4.36681230e-003 0. 0. 0. 0.
      0. 0. 8.73362459e-003 0. 0. 0. 4.36681230e-003 0. 0. 0. 0.
      4.36681230e-003</_>
    <_>
      0. 3.12500005e-003 0. 3.12500005e-003 0. 0. 0. 0. 0. 0. 0. 0. 0.
      0. 0. 0. 0. 3.12500005e-003 0. 0. 0. 0. 3.12500005e-003 0. 0. 0.
      0. 3.12500005e-003 6.25000009e-003 0. 0. 0. 0. 3.12500005e-003 0.
      3.12500005e-003 0. 6.25000009e-003 0. 0. 0. 0. 0. 3.12500005e-003
      0. 0. 3.12500005e-003 0. 0. 0. 3.12500005e-003 0. 0. 0. 0. 0.
      3.12500005e-003 0. 3.12500005e-003 0. 0. 0. 0. 0. 0. 0.
      3.12500005e-003 0. 3.12500005e-003 3.12500005e-003 0. 0. 0. 0. 0.
      0. 0. 0. 0. 0. 0. 0. 0. 0. 0. 3.12500005e-003 6.25000009e-003 0.
      3.12500005e-003 0. 0. 0. 0. 0. 0. 0. 0. 3.12500005e-003 0. 0. 0.
      3.12500005e-003 3.12500005e-003 0. 3.12500005e-003 0. 0. 0. 0. 0.
      0. 3.12500005e-003 0. 0. 0. 0. 3.12500005e-003 0. 0. 0. 0. 0. 0.
      3.12500005e-003 3.12500005e-003 0. 0. 0. 6.25000009e-003 0. 0.
      3.12500005e-003 0. 0. 0. 0. 0. 0. 0. 0. 0. 0. 0. 0. 0. 0. 0. 0. 0.
      0. 3.12500005e-003 0. 0. 0. 3.12500005e-003 9.37500037e-003 0. 0.
      0. 0. 0. 0. 0. 0. 0. 0. 0. 0. 3.12500005e-003 0. 0. 0.
      6.25000009e-003 3.12500005e-003 3.12500005e-003 6.25000009e-003 0.
      0. 0. 0. 0. 9.37500037e-003 0. 0. 0. 0. 3.12500005e-003
      6.25000009e-003 0. 0. 0. 0. 0. 0. 3.12500005e-003 0.
      3.12500005e-003 3.12500005e-003 3.12500005e-003 0. 3.12500005e-003
      3.12500005e-003 0. 0. 0. 3.12500005e-003 0. 0. 3.12500005e-003 0.
      0. 0. 0. 0. 0. 3.12500005e-003 0. 3.12500005e-003 3.12500005e-003
      0. 0. 0. 0. 3.12500005e-003 0. 0. 0. 0. 0. 3.12500005e-003 0. 0.
      0. 3.12500005e-003 0. 3.12500005e-003 0. 3.12500005e-003
      3.12500005e-003 0. 3.12500005e-003 0. 0. 3.12500005e-003 0.
      3.12500005e-003 0. 6.25000009e-003 0. 3.12500005e-003 0. 0. 0.
      3.12500005e-003 0. 3.12500005e-003 3.12500005e-003 0.
      3.12500005e-003 0. 0. 0. 3.12500005e-003 3.12500005e-003 0. 0. 0.
      0. 3.12500005e-003 0. 3.12500005e-003 6.25000009e-003 0.
      6.25000009e-003 3.12500005e-003 0. 0. 3.12500005e-003 0. 0. 0. 0.
      0. 0. 0. 0. 3.12500005e-003 0. 3.12500005e-003 0. 3.12500005e-003
      0. 3.12500005e-003 3.12500005e-003 0. 0. 0. 0. 3.12500005e-003 0.
      3.12500005e-003 0. 0. 0. 0. 0. 0. 0. 0. 0. 0. 0. 3.12500005e-003
      0. 0. 0. 0. 0. 0. 0. 0. 0. 3.12500005e-003 0. 0. 0. 0.
      6.25000009e-003 3.12500005e-003 3.12500005e-003 0. 0. 0. 0.
      9.37500037e-003 0. 3.12500005e-003 0. 0. 3.12500005e-003 0. 0. 0.
      0. 0. 3.12500005e-003 3.12500005e-003 3.12500005e-003 0. 0. 0.
      3.12500005e-003 0. 0. 0. 0. 0. 0. 0. 0. 6.25000009e-003 0. 0.
      3.12500005e-003 0. 3.12500005e-003 0. 3.12500005e-003 0. 0.
      3.12500005e-003 0. 0. 0. 0. 0. 0. 0. 3.12500005e-003
      6.25000009e-003 6.25000009e-003 0. 0. 3.12500005e-003 0.
      3.12500005e-003 0. 6.25000009e-003 0. 0. 0. 0. 3.12500005e-003 0.
      3.12500005e-003 0. 0. 0. 0. 0. 0. 0. 0. 0. 0. 0. 0.
      3.12500005e-003 0. 0. 0. 0. 0. 3.12500005e-003 0. 0.
      6.25000009e-003 0. 0. 0. 0. 3.12500005e-003 0. 3.12500005e-003 0.
      3.12500005e-003 3.12500005e-003 9.37500037e-003 0. 0. 0. 0. 0. 0.
      0. 0. 0. 0. 6.25000009e-003 0. 0. 0. 0. 0. 0. 0. 3.12500005e-003
      0. 0. 0. 0. 0. 0. 0. 6.25000009e-003 0. 0. 3.12500005e-003 0.
      6.25000009e-003 0. 0. 0. 0. 0. 0. 3.12500005e-003 0. 0.
      3.12500005e-003 0. 9.37500037e-003 0. 0. 0. 6.25000009e-003
      3.12500005e-003 0. 0. 3.12500005e-003 0. 0. 0. 9.37500037e-003 0.
      0. 0. 0. 0. 0. 0. 0. 0. 0. 0. 0. 0. 0. 0. 3.12500005e-003 0. 0. 0.
      0. 0. 3.12500005e-003 0. 3.12500005e-003 0. 3.12500005e-003 0. 0.
      6.25000009e-003 0. 0. 0. 0. 0. 3.12500005e-003 3.12500005e-003 0.
      0. 9.37500037e-003 6.25000009e-003 0. 0. 0. 0. 0. 0. 0. 0.
      3.12500005e-003 0. 3.12500005e-003 3.12500005e-003 0. 0. 0. 0.
      3.12500005e-003 3.12500005e-003 0. 0. 0. 0. 0. 0. 0.
      3.12500005e-003 3.12500005e-003 0. 3.12500005e-003 3.12500005e-003
      6.25000009e-003 3.12500005e-003 0. 0. 0. 3.12500005e-003 0. 0. 0.
      0. 0. 0. 0. 0. 0. 6.25000009e-003 0. 0. 0. 0. 0. 0. 0. 0. 0. 0. 0.
      3.12500005e-003 0. 0. 0. 0. 0. 3.12500005e-003 0. 0.
      3.12500005e-003 0. 0. 0. 0. 0. 0. 0. 0. 0. 0. 0. 0.
      3.12500005e-003 0. 3.12500005e-003 3.12500005e-003 0. 0. 0.
      3.12500005e-003 0. 6.25000009e-003 3.12500005e-003 3.12500005e-003
      6.25000009e-003 0. 3.12500005e-003 0. 0. 0. 0. 0. 9.37500037e-003
      3.12500005e-003 0. 0. 6.25000009e-003 0. 9.37500037e-003 0.
      6.25000009e-003 0. 0. 0. 0. 0. 3.12500005e-003 0. 3.12500005e-003
      3.12500005e-003 0. 0. 0. 0. 0. 0. 0. 0. 0. 0. 0. 0.
      3.12500005e-003 0. 0. 3.12500005e-003 6.25000009e-003 0.
      3.12500005e-003 0. 0. 0. 0. 0. 0. 2.18749996e-002 0.
      3.12500005e-003 0. 6.25000009e-003 0. 6.25000009e-003 0. 0. 0. 0.
      0. 3.12500005e-003 0. 0. 0. 0. 0. 0. 0. 0. 0. 0. 0. 0.
      6.25000009e-003 0. 3.12500005e-003 0. 0. 0. 0. 0. 0. 0. 0.
      3.12500005e-003 0. 3.12500005e-003 0. 6.25000009e-003 0. 0. 0. 0.
      0. 0. 0. 0. 0. 3.12500005e-003 0. 0. 0. 0. 0. 0. 0. 0.
      3.12500005e-003 0. 0. 3.12500005e-003 0. 3.12500005e-003 0. 0. 0.
      3.12500005e-003 0. 0. 3.12500005e-003 0. 3.12500005e-003 0.
      3.12500005e-003 0. 3.12500005e-003 6.25000009e-003 0.
      3.12500005e-003 6.25000009e-003 0. 0. 0. 0. 0. 0. 0. 0. 0. 0. 0.
      6.25000009e-003 0. 3.12500005e-003 0. 0. 0. 0. 3.12500005e-003 0.
      0. 0. 0. 0. 3.12500005e-003 0. 0. 3.12500005e-003 0.
      3.12500005e-003 0. 0. 0. 0. 0. 0. 3.12500005e-003 0.
      6.25000009e-003 0. 0. 0. 3.12500005e-003 0. 6.25000009e-003 0.
      3.12500005e-003 0. 0. 3.12500005e-003 0. 0. 0. 0. 0. 0. 0. 0. 0.
      0. 0. 3.12500005e-003 0. 0. 0. 0. 0. 0. 0. 0. 0. 3.12500005e-003
      0. 0. 0. 0. 0. 6.25000009e-003 0. 0. 0. 0. 0. 0. 0. 0.
      6.25000009e-003 0. 0. 3.12500005e-003 0. 0. 0. 0. 0. 0. 0. 0. 0.
      3.12500005e-003 0. 0. 0. 0. 3.12500005e-003 0. 9.37500037e-003 0.
      0. 0. 0. 0. 3.12500005e-003 3.12500005e-003 0. 0. 0. 0. 0.
      3.12500005e-003 3.12500005e-003 0. 0. 0. 0. 0. 0. 0. 0.
      3.12500005e-003 0. 3.12500005e-003 0. 0. 0. 0. 0. 0. 0.
      6.25000009e-003 3.12500005e-003 0. 0. 0. 0. 0. 0. 0. 0.
      3.12500005e-003 0. 0. 0. 3.12500005e-003 0. 0. 0. 0.
      6.25000009e-003 0. 0. 0. 3.12500005e-003 0. 0. 0. 0. 0. 0.
      3.12500005e-003 0. 0. 0. 0. 3.12500005e-003 0. 0. 0. 0. 0.
      3.12500005e-003 0. 0. 0. 0. 0. 0. 3.12500005e-003 0. 0. 0. 0.
      3.12500005e-003 6.25000009e-003 0. 3.12500005e-003 0. 0. 0. 0. 0.
      0. 0. 0. 3.12500005e-003 0. 6.25000009e-003 0. 0. 0. 0.
      3.12500005e-003 3.12500005e-003 0. 0. 0. 0. 0. 0. 3.12500005e-003
      0. 3.12500005e-003 0. 0. 0. 9.37500037e-003 0. 0. 0. 0. 0. 0. 0.
      0. 0. 0. 0. 0. 0. 6.25000009e-003 0. 3.12500005e-003 0. 0.
      3.12500005e-003 0. 3.12500005e-003 0. 0. 0. 3.12500005e-003
      3.12500005e-003</_>
    <_>
      6.21118024e-003 0. 0. 0. 0. 0. 0. 0. 0. 0. 1.24223605e-002 0. 0.
      0. 0. 0. 0. 0. 0. 6.21118024e-003 0. 6.21118024e-003 0. 0.
      6.21118024e-003 0. 0. 0. 0. 6.21118024e-003 0. 0. 6.21118024e-003
      0. 0. 0. 0. 0. 0. 0. 1.24223605e-002 0. 0. 0. 0. 6.21118024e-003
      0. 0. 0. 0. 0. 0. 0. 6.21118024e-003 0. 0. 0. 6.21118024e-003
      6.21118024e-003 0. 0. 0. 0. 0. 0. 0. 0. 0. 0. 0. 0. 0. 0. 0. 0. 0.
      0. 0. 0. 0. 0. 0. 0. 0. 0. 6.21118024e-003 0. 0. 0. 0. 0.
      6.21118024e-003 0. 0. 0. 0. 0. 0. 0. 0. 0. 0. 0. 0. 0.
      6.21118024e-003 0. 6.21118024e-003 0. 0. 0. 0. 0. 0. 0. 0. 0. 0.
      0. 6.21118024e-003 0. 0. 0. 0. 6.21118024e-003 0. 0.
      6.21118024e-003 6.21118024e-003 0. 0. 0. 0. 6.21118024e-003 0.
      6.21118024e-003 0. 0. 6.21118024e-003 0. 0. 0. 0. 0. 0. 0. 0. 0.
      0. 0. 6.21118024e-003 0. 0. 0. 0. 0. 0. 6.21118024e-003 0.
      6.21118024e-003 0. 0. 0. 0. 0. 0. 0. 6.21118024e-003
      6.21118024e-003 0. 0. 0. 6.21118024e-003 0. 0. 0. 0. 0. 0.
      1.24223605e-002 0. 0. 0. 0. 0. 0. 0. 0. 0. 0. 6.21118024e-003
      6.21118024e-003 0. 6.21118024e-003 0. 0. 0. 0. 0. 0. 0.
      6.21118024e-003 0. 6.21118024e-003 0. 0. 0. 0. 0. 0. 0. 0. 0. 0.
      0. 6.21118024e-003 0. 0. 0. 0. 0. 0. 0. 0. 0. 0. 0. 0. 0. 0. 0. 0.
      0. 0. 0. 0. 0. 1.24223605e-002 0. 0. 0. 0. 6.21118024e-003 0. 0.
      0. 0. 6.21118024e-003 0. 0. 0. 0. 0. 0. 0. 0. 6.21118024e-003 0.
      6.21118024e-003 0. 0. 0. 0. 0. 0. 6.21118024e-003 0. 0.
      6.21118024e-003 0. 6.21118024e-003 0. 0. 0. 1.24223605e-002 0. 0.
      0. 0. 0. 0. 1.24223605e-002 0. 0. 0. 0. 0. 0. 0. 0.
      6.21118024e-003 0. 0. 6.21118024e-003 0. 0. 0. 0. 0.
      6.21118024e-003 0. 0. 0. 0. 0. 0. 0. 0. 0. 0. 0. 0. 0.
      6.21118024e-003 0. 0. 0. 0. 0. 0. 0. 6.21118024e-003 0. 0. 0. 0.
      0. 0. 0. 0. 1.24223605e-002 0. 0. 0. 6.21118024e-003 0. 0. 0.
      1.24223605e-002 6.21118024e-003 0. 6.21118024e-003 0. 0.
      6.21118024e-003 0. 0. 0. 0. 0. 0. 0. 0. 0. 0. 0. 0. 0. 0.
      6.21118024e-003 0. 0. 0. 0. 0. 0. 0. 0. 0. 0. 0. 6.21118024e-003
      0. 0. 0. 0. 0. 0. 0. 0. 0. 0. 0. 0. 0. 0. 0. 0. 0. 0. 0. 0. 0. 0.
      0. 0. 1.24223605e-002 0. 0. 0. 0. 0. 0. 0. 0. 6.21118024e-003 0.
      0. 0. 0. 0. 0. 0. 0. 0. 0. 0. 0. 6.21118024e-003 0. 0. 0. 0. 0. 0.
      0. 0. 0. 0. 0. 0. 0. 0. 6.21118024e-003 0. 0. 0. 6.21118024e-003
      0. 0. 0. 6.21118024e-003 0. 0. 0. 0. 0. 0. 0. 0. 6.21118024e-003
      0. 0. 0. 0. 0. 0. 0. 0. 0. 0. 0. 6.21118024e-003 0. 0.
      6.21118024e-003 0. 0. 0. 6.21118024e-003 0. 0. 0. 0. 0. 0. 0. 0.
      0. 6.21118024e-003 0. 0. 0. 0. 0. 0. 0. 0. 0. 0. 0.
      6.21118024e-003 0. 0. 0. 0. 0. 0. 6.21118024e-003 0. 0. 0.
      6.21118024e-003 0. 0. 0. 0. 0. 0. 0. 0. 0. 0. 0. 0. 0.
      6.21118024e-003 0. 0. 6.21118024e-003 0. 0. 0. 0. 0. 0. 0. 0. 0.
      0. 0. 0. 0. 0. 6.21118024e-003 0. 0. 0. 0. 0. 0. 0. 0. 0. 0. 0. 0.
      6.21118024e-003 0. 0. 0. 6.21118024e-003 0. 0. 0. 0.
      6.21118024e-003 0. 0. 0. 0. 0. 0. 0. 0. 0. 6.21118024e-003 0. 0.
      0. 0. 6.21118024e-003 0. 0. 0. 0. 0. 0. 0. 6.21118024e-003 0.
      6.21118024e-003 0. 0. 0. 0. 0. 0. 0. 0. 6.21118024e-003 0. 0.
      6.21118024e-003 0. 0. 0. 0. 0. 0. 0. 0. 0. 1.24223605e-002 0. 0.
      0. 1.86335407e-002 0. 0. 0. 0. 0. 0. 0. 0. 0. 1.24223605e-002 0.
      0. 0. 0. 0. 0. 0. 0. 0. 1.86335407e-002 2.48447210e-002 0. 0. 0.
      6.21118024e-003 0. 0. 0. 0. 0. 0. 0. 0. 0. 6.21118024e-003 0. 0.
      0. 0. 0. 0. 6.21118024e-003 0. 6.21118024e-003 0. 0. 0. 0. 0. 0.
      0. 6.21118024e-003 0. 0. 0. 0. 0. 0. 6.21118024e-003 0.
      6.21118024e-003 0. 0. 0. 0. 6.21118024e-003 0. 6.21118024e-003 0.
      0. 0. 0. 0. 0. 6.21118024e-003 0. 0. 0. 6.21118024e-003 0. 0.
      6.21118024e-003 0. 0. 1.24223605e-002 0. 0. 0. 0. 0. 0. 0.
      6.21118024e-003 0. 0. 0. 0. 0. 0. 0. 0. 0. 0. 0. 0. 0. 0. 0.
      6.21118024e-003 6.21118024e-003 0. 0. 0. 0. 0. 0. 0. 0. 0. 0. 0.
      0. 0. 0. 0. 0. 0. 0. 6.21118024e-003 0. 0. 0. 0. 0. 0. 0.
      6.21118024e-003 0. 0. 0. 0. 0. 0. 0. 0. 0. 0. 0. 0. 0. 0. 0. 0. 0.
      0. 0. 0. 0. 0. 0. 0. 0. 0. 0. 0. 6.21118024e-003 0. 0.
      1.24223605e-002 0. 6.21118024e-003 6.21118024e-003 0. 0. 0. 0.
      6.21118024e-003 0. 0. 0. 0. 0. 0. 0. 6.21118024e-003 0. 0. 0. 0.
      0. 0. 0. 0. 1.24223605e-002 0. 6.21118024e-003 1.24223605e-002 0.
      0. 6.21118024e-003 0. 0. 0. 0. 0. 0. 0. 0. 0. 0. 0. 0. 0. 0. 0. 0.
      0. 0. 0. 0. 0. 0. 0. 0. 6.21118024e-003 0. 0. 0. 0. 0. 0. 0. 0. 0.
      0. 0. 0. 0. 6.21118024e-003 0. 0. 0. 0. 0. 6.21118024e-003 0. 0.
      0. 0. 0. 6.21118024e-003 0. 0. 0. 0. 1.24223605e-002 0. 0. 0. 0.
      0. 0. 0. 0. 0. 0. 0. 6.21118024e-003 0. 0. 0. 0. 0. 0. 0.
      1.24223605e-002 0. 6.21118024e-003 0. 0. 0. 0. 0. 0. 0. 0. 0. 0.
      0. 0. 0. 0. 0. 0. 0. 0. 0. 0. 0. 0. 0. 0. 6.21118024e-003 0. 0.
      6.21118024e-003 0. 0. 6.21118024e-003 0. 0. 0. 6.21118024e-003
      6.21118024e-003 6.21118024e-003 0. 0. 0. 0. 0. 0. 0. 0.
      6.21118024e-003 0. 0. 0. 0. 0. 0. 0. 6.21118024e-003 0. 0. 0. 0.
      0. 0. 0. 0. 0. 0. 0. 0. 0. 6.21118024e-003 0. 0. 0. 0. 0.
      6.21118024e-003 0. 0. 6.21118024e-003 0. 0. 0. 0. 0. 0. 0. 0. 0.
      0. 0. 0. 0. 0. 0. 0. 0. 0. 0. 0. 0. 0. 0. 0. 0. 0. 0. 0. 0. 0. 0.
      0. 0. 0. 0. 0. 0.</_>
    <_>
      0. 0. 0. 0. 0. 0. 0. 0. 0. 6.89655170e-003 0. 0. 0. 0. 0. 0. 0. 0.
      0. 0. 0. 0. 0. 0. 0. 0. 6.89655170e-003 0. 0. 6.89655170e-003 0.
      6.89655170e-003 0. 0. 0. 0. 6.89655170e-003 0. 0. 0. 0. 0. 0. 0.
      0. 0. 1.37931034e-002 0. 0. 0. 0. 0. 0. 6.89655170e-003
      2.06896551e-002 6.89655170e-003 0. 0. 6.89655170e-003 0. 0. 0. 0.
      0. 0. 0. 0. 0. 6.89655170e-003 0. 0. 0. 0. 6.89655170e-003 0. 0.
      0. 0. 0. 0. 0. 0. 0. 0. 0. 0. 0. 0. 0. 6.89655170e-003 0. 0. 0. 0.
      0. 0. 0. 0. 6.89655170e-003 0. 0. 0. 0. 0. 0. 0. 0. 0. 0. 0. 0. 0.
      0. 0. 0. 0. 0. 0. 0. 0. 0. 0. 0. 0. 0. 6.89655170e-003 0. 0. 0.
      6.89655170e-003 0. 6.89655170e-003 0. 0. 0. 0. 6.89655170e-003 0.
      0. 0. 0. 0. 0. 0. 6.89655170e-003 0. 0. 0. 0. 0. 0. 0. 0. 0.
      1.37931034e-002 0. 0. 6.89655170e-003 0. 0. 0. 0. 0. 0. 0.
      6.89655170e-003 0. 6.89655170e-003 0. 0. 6.89655170e-003 0. 0. 0.
      0. 0. 0. 6.89655170e-003 0. 0. 0. 0. 0. 0. 0. 0. 0.
      6.89655170e-003 0. 0. 0. 0. 0. 0. 0. 6.89655170e-003
      1.37931034e-002 0. 0. 0. 0. 0. 0. 0. 6.89655170e-003 0. 0. 0. 0.
      0. 0. 0. 0. 0. 0. 1.37931034e-002 6.89655170e-003 0. 0. 0. 0. 0.
      0. 0. 0. 6.89655170e-003 6.89655170e-003 0. 0. 0. 0. 0. 0.
      1.37931034e-002 0. 0. 0. 0. 0. 0. 0. 0. 0. 0. 0. 0. 0. 0. 0. 0.
      2.75862068e-002 0. 0. 0. 0. 0. 0. 0. 0. 0. 0. 0. 0. 0. 0. 0.
      6.89655170e-003 0. 6.89655170e-003 0. 0. 0. 6.89655170e-003 0. 0.
      0. 0. 0. 0. 0. 0. 0. 0. 6.89655170e-003 0. 0. 0. 0. 0.
      6.89655170e-003 0. 0. 0. 0. 0. 0. 0. 0. 0. 0. 0. 0. 0. 0. 0. 0. 0.
      0. 0. 6.89655170e-003 0. 0. 0. 0. 0. 0. 0. 0. 0. 0. 0.
      6.89655170e-003 0. 0. 0. 0. 0. 0. 0. 0. 1.37931034e-002 0. 0. 0.
      0. 0. 6.89655170e-003 0. 0. 0. 0. 0. 6.89655170e-003 0. 0. 0. 0.
      0. 0. 0. 1.37931034e-002 0. 0. 0. 0. 0. 0. 0. 6.89655170e-003 0.
      0. 0. 0. 0. 0. 0. 0. 0. 0. 0. 6.89655170e-003 0. 0.
      6.89655170e-003 0. 0. 6.89655170e-003 0. 0. 0. 0. 0.
      2.06896551e-002 0. 0. 0. 0. 0. 0. 0. 0. 0. 0. 0. 0. 0. 0. 0. 0. 0.
      0. 0. 0. 6.89655170e-003 0. 0. 0. 0. 0. 6.89655170e-003 0. 0. 0.
      0. 0. 0. 0. 0. 0. 0. 0. 0. 0. 0. 0. 0. 0. 0. 6.89655170e-003 0. 0.
      0. 0. 0. 0. 0. 0. 0. 0. 6.89655170e-003 0. 0. 0. 0. 0. 0. 0. 0. 0.
      0. 0. 0. 0. 0. 0. 0. 6.89655170e-003 0. 0. 0. 0. 0. 0. 0. 0. 0. 0.
      0. 0. 0. 0. 6.89655170e-003 6.89655170e-003 0. 0. 0. 0. 0. 0. 0.
      6.89655170e-003 0. 0. 0. 0. 0. 6.89655170e-003 0. 0. 0. 0.
      6.89655170e-003 0. 6.89655170e-003 0. 0. 0. 0. 0. 0. 0. 0. 0. 0.
      6.89655170e-003 0. 0. 0. 0. 0. 0. 0. 0. 0. 0. 0. 0. 0. 0. 0.
      6.89655170e-003 0. 0. 0. 1.37931034e-002 0. 0. 6.89655170e-003 0.
      0. 6.89655170e-003 0. 6.89655170e-003 0. 0. 0. 0. 0. 0. 0. 0. 0.
      6.89655170e-003 0. 0. 0. 0. 0. 6.89655170e-003 0. 0. 0. 0. 0. 0.
      0. 0. 0. 0. 0. 0. 0. 0. 6.89655170e-003 0. 0. 0. 0. 0. 0. 0. 0. 0.
      0. 0. 0. 0. 0. 0. 0. 0. 0. 6.89655170e-003 0. 0. 0. 0. 0. 0. 0. 0.
      0. 0. 0. 0. 0. 0. 0. 0. 0. 0. 0. 0. 0. 6.89655170e-003 0. 0.
      1.37931034e-002 6.89655170e-003 0. 0. 0. 0. 0. 0. 0. 0. 0. 0. 0.
      1.37931034e-002 0. 0. 0. 0. 0. 0. 6.89655170e-003 0. 0. 0. 0. 0.
      0. 6.89655170e-003 0. 0. 0. 6.89655170e-003 0. 0. 0. 0. 0. 0.
      6.89655170e-003 0. 0. 0. 0. 0. 0. 0. 1.37931034e-002 0. 0. 0. 0.
      0. 0. 6.89655170e-003 0. 0. 0. 0. 6.89655170e-003 0. 0.
      6.89655170e-003 0. 0. 0. 0. 0. 0. 0. 0. 6.89655170e-003 0. 0. 0.
      0. 0. 0. 0. 6.89655170e-003 0. 0. 0. 0. 0. 6.89655170e-003 0. 0.
      1.37931034e-002 0. 6.89655170e-003 0. 0. 0. 0. 0. 0. 0. 0. 0. 0.
      0. 6.89655170e-003 0. 0. 0. 0. 0. 0. 0. 0. 0. 0. 0. 0. 0. 0. 0. 0.
      0. 6.89655170e-003 0. 0. 0. 0. 6.89655170e-003 0. 0.
      6.89655170e-003 0. 0. 0. 0. 6.89655170e-003 0. 0. 0. 0. 0. 0. 0.
      0. 0. 0. 0. 0. 0. 0. 0. 0. 0. 0. 0. 0. 0. 0. 0. 0. 0. 0. 0. 0.
      6.89655170e-003 0. 0. 0. 0. 0. 6.89655170e-003 6.89655170e-003
      6.89655170e-003 0. 0. 0. 0. 0. 0. 0. 0. 0. 6.89655170e-003
      6.89655170e-003 0. 0. 6.89655170e-003 1.37931034e-002 0. 0. 0. 0.
      0. 0. 0. 0. 0. 0. 0. 0. 0. 0. 0. 0. 0. 0. 0. 0. 0. 0. 0.
      6.89655170e-003 0. 0. 0. 0. 0. 0. 0. 0. 6.89655170e-003 0. 0. 0.
      0. 0. 0. 0. 0. 0. 6.89655170e-003 0. 0. 0. 6.89655170e-003 0. 0.
      0. 0. 6.89655170e-003 0. 0. 0. 0. 0. 0. 1.37931034e-002 0. 0. 0.
      0. 6.89655170e-003 0. 0. 6.89655170e-003 0. 0. 0. 0. 0. 0. 0. 0.
      0. 0. 0. 0. 0. 0. 0. 6.89655170e-003 0. 0. 0. 0. 0. 0. 0. 0. 0. 0.
      0. 0. 0. 0. 0. 0. 0. 6.89655170e-003 0. 0. 0. 0. 0. 0. 0. 0. 0. 0.
      6.89655170e-003 0. 0. 0. 0. 0. 0. 6.89655170e-003 0. 0. 0. 0. 0.
      0. 0. 0. 0. 0. 6.89655170e-003 0. 0. 0. 0. 0. 0. 0. 0. 0. 0.
      6.89655170e-003 0. 0. 0. 0. 0. 0. 0. 0. 0. 0. 0. 0. 0. 0. 0. 0. 0.
      0. 6.89655170e-003 6.89655170e-003 6.89655170e-003 6.89655170e-003
      0. 0. 0. 0. 0. 0. 0. 0. 0. 0. 0. 0. 0. 0. 0. 0. 0. 0. 0. 0.
      6.89655170e-003 0. 0. 0. 0. 0. 0. 0. 0. 0. 6.89655170e-003 0.
      1.37931034e-002 0. 0. 0. 0. 0. 0. 0. 0. 0. 0. 0. 0.</_>
    <_>
      0. 0. 0. 4.95049497e-003 0. 0. 0. 0. 0. 0. 4.95049497e-003 0. 0.
      0. 0. 0. 0. 0. 0. 0. 0. 0. 0. 4.95049497e-003 0. 0. 0. 0. 0. 0. 0.
      0. 4.95049497e-003 0. 0. 0. 0. 0. 0. 0. 0. 0. 0. 0. 0. 0.
      4.95049497e-003 0. 0. 9.90098994e-003 0. 0. 0. 0. 0. 0. 0. 0.
      9.90098994e-003 0. 0. 0. 0. 4.95049497e-003 0. 0. 0.
      4.95049497e-003 0. 0. 0. 0. 0. 4.95049497e-003 0. 0. 0. 0. 0. 0.
      4.95049497e-003 0. 4.95049497e-003 0. 0. 0. 0. 0. 0. 0.
      4.95049497e-003 0. 0. 0. 4.95049497e-003 0. 0. 0. 0. 0. 0. 0. 0.
      0. 0. 0. 0. 0. 0. 0. 0. 0. 0. 0. 0. 0. 0. 0. 0. 4.95049497e-003 0.
      0. 0. 0. 0. 0. 0. 4.95049497e-003 4.95049497e-003 0. 0. 0. 0. 0.
      0. 0. 0. 0. 0. 4.95049497e-003 0. 0. 0. 0. 4.95049497e-003
      4.95049497e-003 0. 0. 0. 0. 0. 4.95049497e-003 0. 0. 0. 0. 0. 0.
      0. 0. 0. 4.95049497e-003 0. 0. 0. 0. 0. 4.95049497e-003 0. 0. 0.
      0. 4.95049497e-003 0. 0. 0. 0. 0. 0. 4.95049497e-003 0. 0. 0.
      4.95049497e-003 0. 0. 4.95049497e-003 4.95049497e-003 0. 0. 0. 0.
      0. 4.95049497e-003 0. 4.95049497e-003 0. 0. 0. 0. 0.
      9.90098994e-003 0. 0. 0. 4.95049497e-003 0. 0. 4.95049497e-003 0.
      4.95049497e-003 0. 0. 0. 0. 0. 0. 4.95049497e-003 0. 0. 0.
      4.95049497e-003 0. 0. 0. 0. 9.90098994e-003 4.95049497e-003 0. 0.
      0. 0. 0. 0. 0. 0. 0. 0. 0. 0. 0. 4.95049497e-003 4.95049497e-003
      0. 4.95049497e-003 0. 9.90098994e-003 0. 0. 0. 0. 0.
      9.90098994e-003 0. 0. 0. 4.95049497e-003 4.95049497e-003
      9.90098994e-003 0. 0. 0. 0. 0. 0. 0. 0. 0. 0. 0. 0. 0. 0. 0. 0. 0.
      0. 0. 0. 0. 0. 0. 0. 0. 0. 0. 0. 0. 0. 0. 0. 0. 0. 0. 0. 0. 0. 0.
      0. 4.95049497e-003 0. 0. 0. 0. 0. 0. 0. 0. 0. 0. 4.95049497e-003
      4.95049497e-003 0. 4.95049497e-003 0. 4.95049497e-003 0. 0. 0. 0.
      4.95049497e-003 0. 0. 0. 4.95049497e-003 0. 0. 0. 4.95049497e-003
      0. 4.95049497e-003 0. 0. 0. 2.97029689e-002 0. 4.95049497e-003 0.
      0. 0. 0. 0. 0. 4.95049497e-003 0. 0. 9.90098994e-003 0. 0. 0. 0.
      0. 0. 0. 0. 0. 0. 0. 0. 4.95049497e-003 4.95049497e-003
      4.95049497e-003 0. 0. 0. 0. 0. 0. 0. 0. 0. 0. 0. 0. 0. 0. 0. 0.
      4.95049497e-003 0. 0. 0. 0. 0. 0. 0. 0. 0. 0. 0. 0. 0. 0. 0. 0. 0.
      0. 0. 0. 0. 0. 0. 0. 0. 0. 0. 0. 4.95049497e-003 4.95049497e-003
      4.95049497e-003 0. 0. 0. 0. 0. 0. 0. 0. 0. 0. 0. 4.95049497e-003
      0. 4.95049497e-003 0. 0. 0. 0. 0. 0. 0. 0. 0. 0. 4.95049497e-003
      0. 0. 4.95049497e-003 0. 0. 0. 4.95049497e-003 0. 0. 0. 0. 0. 0.
      4.95049497e-003 9.90098994e-003 0. 0. 0. 0. 0. 0. 0. 0. 0. 0. 0.
      0. 0. 0. 0. 0. 0. 0. 0. 0. 0. 4.95049497e-003 0. 0. 0. 0. 0. 0.
      4.95049497e-003 0. 0. 4.95049497e-003 0. 0. 0. 0. 0. 0. 0. 0. 0.
      0. 4.95049497e-003 0. 4.95049497e-003 0. 0. 0. 0. 0. 0. 0. 0.
      4.95049497e-003 0. 0. 4.95049497e-003 0. 0. 9.90098994e-003 0. 0.
      4.95049497e-003 0. 0. 0. 0. 0. 0. 4.95049497e-003 1.48514844e-002
      0. 0. 0. 0. 0. 0. 0. 0. 0. 0. 0. 0. 0. 0. 0. 0. 0. 0. 0. 0. 0.
      1.48514844e-002 4.95049497e-003 4.95049497e-003 0. 0.
      4.95049497e-003 0. 0. 0. 0. 0. 0. 0. 0. 1.98019799e-002
      4.95049497e-003 0. 4.95049497e-003 0. 0. 0. 0. 0. 4.95049497e-003
      0. 0. 0. 0. 0. 0. 0. 4.95049497e-003 0. 0. 0. 4.95049497e-003 0.
      0. 0. 4.95049497e-003 0. 9.90098994e-003 0. 9.90098994e-003 0. 0.
      0. 0. 0. 0. 0. 0. 0. 0. 4.95049497e-003 0. 0. 0. 0.
      4.95049497e-003 0. 4.95049497e-003 0. 0. 9.90098994e-003 0. 0. 0.
      0. 0. 0. 4.95049497e-003 0. 0. 0. 4.95049497e-003 4.95049497e-003
      4.95049497e-003 4.95049497e-003 9.90098994e-003 0. 0.
      4.95049497e-003 0. 0. 9.90098994e-003 4.95049497e-003 0. 0. 0. 0.
      0. 0. 4.95049497e-003 4.95049497e-003 0. 0. 0. 4.95049497e-003 0.
      4.95049497e-003 0. 4.95049497e-003 4.95049497e-003 0. 0. 0. 0.
      4.95049497e-003 0. 0. 9.90098994e-003 0. 0. 0. 0. 0.
      4.95049497e-003 0. 0. 0. 0. 0. 0. 0. 0. 9.90098994e-003 0. 0. 0.
      0. 0. 0. 0. 0. 0. 4.95049497e-003 0. 0. 0. 0. 4.95049497e-003 0.
      0. 0. 0. 4.95049497e-003 0. 4.95049497e-003 0. 0. 0. 0. 0.
      4.95049497e-003 0. 0. 0. 0. 0. 0. 0. 0. 0. 0. 0. 0. 0. 0. 0. 0. 0.
      4.95049497e-003 0. 0. 0. 0. 0. 0. 0. 0. 0. 0. 0. 0. 0. 0. 0. 0. 0.
      4.95049497e-003 0. 0. 0. 0. 0. 4.95049497e-003 4.95049497e-003 0.
      4.95049497e-003 0. 0. 1.48514844e-002 0. 0. 0. 0. 0.
      4.95049497e-003 0. 0. 0. 0. 0. 0. 0. 0. 0. 0. 0. 0. 0. 0. 0.
      4.95049497e-003 0. 0. 0. 0. 0. 0. 0. 0. 0. 0. 0. 0. 0. 0. 0. 0.
      9.90098994e-003 4.95049497e-003 0. 0. 0. 0. 0. 0. 4.95049497e-003
      0. 0. 0. 0. 0. 0. 0. 0. 0. 0. 0. 0. 4.95049497e-003 0. 0.
      4.95049497e-003 4.95049497e-003 0. 0. 0. 0. 0. 4.95049497e-003 0.
      0. 0. 0. 0. 0. 0. 0. 0. 0. 0. 0. 0. 0. 0. 0. 0. 0. 4.95049497e-003
      0. 0. 0. 0. 0. 4.95049497e-003 0. 0. 0. 0. 0. 4.95049497e-003 0.
      0. 0. 0. 0. 0. 0. 0. 0. 9.90098994e-003 0. 0. 4.95049497e-003 0.
      0. 4.95049497e-003 0. 0. 0. 0. 0. 0. 0. 0. 0. 4.95049497e-003 0.
      4.95049497e-003 0. 0. 0. 0. 0. 0. 0. 0. 0. 0. 0. 4.95049497e-003
      0. 0. 4.95049497e-003 4.95049497e-003 4.95049497e-003 0. 0. 0. 0.
      0. 0. 0. 0. 9.90098994e-003 4.95049497e-003 0. 0. 0. 0.
      4.95049497e-003 0. 4.95049497e-003 0. 0. 0. 0. 4.95049497e-003 0.
      0. 0. 4.95049497e-003 0. 0. 0. 0. 4.95049497e-003 0. 0. 0.
      4.95049497e-003 0. 0. 0. 0. 4.95049497e-003 0. 0. 0. 0. 0. 0. 0.
      4.95049497e-003 0. 0. 0. 0. 0. 0. 4.95049497e-003 0. 0. 0. 0. 0.
      9.90098994e-003 0. 0. 0. 0. 0. 0. 0. 0. 0. 0. 0. 0. 0. 0. 0. 0. 0.
      0. 0. 0. 4.95049497e-003 0. 0. 0. 0. 0. 0. 0. 0. 0. 0. 0. 0. 0. 0.
      0. 0. 4.95049497e-003 0. 0. 0. 0. 0. 0. 0. 0. 0. 4.95049497e-003</_>
    <_>
      0. 0. 0. 0. 0. 0. 0. 0. 0. 0. 0. 0. 0. 0. 5.88235306e-003 0. 0. 0.
      5.88235306e-003 0. 5.88235306e-003 0. 0. 0. 0. 0. 0. 0. 0.
      5.88235306e-003 0. 0. 0. 0. 0. 0. 0. 0. 0. 0. 0. 0. 0. 0.
      5.88235306e-003 5.88235306e-003 5.88235306e-003 0. 0.
      1.17647061e-002 5.88235306e-003 0. 0. 0. 0. 0. 0. 0. 0. 0.
      5.88235306e-003 0. 5.88235306e-003 0. 0. 0. 1.17647061e-002 0. 0.
      0. 0. 0. 0. 0. 1.17647061e-002 5.88235306e-003 0. 0. 0. 0. 0. 0.
      1.17647061e-002 5.88235306e-003 0. 0. 0. 5.88235306e-003 0. 0. 0.
      0. 0. 0. 0. 0. 0. 0. 0. 0. 5.88235306e-003 0. 0. 0. 0. 0. 0. 0. 0.
      0. 5.88235306e-003 0. 0. 0. 0. 5.88235306e-003 0. 0. 0.
      5.88235306e-003 0. 0. 0. 0. 0. 5.88235306e-003 0. 0.
      5.88235306e-003 5.88235306e-003 0. 0. 0. 0. 0. 0. 0. 0. 0. 0. 0.
      0. 5.88235306e-003 0. 5.88235306e-003 0. 0. 5.88235306e-003 0. 0.
      0. 0. 0. 0. 0. 0. 0. 0. 0. 0. 0. 0. 0. 0. 0. 0. 0. 0. 0. 0. 0. 0.
      0. 0. 0. 0. 0. 0. 0. 0. 1.17647061e-002 0. 0. 0. 0. 0. 0. 0.
      1.17647061e-002 0. 5.88235306e-003 0. 0. 0. 0. 0. 0. 0. 0. 0. 0.
      0. 0. 0. 0. 1.17647061e-002 0. 0. 0. 0. 5.88235306e-003
      5.88235306e-003 0. 0. 5.88235306e-003 0. 0. 0. 0. 0. 0. 0. 0. 0.
      0. 5.88235306e-003 0. 0. 0. 0. 0. 0. 0. 5.88235306e-003 0. 0. 0.
      0. 0. 0. 0. 0. 0. 0. 0. 0. 0. 0. 0. 5.88235306e-003 0. 0. 0. 0. 0.
      0. 0. 0. 1.17647061e-002 0. 0. 0. 0. 0. 0. 0. 0. 0. 0. 0. 0.
      5.88235306e-003 0. 0. 0. 0. 0. 0. 0. 0. 0. 0. 0. 0. 0. 0. 0. 0. 0.
      0. 0. 0. 0. 0. 0. 0. 0. 5.88235306e-003 5.88235306e-003 0. 0. 0.
      0. 5.88235306e-003 0. 5.88235306e-003 0. 0. 0. 0. 0.
      5.88235306e-003 0. 0. 0. 1.17647061e-002 0. 0. 0. 0.
      5.88235306e-003 0. 0. 0. 0. 5.88235306e-003 0. 5.88235306e-003 0.
      1.76470596e-002 0. 0. 0. 5.88235306e-003 0. 0. 0. 0. 0. 0. 0.
      5.88235306e-003 0. 0. 0. 5.88235306e-003 0. 0. 0. 0. 0. 0. 0.
      5.88235306e-003 5.88235306e-003 0. 0. 0. 0. 0. 0. 0. 0. 0. 0. 0.
      0. 5.88235306e-003 0. 1.17647061e-002 5.88235306e-003 0. 0. 0. 0.
      5.88235306e-003 0. 0. 0. 0. 5.88235306e-003 5.88235306e-003 0.
      1.17647061e-002 5.88235306e-003 0. 0. 0. 0. 0. 0. 0. 0. 0. 0. 0.
      0. 0. 0. 0. 0. 0. 0. 0. 0. 0. 0. 0. 0. 0. 0. 0. 5.88235306e-003
      5.88235306e-003 0. 0. 0. 0. 0. 0. 0. 1.17647061e-002 0. 0. 0. 0.
      0. 0. 0. 0. 0. 0. 0. 0. 5.88235306e-003 0. 0. 0. 5.88235306e-003
      0. 0. 0. 0. 0. 5.88235306e-003 0. 0. 0. 0. 5.88235306e-003 0. 0.
      0. 0. 0. 0. 5.88235306e-003 0. 0. 0. 0. 0. 0. 0. 0. 0. 0. 0. 0. 0.
      0. 0. 0. 5.88235306e-003 0. 0. 0. 0. 0. 1.17647061e-002 0. 0.
      5.88235306e-003 5.88235306e-003 5.88235306e-003 0. 0. 0. 0. 0. 0.
      0. 0. 1.17647061e-002 0. 0. 0. 0. 0. 0. 0. 0. 0. 0. 0. 0. 0. 0. 0.
      5.88235306e-003 0. 0. 0. 0. 0. 0. 5.88235306e-003 0.
      5.88235306e-003 0. 0. 0. 0. 0. 0. 0. 0. 0. 0. 5.88235306e-003 0.
      0. 0. 0. 5.88235306e-003 0. 0. 0. 0. 0. 0. 0. 0. 0. 0. 0. 0. 0. 0.
      0. 0. 0. 0. 0. 0. 5.88235306e-003 0. 0. 0. 0. 0. 0. 0. 0. 0. 0. 0.
      5.88235306e-003 0. 0. 0. 0. 0. 0. 0. 5.88235306e-003
      5.88235306e-003 0. 0. 0. 5.88235306e-003 0. 0. 0. 0. 0. 0. 0. 0.
      0. 5.88235306e-003 0. 5.88235306e-003 0. 0. 5.88235306e-003
      5.88235306e-003 0. 0. 0. 0. 0. 0. 0. 5.88235306e-003 0. 0.
      5.88235306e-003 0. 0. 0. 0. 0. 0. 0. 0. 5.88235306e-003 0. 0. 0.
      0. 0. 5.88235306e-003 5.88235306e-003 0. 0. 0. 5.88235306e-003 0.
      0. 0. 0. 0. 1.17647061e-002 0. 0. 0. 0. 0. 0. 0. 0.
      5.88235306e-003 5.88235306e-003 0. 5.88235306e-003 0. 0. 0. 0. 0.
      0. 0. 0. 0. 0. 0. 0. 0. 0. 0. 0. 0. 0. 0. 0. 5.88235306e-003 0. 0.
      5.88235306e-003 0. 0. 0. 0. 0. 5.88235306e-003 0. 0. 0. 0. 0. 0.
      0. 0. 0. 0. 0. 0. 0. 0. 0. 0. 0. 0. 0. 0. 0. 0. 0. 0. 0. 0. 0. 0.
      5.88235306e-003 0. 0. 0. 0. 5.88235306e-003 0. 0. 0. 0. 0.
      1.17647061e-002 0. 0. 0. 0. 0. 0. 5.88235306e-003 0.
      5.88235306e-003 0. 0. 0. 0. 0. 5.88235306e-003 5.88235306e-003 0.
      0. 0. 0. 0. 0. 0. 0. 0. 0. 0. 0. 5.88235306e-003 0. 0. 0. 0. 0. 0.
      0. 5.88235306e-003 0. 5.88235306e-003 5.88235306e-003 0. 0. 0. 0.
      0. 5.88235306e-003 0. 0. 1.17647061e-002 0. 0. 0. 0. 0. 0.
      5.88235306e-003 0. 0. 0. 0. 5.88235306e-003 0. 0. 0. 0.
      5.88235306e-003 0. 0. 0. 0. 0. 0. 5.88235306e-003 0.
      5.88235306e-003 1.76470596e-002 0. 0. 5.88235306e-003 0.
      1.17647061e-002 0. 5.88235306e-003 0. 0. 0. 0. 0. 0.
      1.17647061e-002 0. 0. 5.88235306e-003 0. 0. 5.88235306e-003 0. 0.
      5.88235306e-003 0. 0. 0. 0. 0. 0. 0. 0. 0. 0. 0. 0. 0. 0. 0. 0. 0.
      5.88235306e-003 0. 5.88235306e-003 0. 0. 0. 0. 0. 0. 0. 0. 0.
      5.88235306e-003 0. 0. 0. 0. 0. 0. 0. 0. 0. 0. 5.88235306e-003 0.
      0. 0. 0. 0. 0. 0. 0. 0. 0. 0. 0. 0. 0. 0. 5.88235306e-003 0. 0. 0.
      0. 0. 0. 0. 0. 5.88235306e-003 0. 0. 0. 0. 0. 0. 0. 0.
      5.88235306e-003 0. 0. 0. 0. 0. 0. 0. 0. 0. 0. 0. 0. 0. 0. 0. 0. 0.
      0. 0. 0. 5.88235306e-003 0. 0. 0. 0. 0. 0. 0. 0. 0. 0. 0. 0. 0. 0.
      0. 0. 0. 0. 0. 0. 0. 0. 1.17647061e-002 0. 0. 5.88235306e-003 0.
      0. 0. 0. 0. 0. 0. 0. 0. 0. 0. 0. 0. 0. 0. 0. 0. 5.88235306e-003 0.
      5.88235306e-003 0. 5.88235306e-003 0. 5.88235306e-003 0. 0. 0. 0.
      0. 0. 0. 0. 0. 0. 0. 0. 0. 0. 0. 0. 0. 0. 0. 0. 0. 0. 0. 0. 0. 0.
      1.17647061e-002 0. 0. 0. 0. 0. 0. 5.88235306e-003 0. 0. 0. 0. 0.</_>
    <_>
      6.13496918e-003 0. 6.13496918e-003 0. 0. 0. 0. 0. 0.
      6.13496918e-003 0. 0. 0. 6.13496918e-003 0. 0. 0. 6.13496918e-003
      0. 0. 0. 0. 0. 0. 0. 0. 0. 0. 0. 0. 0. 0. 0. 0. 0. 0. 0.
      6.13496918e-003 0. 0. 6.13496918e-003 0. 1.84049085e-002 0. 0. 0.
      0. 6.13496918e-003 6.13496918e-003 0. 6.13496918e-003 0. 0. 0. 0.
      0. 0. 0. 0. 0. 0. 0. 0. 0. 0. 0. 0. 0. 0. 1.22699384e-002 0. 0. 0.
      0. 0. 0. 0. 0. 0. 0. 0. 0. 0. 0. 0. 0. 0. 1.22699384e-002 0. 0. 0.
      0. 0. 0. 0. 0. 0. 0. 0. 0. 0. 0. 0. 0. 0. 0. 0. 0. 0. 0. 0. 0. 0.
      0. 0. 0. 0. 0. 0. 6.13496918e-003 0. 6.13496918e-003 0. 0. 0.
      1.22699384e-002 0. 0. 0. 0. 0. 0. 6.13496918e-003 6.13496918e-003
      0. 0. 0. 0. 0. 0. 0. 0. 0. 0. 0. 6.13496918e-003 0. 0. 0. 0. 0. 0.
      0. 0. 0. 6.13496918e-003 6.13496918e-003 6.13496918e-003 0. 0. 0.
      6.13496918e-003 0. 0. 0. 0. 1.22699384e-002 6.13496918e-003 0. 0.
      0. 0. 0. 6.13496918e-003 0. 1.22699384e-002 0. 0. 0. 0. 0. 0. 0.
      0. 0. 6.13496918e-003 0. 0. 0. 0. 0. 0. 0. 0. 0. 6.13496918e-003
      0. 0. 0. 0. 0. 0. 0. 0. 0. 1.22699384e-002 0. 0. 6.13496918e-003
      0. 1.22699384e-002 0. 0. 6.13496918e-003 0. 0. 6.13496918e-003 0.
      0. 0. 0. 0. 0. 0. 0. 6.13496918e-003 0. 0. 0. 6.13496918e-003 0.
      6.13496918e-003 6.13496918e-003 0. 6.13496918e-003 6.13496918e-003
      0. 0. 0. 0. 0. 0. 0. 0. 0. 0. 0. 0. 6.13496918e-003 0.
      6.13496918e-003 0. 0. 0. 0. 0. 0. 0. 0. 0. 0. 0. 0.
      6.13496918e-003 0. 0. 0. 0. 0. 0. 0. 0. 0. 0. 1.22699384e-002 0.
      6.13496918e-003 0. 0. 0. 0. 0. 0. 0. 0. 0. 0. 0. 1.22699384e-002
      6.13496918e-003 0. 0. 0. 0. 0. 0. 0. 0. 0. 0. 0. 0. 0. 0. 0. 0. 0.
      0. 0. 0. 0. 0. 1.22699384e-002 0. 0. 0. 0. 0. 0. 6.13496918e-003
      0. 0. 0. 0. 6.13496918e-003 0. 0. 0. 0. 0. 0. 0. 0.
      1.22699384e-002 0. 0. 0. 0. 0. 0. 0. 0. 6.13496918e-003 0.
      6.13496918e-003 0. 1.22699384e-002 0. 0. 0. 0. 0. 0. 0. 0. 0. 0.
      0. 0. 1.22699384e-002 0. 0. 6.13496918e-003 0. 0. 0. 0. 0. 0. 0.
      6.13496918e-003 0. 0. 0. 0. 0. 0. 6.13496918e-003 0. 0. 0. 0.
      6.13496918e-003 0. 0. 0. 6.13496918e-003 0. 0. 0. 0. 0. 0. 0. 0.
      0. 0. 0. 6.13496918e-003 0. 0. 0. 0. 0. 0. 0. 0. 0.
      6.13496918e-003 0. 0. 0. 0. 0. 1.22699384e-002 0. 0. 0. 0. 0. 0.
      0. 0. 0. 0. 0. 0. 0. 0. 0. 0. 6.13496918e-003 0. 0.
      6.13496918e-003 0. 0. 0. 0. 0. 0. 6.13496918e-003 6.13496918e-003
      0. 0. 6.13496918e-003 0. 6.13496918e-003 0. 0. 0. 6.13496918e-003
      0. 0. 0. 0. 1.22699384e-002 0. 0. 0. 0. 0. 0. 0. 6.13496918e-003
      0. 0. 6.13496918e-003 0. 0. 0. 0. 0. 0. 0. 0. 0. 0. 0. 0. 0.
      6.13496918e-003 0. 1.22699384e-002 0. 0. 0. 0. 0. 0. 0.
      6.13496918e-003 0. 0. 0. 0. 0. 0. 0. 0. 0. 6.13496918e-003 0. 0.
      0. 0. 0. 0. 0. 6.13496918e-003 0. 0. 0. 6.13496918e-003 0. 0. 0.
      0. 6.13496918e-003 0. 0. 0. 0. 0. 0. 0. 0. 1.22699384e-002 0. 0.
      0. 0. 0. 0. 0. 0. 0. 0. 0. 0. 0. 0. 0. 0. 0. 0. 0. 0. 0. 0. 0.
      6.13496918e-003 0. 0. 0. 0. 6.13496918e-003 0. 0. 0. 0. 0. 0. 0.
      0. 0. 0. 0. 0. 0. 0. 0. 0. 0. 0. 0. 0. 0. 0. 6.13496918e-003 0. 0.
      0. 0. 0. 0. 0. 0. 0. 0. 0. 0. 0. 0. 0. 0. 0. 0. 0. 0. 0. 0. 0. 0.
      0. 0. 0. 0. 0. 6.13496918e-003 6.13496918e-003 0. 0. 0. 0.
      6.13496918e-003 0. 6.13496918e-003 0. 0. 0. 0. 0. 0. 0. 0. 0. 0.
      0. 0. 0. 0. 0. 0. 0. 0. 0. 0. 0. 0. 0. 0. 1.22699384e-002 0. 0. 0.
      0. 0. 6.13496918e-003 0. 0. 0. 0. 0. 0. 6.13496918e-003 0. 0. 0.
      0. 0. 0. 0. 0. 0. 0. 0. 0. 0. 0. 0. 0. 0. 0. 0. 0. 0. 0.
      6.13496918e-003 0. 0. 6.13496918e-003 0. 0. 0. 0. 0. 0. 0. 0. 0.
      6.13496918e-003 0. 0. 0. 0. 0. 6.13496918e-003 0. 0. 0. 0. 0. 0.
      0. 0. 0. 0. 0. 0. 6.13496918e-003 0. 0. 0. 0. 0. 0.
      6.13496918e-003 0. 0. 0. 0. 0. 0. 0. 0. 0. 0. 6.13496918e-003 0.
      0. 6.13496918e-003 0. 0. 0. 0. 6.13496918e-003 0. 0. 0. 0. 0. 0.
      0. 0. 0. 0. 0. 0. 6.13496918e-003 0. 0. 0. 0. 0. 0. 0. 0. 0. 0. 0.
      6.13496918e-003 0. 0. 1.84049085e-002 0. 0. 0. 0. 0. 0. 0. 0. 0.
      0. 0. 6.13496918e-003 0. 0. 0. 0. 6.13496918e-003 0. 0. 0. 0. 0.
      0. 0. 6.13496918e-003 0. 0. 0. 0. 0. 0. 0. 0. 0. 0. 0. 0. 0. 0. 0.
      0. 0. 0. 0. 6.13496918e-003 0. 0. 0. 0. 0. 0. 6.13496918e-003 0.
      0. 0. 0. 0. 6.13496918e-003 0. 0. 0. 0. 0. 0. 0. 0. 0. 0. 0.
      6.13496918e-003 0. 0. 0. 0. 0. 0. 0. 0. 0. 6.13496918e-003 0. 0.
      0. 0. 0. 0. 0. 0. 0. 0. 0. 0. 6.13496918e-003 6.13496918e-003 0.
      0. 0. 6.13496918e-003 0. 0. 0. 0. 0. 0. 0. 6.13496918e-003 0. 0.
      0. 0. 0. 0. 1.22699384e-002 0. 0. 0. 0. 0. 0. 0. 0. 0. 0. 0. 0. 0.
      0. 6.13496918e-003 0. 0. 6.13496918e-003 0. 0. 0. 0. 0. 0. 0. 0.
      0. 6.13496918e-003 6.13496918e-003 6.13496918e-003 0.
      6.13496918e-003 6.13496918e-003 0. 0. 0. 0. 0. 0. 0. 0. 0. 0. 0.
      0. 0. 0. 0. 0. 0. 0. 0. 0. 0. 0. 0. 0. 0. 6.13496918e-003 0. 0. 0.
      0. 0. 0. 0. 0. 0. 0. 0. 0. 0. 0. 0. 2.45398767e-002
      6.13496918e-003 6.13496918e-003 0. 6.13496918e-003 0. 0. 0. 0. 0.
      0. 0. 0. 0. 0. 0. 0. 0. 0. 0. 0. 0. 6.13496918e-003
      6.13496918e-003 6.13496918e-003 0. 0. 6.13496918e-003
      6.13496918e-003 0. 0. 0. 0. 0. 0. 6.13496918e-003 0. 0.
      1.22699384e-002 0. 0. 0. 0. 6.13496918e-003 0. 0. 0. 0.</_>
    <_>
      0. 0. 0. 0. 0. 0. 0. 0. 6.66666683e-003 0. 0. 0. 0. 0. 0. 0. 0. 0.
      0. 1.33333337e-002 6.66666683e-003 0. 0. 0. 0. 0. 0. 0. 0. 0. 0.
      0. 0. 0. 0. 0. 0. 0. 0. 0. 0. 0. 0. 6.66666683e-003 0.
      6.66666683e-003 0. 0. 0. 0. 0. 0. 0. 0. 0. 6.66666683e-003 0. 0.
      1.33333337e-002 0. 6.66666683e-003 6.66666683e-003 0. 0. 0. 0. 0.
      0. 0. 0. 0. 0. 6.66666683e-003 6.66666683e-003 0. 6.66666683e-003
      0. 0. 0. 0. 0. 0. 0. 0. 0. 0. 0. 1.33333337e-002 0. 0.
      6.66666683e-003 0. 0. 0. 0. 0. 0. 0. 0. 0. 0. 0. 0. 0. 0. 0. 0. 0.
      0. 0. 0. 0. 0. 0. 0. 0. 0. 0. 0. 0. 0. 0. 0. 0. 0. 0. 0. 0.
      6.66666683e-003 0. 0. 0. 6.66666683e-003 0. 6.66666683e-003 0.
      6.66666683e-003 0. 0. 0. 0. 1.33333337e-002 0. 0. 6.66666683e-003
      0. 0. 0. 0. 0. 0. 0. 0. 0. 0. 6.66666683e-003 6.66666683e-003
      6.66666683e-003 0. 1.33333337e-002 0. 0. 0. 0. 0. 0. 0. 0. 0. 0.
      0. 0. 6.66666683e-003 0. 0. 0. 0. 0. 0. 0. 0. 0. 0. 0. 0. 0. 0.
      6.66666683e-003 0. 0. 0. 0. 0. 0. 0. 0. 0. 0. 0. 0. 0. 0. 0. 0. 0.
      0. 0. 0. 0. 0. 0. 0. 6.66666683e-003 0. 0. 0. 6.66666683e-003
      6.66666683e-003 0. 6.66666683e-003 0. 0. 0. 0. 0. 0. 0. 0. 0. 0.
      0. 0. 0. 0. 0. 0. 6.66666683e-003 0. 0. 0. 0. 6.66666683e-003
      6.66666683e-003 0. 0. 0. 0. 0. 0. 6.66666683e-003 0.
      6.66666683e-003 6.66666683e-003 6.66666683e-003 0. 0. 0. 0. 0. 0.
      0. 0. 0. 6.66666683e-003 0. 0. 0. 0. 6.66666683e-003 0. 0. 0.
      6.66666683e-003 0. 0. 0. 0. 0. 0. 0. 0. 0. 0. 0. 0. 0.
      6.66666683e-003 0. 0. 0. 0. 0. 0. 0. 0. 0. 0. 6.66666683e-003 0.
      0. 0. 0. 0. 0. 0. 0. 0. 0. 0. 0. 0. 0. 0. 0. 0. 0. 0. 0. 0. 0. 0.
      0. 0. 0. 0. 0. 0. 0. 0. 0. 0. 0. 0. 6.66666683e-003
      1.99999996e-002 0. 0. 0. 6.66666683e-003 0. 0. 0. 0. 0. 0.
      6.66666683e-003 0. 0. 0. 0. 0. 0. 0. 0. 6.66666683e-003 0. 0. 0.
      0. 6.66666683e-003 0. 0. 0. 0. 0. 0. 0. 6.66666683e-003 0. 0. 0.
      0. 0. 0. 0. 0. 0. 6.66666683e-003 1.33333337e-002 0. 0. 0. 0.
      6.66666683e-003 6.66666683e-003 0. 0. 0. 0. 6.66666683e-003 0. 0.
      0. 0. 0. 0. 0. 0. 0. 0. 0. 0. 0. 0. 0. 0. 0. 0. 0. 0. 0. 0. 0. 0.
      0. 0. 0. 0. 0. 6.66666683e-003 0. 0. 0. 0. 0. 0. 0. 0. 0.
      6.66666683e-003 0. 0. 0. 6.66666683e-003 0. 0. 0. 0. 0. 0. 0. 0.
      0. 0. 0. 0. 0. 0. 0. 0. 0. 6.66666683e-003 0. 0. 0. 0. 0. 0. 0. 0.
      0. 6.66666683e-003 6.66666683e-003 0. 0. 0. 0. 0. 0. 0. 0. 0. 0.
      0. 0. 0. 0. 6.66666683e-003 6.66666683e-003 6.66666683e-003 0. 0.
      0. 0. 0. 0. 0. 0. 0. 0. 0. 6.66666683e-003 0. 0. 0.
      6.66666683e-003 0. 0. 0. 0. 0. 0. 1.33333337e-002 0. 0. 0. 0. 0.
      0. 6.66666683e-003 0. 0. 0. 0. 0. 6.66666683e-003 0.
      6.66666683e-003 0. 6.66666683e-003 0. 0. 0. 6.66666683e-003 0. 0.
      0. 0. 0. 0. 0. 6.66666683e-003 0. 0. 0. 0. 0. 0. 6.66666683e-003
      0. 0. 6.66666683e-003 0. 0. 0. 6.66666683e-003 0. 0.
      6.66666683e-003 6.66666683e-003 0. 0. 0. 6.66666683e-003 0. 0. 0.
      6.66666683e-003 6.66666683e-003 0. 0. 0. 0. 0. 0. 0. 0. 0.
      6.66666683e-003 0. 0. 0. 0. 0. 0. 0. 0. 6.66666683e-003 0. 0. 0.
      0. 0. 6.66666683e-003 0. 6.66666683e-003 0. 0. 6.66666683e-003 0.
      0. 0. 0. 0. 0. 0. 6.66666683e-003 6.66666683e-003 1.33333337e-002
      0. 0. 0. 0. 0. 0. 6.66666683e-003 0. 0. 0. 0. 0. 0.
      6.66666683e-003 6.66666683e-003 0. 0. 6.66666683e-003 0. 0. 0. 0.
      1.33333337e-002 0. 0. 0. 0. 0. 1.33333337e-002 6.66666683e-003 0.
      0. 0. 6.66666683e-003 0. 0. 0. 6.66666683e-003 0. 0. 0. 0. 0.
      6.66666683e-003 0. 0. 0. 0. 6.66666683e-003 0. 0. 0. 0. 0. 0. 0.
      0. 0. 0. 0. 6.66666683e-003 0. 0. 0. 0. 0. 0. 0. 0. 0. 0. 0. 0. 0.
      0. 0. 0. 0. 0. 0. 0. 0. 0. 6.66666683e-003 0. 0. 0. 0. 0.
      6.66666683e-003 0. 0. 0. 0. 0. 0. 0. 0. 0. 0. 0. 0. 0. 0. 0. 0. 0.
      0. 0. 0. 0. 0. 0. 0. 0. 6.66666683e-003 0. 0. 0. 0. 0. 0. 0. 0. 0.
      0. 0. 0. 0. 0. 0. 0. 0. 1.33333337e-002 0. 0. 0. 0. 0. 0. 0. 0. 0.
      0. 6.66666683e-003 0. 0. 0. 1.99999996e-002 0. 0. 0. 0. 0.
      6.66666683e-003 0. 0. 0. 6.66666683e-003 0. 6.66666683e-003 0. 0.
      6.66666683e-003 0. 0. 0. 0. 0. 0. 0. 0. 0. 0. 0. 6.66666683e-003
      0. 0. 0. 0. 1.33333337e-002 1.33333337e-002 0. 0. 6.66666683e-003
      0. 0. 0. 0. 0. 0. 0. 0. 0. 6.66666683e-003 0. 0. 0. 0. 0. 0. 0. 0.
      0. 0. 0. 0. 0. 0. 0. 0. 0. 0. 0. 0. 0. 0. 0. 0. 0. 0. 0. 0. 0. 0.
      0. 6.66666683e-003 0. 0. 0. 0. 0. 0. 0. 0. 0. 0. 0. 0. 0. 0. 0. 0.
      0. 0. 0. 0. 6.66666683e-003 0. 0. 0. 0. 0. 0. 6.66666683e-003 0.
      6.66666683e-003 0. 0. 0. 0. 0. 0. 0. 0. 0. 0. 0. 0. 0. 0. 0. 0. 0.
      0. 0. 0. 0. 0. 0. 0. 0. 0. 0. 0. 0. 0. 0. 6.66666683e-003 0. 0. 0.
      0. 0. 0. 0. 6.66666683e-003 0. 0. 0. 0. 0. 0. 0. 0. 0. 0. 0. 0. 0.
      0. 0. 0. 0. 0. 0. 0. 6.66666683e-003 0. 0. 0. 0. 0. 0. 0. 0. 0.
      6.66666683e-003 0. 0. 0. 0. 0. 0. 6.66666683e-003 0. 0. 0. 0.
      6.66666683e-003 0. 0. 6.66666683e-003 6.66666683e-003
      6.66666683e-003 0. 0. 0. 0. 6.66666683e-003 0. 0. 0. 0. 0.
      6.66666683e-003 0. 0. 0. 0. 0. 0. 0. 0. 0. 0. 6.66666683e-003 0.
      0. 0. 0. 0. 0. 0. 0. 0. 0. 0. 0. 0. 0. 0. 0. 0. 0. 0.
      6.66666683e-003 0. 0. 0. 0. 0. 0. 0. 0. 6.66666683e-003 0. 0. 0.
      0. 0.</_>
    <_>
      0. 0. 0. 0. 0. 6.21118024e-003 6.21118024e-003 0. 0. 0. 0. 0. 0.
      0. 0. 6.21118024e-003 0. 0. 0. 0. 0. 0. 0. 0. 0. 0.
      6.21118024e-003 0. 0. 0. 0. 0. 0. 0. 0. 0. 0. 0. 0. 0. 0. 0.
      1.24223605e-002 0. 0. 0. 0. 0. 0. 0. 0. 6.21118024e-003 0. 0. 0.
      0. 0. 0. 0. 0. 0. 6.21118024e-003 0. 0. 0. 6.21118024e-003 0. 0.
      6.21118024e-003 6.21118024e-003 0. 0. 0. 0. 0. 0. 0. 0. 0. 0. 0.
      0. 0. 0. 6.21118024e-003 0. 0. 0. 6.21118024e-003 0.
      6.21118024e-003 0. 0. 0. 0. 0. 0. 0. 0. 0. 0. 0. 0. 0.
      6.21118024e-003 0. 0. 0. 0. 0. 6.21118024e-003 0. 0. 0. 0. 0. 0.
      0. 0. 0. 0. 0. 0. 0. 0. 6.21118024e-003 0. 0. 6.21118024e-003 0.
      0. 0. 0. 0. 0. 6.21118024e-003 0. 0. 0. 0. 6.21118024e-003 0. 0.
      6.21118024e-003 6.21118024e-003 6.21118024e-003 0. 0. 0. 0. 0. 0.
      0. 0. 0. 0. 0. 0. 0. 0. 0. 0. 0. 0. 0. 0. 0. 0. 0. 6.21118024e-003
      6.21118024e-003 0. 0. 0. 0. 0. 0. 0. 0. 0. 0. 0. 0. 0. 0. 0. 0.
      6.21118024e-003 0. 0. 0. 0. 6.21118024e-003 0. 0. 0. 0.
      6.21118024e-003 0. 0. 0. 0. 0. 0. 6.21118024e-003 0. 0. 0. 0.
      6.21118024e-003 0. 0. 0. 0. 1.86335407e-002 6.21118024e-003 0. 0.
      0. 0. 0. 0. 0. 0. 0. 0. 6.21118024e-003 0. 0. 6.21118024e-003 0.
      0. 0. 6.21118024e-003 0. 0. 0. 0. 0. 0. 0. 0. 0. 0. 0. 0. 0. 0. 0.
      0. 0. 6.21118024e-003 0. 0. 0. 0. 0. 0. 0. 0. 0. 1.24223605e-002
      0. 0. 0. 0. 0. 6.21118024e-003 0. 0. 0. 6.21118024e-003 0. 0. 0.
      0. 0. 0. 0. 0. 0. 0. 0. 0. 0. 0. 0. 6.21118024e-003 0. 0. 0. 0.
      6.21118024e-003 0. 0. 0. 0. 0. 6.21118024e-003 0. 0. 0. 0.
      6.21118024e-003 0. 0. 0. 0. 0. 0. 6.21118024e-003 0. 0. 0. 0. 0.
      0. 0. 0. 0. 1.24223605e-002 0. 0. 0. 0. 0. 0. 0. 0. 0.
      6.21118024e-003 0. 0. 6.21118024e-003 0. 0. 0. 0. 0. 0. 0. 0. 0.
      6.21118024e-003 0. 0. 0. 6.21118024e-003 0. 0. 0. 0. 0. 0. 0. 0.
      0. 0. 0. 0. 0. 0. 6.21118024e-003 0. 0. 0. 0. 6.21118024e-003 0.
      0. 0. 0. 0. 6.21118024e-003 0. 0. 6.21118024e-003 0.
      6.21118024e-003 0. 1.86335407e-002 0. 0. 0. 0. 0. 6.21118024e-003
      0. 0. 0. 0. 0. 0. 0. 0. 0. 0. 0. 0. 0. 0. 0. 6.21118024e-003 0. 0.
      0. 0. 0. 0. 6.21118024e-003 0. 0. 6.21118024e-003 0. 0.
      6.21118024e-003 0. 0. 0. 6.21118024e-003 0. 0. 0. 0. 0.
      6.21118024e-003 0. 0. 0. 0. 0. 0. 0. 0. 6.21118024e-003 0. 0. 0.
      1.24223605e-002 0. 1.86335407e-002 0. 6.21118024e-003
      6.21118024e-003 0. 0. 0. 0. 0. 0. 0. 0. 0. 0. 6.21118024e-003 0.
      0. 0. 0. 0. 0. 0. 0. 6.21118024e-003 0. 0. 0. 0. 0. 0. 0. 0. 0. 0.
      0. 0. 0. 0. 0. 0. 0. 0. 0. 6.21118024e-003 0. 0. 0. 0. 0. 0. 0. 0.
      0. 0. 0. 1.24223605e-002 0. 0. 6.21118024e-003 0. 0.
      2.48447210e-002 0. 0. 0. 0. 0. 0. 0. 0. 0. 0. 0. 0.
      6.21118024e-003 0. 0. 0. 0. 0. 0. 6.21118024e-003 0. 0. 0. 0. 0.
      6.21118024e-003 0. 0. 0. 0. 0. 0. 0. 0. 0. 0. 6.21118024e-003 0.
      0. 0. 0. 0. 0. 0. 0. 0. 0. 6.21118024e-003 0. 0. 0. 0.
      6.21118024e-003 0. 0. 0. 6.21118024e-003 0. 0. 0. 0. 0. 0. 0. 0.
      0. 0. 0. 0. 0. 0. 6.21118024e-003 0. 0. 0. 6.21118024e-003 0. 0.
      0. 0. 0. 0. 0. 0. 0. 0. 0. 0. 0. 0. 1.24223605e-002 0. 0. 0. 0.
      1.86335407e-002 0. 0. 0. 0. 6.21118024e-003 6.21118024e-003 0. 0.
      0. 0. 6.21118024e-003 6.21118024e-003 1.24223605e-002 0. 0. 0. 0.
      0. 0. 0. 0. 0. 0. 0. 0. 2.48447210e-002 0. 0. 0. 0. 0. 0. 0. 0. 0.
      0. 0. 0. 0. 0. 0. 0. 0. 0. 0. 0. 0. 0. 0. 0. 0. 6.21118024e-003 0.
      0. 0. 0. 0. 0. 0. 0. 0. 0. 0. 6.21118024e-003 0. 0. 0. 0. 0. 0. 0.
      0. 0. 0. 0. 0. 0. 0. 0. 0. 6.21118024e-003 0. 0. 0. 0. 0. 0. 0. 0.
      0. 0. 0. 0. 6.21118024e-003 0. 0. 0. 1.24223605e-002 0. 0. 0. 0.
      0. 0. 6.21118024e-003 0. 0. 0. 0. 0. 0. 0. 0. 0. 0. 0. 0. 0. 0.
      6.21118024e-003 0. 0. 0. 0. 0. 6.21118024e-003 6.21118024e-003 0.
      0. 0. 0. 0. 0. 0. 6.21118024e-003 0. 0. 0. 0. 0. 6.21118024e-003
      0. 0. 0. 0. 0. 2.48447210e-002 0. 0. 0. 0. 0. 0. 0. 0. 0. 0. 0. 0.
      0. 0. 0. 0. 0. 0. 0. 6.21118024e-003 0. 0. 0. 6.21118024e-003
      6.21118024e-003 0. 0. 0. 6.21118024e-003 0. 0. 6.21118024e-003 0.
      0. 0. 0. 0. 0. 0. 0. 0. 0. 0. 0. 0. 0. 0. 0. 0. 6.21118024e-003
      6.21118024e-003 0. 0. 0. 0. 0. 0. 0. 0. 0. 6.21118024e-003 0. 0.
      0. 0. 0. 0. 0. 0. 0. 0. 6.21118024e-003 0. 6.21118024e-003 0. 0.
      0. 0. 1.24223605e-002 0. 0. 0. 0. 0. 0. 0. 0. 0. 0. 0. 0.
      6.21118024e-003 1.24223605e-002 0. 6.21118024e-003 0. 0. 0. 0.
      6.21118024e-003 0. 0. 0. 0. 0. 0. 0. 0. 0. 0. 0. 0.
      6.21118024e-003 6.21118024e-003 0. 0. 0. 0. 0. 0. 0. 0. 0.
      6.21118024e-003 0. 0. 0. 0. 0. 0. 0. 0. 0. 6.21118024e-003 0. 0.
      0. 0. 0. 0. 0. 0. 0. 0. 6.21118024e-003 6.21118024e-003 0. 0. 0.
      0. 6.21118024e-003 0. 0. 0. 0. 0. 0. 0. 0. 0. 0. 0. 0. 0. 0. 0. 0.
      0. 0. 0. 6.21118024e-003 0. 0. 6.21118024e-003 0. 0. 0. 0. 0. 0.
      0. 0. 0. 0. 0. 0. 0. 0. 6.21118024e-003 0. 0. 0. 0. 0. 0. 0. 0.
      6.21118024e-003 0. 0. 0. 0. 0. 0. 6.21118024e-003 0. 0.
      6.21118024e-003 0. 0. 6.21118024e-003 0. 0. 0. 0. 0. 0. 0.
      6.21118024e-003 0. 0. 0. 6.21118024e-003 0. 0. 0. 0. 0. 0.
      6.21118024e-003 0. 0. 0. 0. 0. 0. 0. 0. 0. 0. 0. 0. 0. 0. 0. 0. 0.
      0. 0. 0. 0. 0. 0. 6.21118024e-003 0.</_>
    <_>
      7.81250000e-003 0. 0. 0. 0. 0. 0. 0. 0. 0. 0. 0. 0. 0. 0. 0. 0. 0.
      0. 1.56250000e-002 0. 0. 0. 0. 0. 0. 0. 7.81250000e-003
      7.81250000e-003 7.81250000e-003 0. 0. 0. 0. 0. 0. 0. 0.
      1.56250000e-002 0. 0. 0. 1.56250000e-002 0. 0. 0. 0.
      7.81250000e-003 0. 0. 0. 0. 0. 0. 0. 0. 7.81250000e-003
      7.81250000e-003 0. 0. 0. 0. 0. 0. 0. 0. 0. 0. 0. 0. 0. 0. 0.
      1.56250000e-002 0. 0. 0. 0. 0. 0. 1.56250000e-002 0. 0. 0. 0. 0.
      0. 7.81250000e-003 0. 0. 0. 0. 0. 0. 0. 0. 0. 0. 0. 0. 0. 0. 0. 0.
      0. 0. 0. 0. 7.81250000e-003 0. 7.81250000e-003 0. 0. 0. 0. 0. 0.
      0. 0. 0. 0. 0. 0. 0. 0. 0. 0. 7.81250000e-003 0. 0. 0. 0.
      7.81250000e-003 0. 0. 0. 1.56250000e-002 0. 0. 0. 0. 0. 0. 0. 0.
      0. 0. 0. 0. 0. 0. 0. 0. 0. 0. 7.81250000e-003 0. 1.56250000e-002
      0. 0. 0. 0. 0. 0. 0. 0. 0. 0. 0. 0. 7.81250000e-003 0. 0. 0. 0. 0.
      0. 0. 0. 0. 0. 0. 0. 0. 0. 0. 0. 0. 0. 0. 0. 0. 0. 0. 0. 0. 0. 0.
      0. 0. 0. 0. 0. 0. 0. 7.81250000e-003 0. 0. 0. 0. 7.81250000e-003
      0. 0. 0. 0. 1.56250000e-002 0. 0. 0. 0. 0. 0. 0. 0. 0.
      1.56250000e-002 0. 0. 0. 0. 0. 0. 0. 0. 0. 0. 0. 0. 0. 0. 0. 0. 0.
      0. 0. 0. 0. 7.81250000e-003 0. 0. 0. 0. 0. 7.81250000e-003 0. 0.
      0. 0. 7.81250000e-003 0. 0. 0. 0. 0. 0. 0. 0. 0. 0. 0.
      7.81250000e-003 0. 0. 0. 0. 0. 7.81250000e-003 0. 0. 0. 0. 0. 0.
      0. 0. 0. 0. 0. 7.81250000e-003 0. 0. 0. 0. 0. 0. 0. 0. 0. 0. 0. 0.
      0. 0. 0. 0. 0. 0. 0. 7.81250000e-003 0. 0. 0. 0. 0. 0. 0. 0. 0. 0.
      0. 0. 0. 0. 0. 0. 0. 0. 0. 0. 0. 7.81250000e-003 0. 0. 0. 0. 0. 0.
      0. 0. 7.81250000e-003 0. 0. 0. 0. 0. 0. 1.56250000e-002
      7.81250000e-003 7.81250000e-003 0. 0. 0. 0. 0. 0. 0. 0. 0. 0. 0.
      0. 0. 0. 0. 0. 0. 0. 0. 0. 0. 7.81250000e-003 0. 0. 0. 0. 0. 0. 0.
      1.56250000e-002 0. 7.81250000e-003 0. 0. 0. 0. 0. 0. 0. 0.
      7.81250000e-003 0. 0. 0. 0. 0. 0. 0. 0. 0. 0. 0. 0. 0. 0. 0. 0. 0.
      7.81250000e-003 0. 0. 0. 0. 0. 0. 0. 0. 7.81250000e-003 0. 0. 0.
      0. 0. 0. 0. 0. 0. 0. 7.81250000e-003 0. 0. 0. 7.81250000e-003 0.
      0. 7.81250000e-003 0. 0. 0. 7.81250000e-003 0. 0. 7.81250000e-003
      0. 0. 0. 0. 0. 7.81250000e-003 0. 0. 7.81250000e-003 0. 0. 0. 0.
      0. 0. 0. 0. 0. 0. 0. 1.56250000e-002 0. 0. 0. 0. 0. 0. 0. 0. 0. 0.
      0. 0. 0. 0. 0. 0. 0. 0. 0. 0. 0. 0. 0. 7.81250000e-003 0. 0. 0. 0.
      0. 0. 0. 0. 0. 0. 0. 0. 0. 0. 0. 0. 0. 0. 0. 0. 0. 0. 0. 0. 0. 0.
      0. 0. 0. 7.81250000e-003 0. 0. 0. 0. 0. 0. 0. 7.81250000e-003 0.
      7.81250000e-003 0. 0. 0. 0. 7.81250000e-003 7.81250000e-003 0.
      7.81250000e-003 7.81250000e-003 0. 0. 0. 0. 0. 0. 0. 0. 0. 0. 0.
      0. 0. 0. 0. 7.81250000e-003 0. 0. 0. 0. 0. 7.81250000e-003 0. 0.
      0. 0. 0. 0. 0. 0. 0. 0. 0. 0. 0. 0. 0. 0. 0. 0. 0. 0. 0. 0. 0. 0.
      0. 0. 0. 0. 0. 0. 0. 0. 0. 0. 7.81250000e-003 0. 0. 0. 0.
      7.81250000e-003 0. 0. 0. 0. 0. 0. 0. 0. 0. 0. 0. 0. 0. 0. 0. 0. 0.
      0. 0. 0. 0. 0. 0. 7.81250000e-003 0. 0. 0. 0. 0. 0. 0. 0.
      7.81250000e-003 7.81250000e-003 0. 7.81250000e-003 0. 0. 0. 0. 0.
      7.81250000e-003 0. 0. 7.81250000e-003 0. 0. 0. 0. 0. 0. 0. 0. 0.
      0. 0. 0. 7.81250000e-003 0. 0. 0. 0. 0. 0. 0. 7.81250000e-003 0.
      0. 0. 0. 0. 0. 0. 0. 0. 0. 0. 0. 0. 0. 0. 0. 0. 0. 0. 0. 0. 0. 0.
      0. 0. 0. 0. 0. 7.81250000e-003 0. 0. 0. 0. 7.81250000e-003 0. 0.
      0. 0. 0. 0. 0. 0. 0. 0. 0. 0. 0. 0. 0. 0. 0. 0. 0. 0. 0. 0. 0. 0.
      0. 0. 0. 0. 0. 0. 0. 0. 7.81250000e-003 0. 0. 0. 0. 0. 0. 0. 0. 0.
      0. 0. 0. 0. 2.34375000e-002 7.81250000e-003 0. 0. 0. 0. 0. 0. 0.
      7.81250000e-003 0. 7.81250000e-003 0. 0. 0. 0. 0. 0. 0. 0. 0. 0.
      0. 0. 0. 0. 0. 0. 0. 0. 0. 0. 0. 0. 0. 0. 0. 0. 0. 0.
      7.81250000e-003 0. 7.81250000e-003 0. 0. 0. 0. 0. 0. 0. 0. 0. 0.
      0. 0. 0. 0. 0. 0. 0. 1.56250000e-002 0. 0. 0. 0. 0. 0. 0. 0. 0. 0.
      7.81250000e-003 7.81250000e-003 7.81250000e-003 0. 0. 0. 0. 0.
      7.81250000e-003 0. 0. 7.81250000e-003 0. 0. 0. 0. 1.56250000e-002
      0. 0. 0. 0. 7.81250000e-003 0. 0. 0. 0. 0. 0. 7.81250000e-003 0.
      0. 0. 0. 0. 7.81250000e-003 0. 7.81250000e-003 7.81250000e-003 0.
      0. 0. 0. 0. 0. 0. 0. 7.81250000e-003 0. 0. 0. 0. 7.81250000e-003
      0. 7.81250000e-003 0. 0. 7.81250000e-003 0. 0. 0. 0. 0. 0.
      1.56250000e-002 0. 0. 0. 0. 0. 0. 0. 0. 0. 0. 0. 0. 0. 0. 0. 0.
      7.81250000e-003 0. 0. 7.81250000e-003 0. 0. 0. 0. 0. 0. 0. 0. 0.
      0. 0. 7.81250000e-003 0. 0. 0. 0. 0. 0. 0. 0. 0. 7.81250000e-003
      0. 0. 0. 0. 0. 0. 0. 7.81250000e-003 1.56250000e-002 0. 0. 0. 0.
      0. 0. 0. 0. 0. 0. 0. 0. 0. 0. 0. 0. 0. 0. 0. 1.56250000e-002 0. 0.
      7.81250000e-003 0. 0. 0. 7.81250000e-003 0. 0. 0. 0. 0. 0. 0. 0.
      0. 0. 0. 0. 0. 0. 0. 0. 0. 7.81250000e-003 0. 0. 0. 0. 0. 0. 0. 0.
      0. 7.81250000e-003 0. 0. 7.81250000e-003 0. 0. 0. 0. 0. 0. 0. 0.
      0. 0. 0. 0.</_>
    <_>
      0. 0. 2.09205020e-002 0. 0. 0. 0. 0. 0. 4.18410031e-003 0. 0.
      4.18410031e-003 0. 0. 0. 0. 0. 0. 0. 0. 0. 0. 0. 0. 0. 0. 0. 0. 0.
      0. 0. 0. 0. 0. 0. 4.18410031e-003 0. 0. 0. 0. 0. 0. 0. 0. 0. 0. 0.
      0. 8.36820062e-003 0. 0. 0. 0. 0. 0. 0. 0. 0. 0. 0. 0. 0. 0. 0. 0.
      0. 8.36820062e-003 8.36820062e-003 4.18410031e-003 4.18410031e-003
      0. 0. 0. 0. 0. 0. 0. 0. 0. 0. 0. 0. 4.18410031e-003 0. 0. 0. 0. 0.
      0. 0. 0. 0. 0. 0. 0. 0. 0. 0. 0. 0. 0. 4.18410031e-003 0. 0. 0. 0.
      0. 4.18410031e-003 0. 4.18410031e-003 0. 0. 0. 0. 4.18410031e-003
      0. 0. 0. 4.18410031e-003 0. 0. 0. 0. 0. 0. 0. 4.18410031e-003 0.
      0. 4.18410031e-003 0. 0. 8.36820062e-003 0. 0. 0. 0. 0. 0. 0. 0.
      4.18410031e-003 1.25523005e-002 8.36820062e-003 0. 0. 0. 0. 0.
      4.18410031e-003 4.18410031e-003 0. 4.18410031e-003 0.
      4.18410031e-003 0. 0. 0. 4.18410031e-003 0. 8.36820062e-003 0. 0.
      0. 0. 4.18410031e-003 0. 0. 0. 0. 0. 4.18410031e-003
      4.18410031e-003 0. 4.18410031e-003 0. 0. 0. 0. 0. 4.18410031e-003
      0. 0. 0. 0. 0. 0. 0. 0. 0. 4.18410031e-003 0. 0. 0. 0. 0. 0. 0. 0.
      0. 0. 0. 0. 0. 0. 0. 0. 0. 0. 0. 0. 0. 4.18410031e-003
      4.18410031e-003 0. 4.18410031e-003 4.18410031e-003 0. 0. 0.
      4.18410031e-003 0. 0. 4.18410031e-003 0. 0. 0. 4.18410031e-003
      8.36820062e-003 0. 0. 0. 4.18410031e-003 0. 8.36820062e-003
      8.36820062e-003 0. 0. 0. 4.18410031e-003 0. 0. 0. 0. 0. 0. 0. 0.
      0. 0. 0. 0. 0. 4.18410031e-003 0. 0. 0. 0. 0. 0. 0. 0. 0.
      4.18410031e-003 0. 0. 0. 0. 0. 0. 0. 0. 0. 4.18410031e-003 0. 0.
      0. 4.18410031e-003 0. 0. 0. 0. 0. 0. 0. 0. 0. 0. 0. 0. 0. 0.
      4.18410031e-003 0. 4.18410031e-003 0. 0. 0. 0. 0. 0. 0. 0. 0. 0.
      0. 0. 0. 4.18410031e-003 0. 4.18410031e-003 0. 0. 0. 0. 0. 0. 0.
      4.18410031e-003 8.36820062e-003 0. 8.36820062e-003 0. 0. 0. 0.
      4.18410031e-003 0. 0. 0. 0. 0. 0. 4.18410031e-003 4.18410031e-003
      0. 8.36820062e-003 0. 0. 0. 4.18410031e-003 0. 1.25523005e-002 0.
      0. 0. 0. 0. 4.18410031e-003 4.18410031e-003 8.36820062e-003 0. 0.
      0. 0. 0. 0. 0. 8.36820062e-003 0. 0. 0. 4.18410031e-003 0. 0. 0.
      4.18410031e-003 0. 0. 0. 0. 0. 0. 0. 0. 0. 0. 0. 0. 0.
      4.18410031e-003 0. 0. 0. 0. 0. 0. 0. 0. 0. 0. 4.18410031e-003 0.
      0. 0. 0. 0. 0. 0. 0. 0. 0. 0. 0. 0. 0. 0. 0. 4.18410031e-003 0. 0.
      0. 0. 0. 0. 8.36820062e-003 0. 0. 4.18410031e-003 0. 0. 0.
      4.18410031e-003 0. 1.25523005e-002 0. 2.09205020e-002 0.
      4.18410031e-003 0. 0. 0. 0. 0. 0. 0. 0. 0. 4.18410031e-003 0.
      4.18410031e-003 8.36820062e-003 0. 0. 4.18410031e-003
      4.18410031e-003 0. 0. 4.18410031e-003 4.18410031e-003
      4.18410031e-003 0. 0. 0. 0. 0. 0. 0. 0. 0. 0. 0. 0. 0. 0.
      4.18410031e-003 0. 0. 0. 4.18410031e-003 0. 4.18410031e-003 0. 0.
      0. 0. 4.18410031e-003 0. 0. 0. 4.18410031e-003 4.18410031e-003 0.
      0. 0. 0. 0. 0. 0. 0. 0. 0. 0. 0. 0. 0. 0. 0. 0. 4.18410031e-003 0.
      0. 0. 0. 0. 0. 0. 0. 0. 0. 0. 4.18410031e-003 0. 0. 0. 0. 0.
      4.18410031e-003 0. 0. 0. 0. 4.18410031e-003 0. 0. 0. 0. 0. 0.
      4.18410031e-003 0. 0. 0. 0. 4.18410031e-003 0. 0. 0.
      4.18410031e-003 4.18410031e-003 0. 8.36820062e-003 0. 0. 0. 0.
      4.18410031e-003 0. 0. 0. 0. 0. 4.18410031e-003 0. 0.
      2.09205020e-002 0. 0. 0. 0. 4.18410031e-003 0. 0. 0. 0. 0. 0.
      4.18410031e-003 0. 0. 0. 0. 0. 0. 0. 0. 4.18410031e-003 0.
      8.36820062e-003 0. 0. 0. 0. 0. 4.18410031e-003 0. 4.18410031e-003
      0. 4.18410031e-003 4.18410031e-003 0. 0. 0. 0. 0. 4.18410031e-003
      0. 0. 0. 0. 0. 0. 8.36820062e-003 0. 0. 0. 0. 0. 0. 0.
      4.18410031e-003 0. 0. 0. 0. 0. 0. 0. 0. 0. 4.18410031e-003 0. 0.
      4.18410031e-003 0. 0. 4.18410031e-003 0. 0. 0. 4.18410031e-003 0.
      0. 4.18410031e-003 0. 0. 0. 0. 0. 0. 0. 1.25523005e-002 0.
      4.18410031e-003 0. 0. 0. 0. 0. 0. 0. 0. 8.36820062e-003 0. 0. 0.
      0. 0. 0. 0. 0. 0. 0. 0. 0. 4.18410031e-003 0. 0. 0. 0.
      4.18410031e-003 0. 0. 0. 4.18410031e-003 4.18410031e-003 0. 0. 0.
      0. 0. 0. 0. 0. 0. 0. 4.18410031e-003 4.18410031e-003 0. 0. 0. 0.
      0. 0. 0. 0. 0. 0. 0. 0. 0. 0. 0. 0. 0. 4.18410031e-003 0. 0.
      4.18410031e-003 0. 0. 4.18410031e-003 0. 0. 0. 0. 0.
      4.18410031e-003 0. 0. 0. 4.18410031e-003 0. 0. 0. 4.18410031e-003
      0. 0. 1.25523005e-002 8.36820062e-003 4.18410031e-003 0. 0. 0. 0.
      4.18410031e-003 0. 0. 0. 0. 0. 0. 0. 8.36820062e-003
      4.18410031e-003 0. 0. 0. 0. 0. 0. 4.18410031e-003 0. 0. 0. 0. 0.
      0. 0. 0. 0. 1.25523005e-002 0. 4.18410031e-003 0. 0.
      4.18410031e-003 0. 0. 8.36820062e-003 0. 0. 0. 4.18410031e-003
      1.25523005e-002 0. 0. 0. 0. 0. 4.18410031e-003 0. 4.18410031e-003
      0. 0. 0. 0. 4.18410031e-003 0. 0. 0. 0. 0. 0. 0. 0. 0. 0. 0.
      4.18410031e-003 0. 0. 0. 0. 0. 8.36820062e-003 0. 0. 0. 0. 0. 0.
      0. 8.36820062e-003 0. 4.18410031e-003 0. 0. 0. 0. 0. 0. 0. 0. 0.
      0. 0. 0. 0. 0. 0. 0. 0. 0. 4.18410031e-003 0. 0. 0. 0. 0.
      4.18410031e-003 0. 0. 0. 0. 0. 0. 0. 0. 0. 0. 0. 4.18410031e-003
      4.18410031e-003 8.36820062e-003 0. 4.18410031e-003 0. 0. 0.
      4.18410031e-003 0. 0. 0. 0. 0. 0. 4.18410031e-003 0. 0. 0.
      4.18410031e-003 0. 0. 4.18410031e-003 8.36820062e-003 0. 0.
      4.18410031e-003 0. 0. 0. 8.36820062e-003 0. 0. 0. 0. 0. 0.
      4.18410031e-003 0. 0. 4.18410031e-003 0. 0. 0. 0. 4.18410031e-003
      0. 4.18410031e-003 4.18410031e-003 0. 0. 0. 0. 0. 0. 0.
      4.18410031e-003 4.18410031e-003 0. 0. 0. 0. 0. 0. 0. 0. 0. 0.
      4.18410031e-003 0. 0. 4.18410031e-003 0. 4.18410031e-003 0. 0. 0.
      0. 0. 0. 0. 0. 0. 0. 0. 0. 0. 0. 0. 0. 4.18410031e-003 0. 0. 0. 0.
      0. 4.18410031e-003 0. 0. 0. 0. 0. 0. 4.18410031e-003 0. 0. 0. 0.
      0. 0. 4.18410031e-003 0. 0. 0. 0. 0. 0. 0. 0. 4.18410031e-003 0.
      4.18410031e-003 0. 0. 0. 0. 0. 0. 0. 0. 0. 0. 0. 0.
      4.18410031e-003 0. 0. 0. 0. 0. 0. 0. 4.18410031e-003 0. 0. 0. 0.</_>
    <_>
      0. 0. 1.04712043e-002 0. 0. 0. 0. 0. 0. 0. 0. 0. 5.23560215e-003
      0. 0. 0. 0. 0. 0. 0. 0. 0. 5.23560215e-003 0. 0. 0. 0. 0. 0.
      5.23560215e-003 5.23560215e-003 0. 0. 0. 0. 0. 5.23560215e-003
      5.23560215e-003 0. 0. 0. 0. 0. 0. 0. 5.23560215e-003 0. 0. 0. 0.
      0. 0. 0. 5.23560215e-003 0. 0. 5.23560215e-003 0. 0. 0. 0. 0.
      1.04712043e-002 0. 0. 0. 0. 0. 5.23560215e-003 1.04712043e-002 0.
      5.23560215e-003 0. 0. 0. 0. 0. 0. 0. 0. 0. 0. 0. 1.04712043e-002
      0. 0. 0. 0. 0. 0. 0. 0. 0. 0. 0. 0. 0. 1.04712043e-002
      5.23560215e-003 0. 0. 0. 0. 0. 0. 0. 0. 0. 0. 0. 0. 0. 0. 0. 0.
      5.23560215e-003 5.23560215e-003 0. 0. 0. 0. 0. 0. 0. 0. 0. 0.
      5.23560215e-003 5.23560215e-003 0. 0. 0. 0. 0. 0. 0. 0. 0. 0. 0.
      0. 0. 0. 0. 0. 0. 0. 0. 0. 0. 0. 0. 0. 0. 5.23560215e-003
      5.23560215e-003 0. 0. 0. 0. 0. 0. 0. 0. 0. 0. 5.23560215e-003 0.
      5.23560215e-003 0. 0. 0. 0. 0. 0. 5.23560215e-003 0. 0. 0. 0. 0.
      0. 0. 0. 0. 0. 0. 5.23560215e-003 0. 0. 0. 0. 0. 0. 0. 0. 0. 0. 0.
      0. 5.23560215e-003 1.04712043e-002 0. 0. 0. 0. 0. 0.
      5.23560215e-003 0. 0. 5.23560215e-003 0. 0. 0. 0. 5.23560215e-003
      1.57068074e-002 0. 5.23560215e-003 0. 0. 5.23560215e-003 0. 0.
      5.23560215e-003 5.23560215e-003 5.23560215e-003 1.04712043e-002 0.
      0. 0. 0. 0. 0. 0. 0. 5.23560215e-003 0. 0. 0. 5.23560215e-003 0.
      0. 0. 0. 0. 0. 0. 0. 0. 0. 0. 0. 0. 0. 0. 0. 0. 0. 0. 0. 0. 0. 0.
      0. 0. 0. 0. 0. 0. 0. 0. 0. 0. 0. 1.04712043e-002 0.
      5.23560215e-003 5.23560215e-003 0. 0. 0. 0. 0. 0. 0. 0.
      5.23560215e-003 0. 5.23560215e-003 0. 0. 0. 0. 2.09424086e-002 0.
      0. 0. 0. 0. 0. 0. 5.23560215e-003 5.23560215e-003 0. 0. 0. 0. 0.
      0. 0. 0. 0. 0. 0. 0. 0. 0. 0. 0. 0. 0. 0. 0. 0. 0. 5.23560215e-003
      0. 1.04712043e-002 0. 0. 0. 0. 5.23560215e-003 5.23560215e-003 0.
      0. 0. 5.23560215e-003 0. 0. 0. 0. 0. 0. 0. 0. 0. 0. 0. 0. 0. 0. 0.
      0. 0. 0. 0. 0. 0. 0. 0. 0. 0. 0. 0. 0. 0. 0. 0. 1.04712043e-002 0.
      0. 0. 0. 0. 0. 0. 0. 0. 0. 0. 0. 0. 0. 5.23560215e-003 0. 0. 0. 0.
      0. 0. 0. 0. 0. 5.23560215e-003 0. 0. 0. 0. 0. 0. 0. 0. 0. 0. 0.
      5.23560215e-003 0. 0. 0. 0. 0. 5.23560215e-003 0. 0. 0.
      5.23560215e-003 1.04712043e-002 0. 0. 0. 0. 0. 0. 0. 0.
      5.23560215e-003 0. 0. 0. 5.23560215e-003 0. 0. 0. 0. 0.
      5.23560215e-003 0. 5.23560215e-003 0. 0. 0. 0. 0. 0. 0. 0.
      5.23560215e-003 0. 0. 0. 0. 0. 0. 5.23560215e-003 0. 0. 0.
      1.04712043e-002 0. 5.23560215e-003 0. 1.04712043e-002 0. 0. 0. 0.
      0. 0. 0. 5.23560215e-003 0. 0. 0. 0. 0. 0. 5.23560215e-003 0.
      5.23560215e-003 0. 5.23560215e-003 0. 0. 0. 5.23560215e-003 0. 0.
      0. 0. 0. 1.04712043e-002 0. 5.23560215e-003 0. 0. 0.
      5.23560215e-003 0. 0. 0. 5.23560215e-003 0. 0. 1.04712043e-002 0.
      0. 0. 0. 0. 0. 0. 0. 0. 0. 0. 0. 0. 1.04712043e-002 0. 0. 0. 0. 0.
      0. 0. 0. 0. 0. 0. 0. 0. 5.23560215e-003 0. 0. 0. 0. 0.
      5.23560215e-003 0. 1.04712043e-002 0. 0. 0. 0. 0. 5.23560215e-003
      0. 0. 0. 0. 5.23560215e-003 0. 0. 0. 0. 0. 1.04712043e-002 0. 0.
      0. 0. 0. 0. 0. 5.23560215e-003 0. 0. 0. 0. 0. 0. 0. 0. 0. 0. 0.
      5.23560215e-003 5.23560215e-003 0. 0. 0. 0. 0. 0. 0.
      5.23560215e-003 0. 0. 0. 0. 0. 0. 0. 0. 5.23560215e-003 0. 0. 0.
      0. 0. 0. 0. 0. 0. 0. 0. 0. 0. 0. 0. 5.23560215e-003 0. 0.
      5.23560215e-003 0. 0. 5.23560215e-003 0. 0. 0. 0. 1.57068074e-002
      0. 0. 0. 0. 0. 0. 5.23560215e-003 0. 5.23560215e-003 0.
      5.23560215e-003 0. 0. 5.23560215e-003 0. 0. 0. 0. 0. 0.
      5.23560215e-003 0. 5.23560215e-003 0. 0. 0. 0. 0. 0.
      5.23560215e-003 0. 0. 5.23560215e-003 0. 5.23560215e-003 0. 0. 0.
      0. 0. 0. 0. 0. 0. 0. 0. 0. 0. 5.23560215e-003 0. 0. 0. 0. 0. 0. 0.
      0. 5.23560215e-003 0. 0. 0. 0. 0. 0. 0. 0. 0. 0. 0. 0.
      5.23560215e-003 1.04712043e-002 1.04712043e-002 0. 0. 0. 0. 0.
      5.23560215e-003 0. 0. 5.23560215e-003 0. 0. 0. 0. 0. 0. 0. 0. 0.
      0. 0. 0. 0. 0. 0. 0. 0. 0. 0. 0. 0. 5.23560215e-003 0. 0. 0. 0. 0.
      0. 0. 5.23560215e-003 5.23560215e-003 0. 1.04712043e-002 0. 0. 0.
      0. 2.09424086e-002 5.23560215e-003 0. 0. 0. 0. 0. 0. 0. 0. 0. 0.
      0. 0. 5.23560215e-003 5.23560215e-003 5.23560215e-003 0.
      1.04712043e-002 0. 0. 0. 0. 0. 0. 0. 0. 0. 0. 0. 5.23560215e-003
      0. 0. 0. 0. 0. 0. 0. 0. 0. 0. 0. 1.57068074e-002 0. 0. 0.
      5.23560215e-003 0. 0. 0. 0. 0. 5.23560215e-003 0. 0. 0. 0. 0. 0.
      0. 0. 0. 0. 0. 0. 0. 0. 0. 0. 5.23560215e-003 5.23560215e-003 0.
      0. 5.23560215e-003 0. 0. 0. 0. 5.23560215e-003 0. 0. 0.
      5.23560215e-003 0. 0. 0. 0. 0. 5.23560215e-003 0. 0. 0. 0. 0. 0.
      0. 0. 0. 5.23560215e-003 5.23560215e-003 0. 0. 0. 0. 0. 0. 0.
      5.23560215e-003 0. 0. 0. 5.23560215e-003 0. 5.23560215e-003 0. 0.
      0. 0. 0. 0. 0. 0. 0. 5.23560215e-003 0. 0. 0. 0. 0. 0.
      5.23560215e-003 0. 5.23560215e-003 0. 0. 0. 0. 0. 0. 0. 0.
      5.23560215e-003 0. 0. 0. 0. 0. 0. 0. 5.23560215e-003
      5.23560215e-003 0. 0. 0. 0. 0. 0. 0. 5.23560215e-003 0.
      5.23560215e-003 0. 0. 0. 0. 0. 0. 0. 0. 0. 0. 0. 0.
      5.23560215e-003 0. 0. 0. 0. 0. 0. 0. 0. 0. 0. 0. 0. 0. 0. 0. 0. 0.
      0. 0. 0. 1.04712043e-002 0. 0. 0. 0. 0. 5.23560215e-003 0. 0. 0.
      0. 0. 0. 0. 0. 0. 5.23560215e-003 0. 0. 0. 0. 5.23560215e-003 0.
      0. 0. 0. 0. 0. 0. 0. 0. 0. 0. 0. 0. 0. 0. 0. 0. 0. 0. 0. 0.
      5.23560215e-003 0. 0. 5.23560215e-003 0. 5.23560215e-003 0. 0. 0.
      0. 0. 0. 0. 0. 1.04712043e-002 0. 0. 5.23560215e-003 0.</_>
    <_>
      0. 0. 0. 0. 0. 8.77192989e-003 8.77192989e-003 0. 0. 0.
      8.77192989e-003 0. 0. 0. 0. 0. 0. 0. 0. 0. 8.77192989e-003 0. 0.
      0. 8.77192989e-003 0. 0. 0. 8.77192989e-003 0. 0. 0. 0. 0. 0. 0.
      0. 0. 0. 0. 0. 0. 0. 0. 0. 0. 8.77192989e-003 0. 0. 0. 0. 0. 0. 0.
      0. 0. 8.77192989e-003 0. 0. 0. 0. 0. 0. 0. 0. 0. 0. 0.
      8.77192989e-003 0. 0. 0. 0. 8.77192989e-003 0. 0. 0. 0. 0. 0. 0.
      0. 0. 0. 0. 0. 0. 0. 0. 0. 0. 0. 0. 0. 0. 0. 0. 0. 0.
      8.77192989e-003 0. 0. 0. 0. 0. 0. 0. 0. 8.77192989e-003 0. 0. 0.
      0. 0. 0. 0. 1.75438598e-002 0. 0. 0. 0. 0. 0. 0. 8.77192989e-003
      0. 0. 0. 1.75438598e-002 8.77192989e-003 0. 0. 0. 0. 0. 0. 0. 0.
      0. 0. 0. 0. 0. 0. 0. 0. 0. 0. 0. 0. 0. 0. 0. 0. 0. 2.63157897e-002
      0. 0. 0. 8.77192989e-003 0. 0. 8.77192989e-003 0. 0. 0. 0. 0. 0.
      8.77192989e-003 0. 0. 3.50877196e-002 0. 0. 0. 0. 0. 0. 0. 0. 0.
      0. 0. 0. 0. 0. 0. 0. 0. 0. 0. 0. 0. 0. 0. 8.77192989e-003 0. 0. 0.
      0. 0. 8.77192989e-003 0. 0. 0. 0. 8.77192989e-003 0.
      8.77192989e-003 0. 0. 0. 0. 8.77192989e-003 0. 0. 0. 0. 0. 0. 0.
      0. 0. 0. 0. 8.77192989e-003 0. 0. 0. 0. 0. 0. 0. 0. 0. 0. 0. 0. 0.
      0. 8.77192989e-003 1.75438598e-002 0. 0. 0. 0. 0. 0. 0. 0. 0. 0.
      0. 0. 0. 0. 8.77192989e-003 0. 0. 0. 0. 8.77192989e-003 0. 0. 0.
      0. 0. 0. 0. 0. 0. 0. 0. 0. 0. 0. 0. 0. 0. 0. 0. 0. 0. 0. 0. 0. 0.
      8.77192989e-003 0. 0. 0. 0. 8.77192989e-003 0. 0. 0. 0. 0.
      8.77192989e-003 0. 0. 0. 0. 0. 0. 0. 0. 1.75438598e-002 0. 0. 0.
      0. 0. 0. 0. 0. 0. 0. 0. 8.77192989e-003 0. 0. 0. 0. 0. 0. 0. 0. 0.
      0. 0. 0. 0. 0. 0. 8.77192989e-003 0. 0. 0. 0. 0. 0. 0. 0. 0. 0. 0.
      0. 0. 8.77192989e-003 0. 0. 0. 8.77192989e-003 0. 0. 0. 0. 0. 0.
      0. 0. 0. 0. 0. 0. 0. 0. 0. 0. 0. 0. 0. 0. 0. 8.77192989e-003
      8.77192989e-003 0. 0. 0. 0. 0. 0. 0. 1.75438598e-002 0. 0. 0.
