<?xml version="1.0"?>
<opencv_storage>
<Classifier type_id="opencv-ml-svm">
  <svm_type>C_SVC</svm_type>
  <kernel><type>RBF</type>
    <gamma>5.0625000000000009e-001</gamma></kernel>
  <C>3.1250000000000000e+002</C>
  <term_criteria><epsilon>1.1920928955078125e-007</epsilon>
    <iterations>100000</iterations></term_criteria>
  <var_all>1000</var_all>
  <var_count>1000</var_count>
  <class_count>3</class_count>
  <class_labels type_id="opencv-matrix">
    <rows>1</rows>
    <cols>3</cols>
    <dt>i</dt>
    <data>
      1 2 3</data></class_labels>
  <sv_total>111</sv_total>
  <support_vectors>
    <_>
      0. 0. 0. 0. 0. 4.71698120e-003 0. 0. 0. 4.71698120e-003 0. 0. 0.
      0. 0. 0. 1.41509436e-002 0. 0. 0. 0. 0. 1.88679248e-002 0. 0. 0.
      0. 0. 0. 0. 0. 0. 0. 0. 0. 0. 0. 0. 0. 0. 0. 4.71698120e-003 0. 0.
      0. 0. 0. 9.43396240e-003 0. 0. 0. 0. 0. 0. 0. 0. 0.
      1.41509436e-002 0. 0. 4.71698120e-003 0. 0. 0. 0. 0. 0. 0. 0. 0.
      0. 4.71698120e-003 0. 0. 0. 0. 0. 0. 2.83018872e-002
      9.43396240e-003 0. 0. 0. 4.71698120e-003 0. 0. 0. 0. 0. 0. 0. 0.
      0. 0. 0. 4.71698120e-003 0. 0. 0. 0. 1.41509436e-002 0. 0.
      4.71698120e-003 4.71698120e-003 0. 4.71698120e-003 0. 0. 0. 0. 0.
      0. 0. 0. 0. 0. 0. 0. 0. 0. 0. 0. 0. 0. 0. 0. 0. 9.43396240e-003 0.
      0. 0. 0. 0. 0. 0. 4.71698120e-003 0. 0. 4.71698120e-003 0. 0. 0.
      0. 4.71698120e-003 0. 0. 0. 0. 0. 0. 0. 0. 0. 4.71698120e-003 0.
      0. 0. 1.88679248e-002 0. 0. 0. 0. 0. 0. 0. 4.71698120e-003 0. 0.
      0. 0. 0. 0. 4.71698120e-003 0. 0. 0. 0. 4.71698120e-003 0. 0. 0.
      4.71698120e-003 0. 0. 0. 0. 9.43396240e-003 0. 0. 4.71698120e-003
      4.71698120e-003 0. 4.71698120e-003 0. 0. 4.71698120e-003 0. 0. 0.
      0. 0. 0. 0. 0. 0. 0. 0. 0. 0. 0. 0. 4.71698120e-003 0. 0. 0. 0. 0.
      0. 0. 0. 0. 0. 0. 0. 0. 0. 0. 0. 0. 0. 0. 0. 4.71698120e-003 0. 0.
      4.71698120e-003 0. 0. 0. 0. 0. 0. 0. 0. 0. 0. 0. 0.
      4.71698120e-003 0. 0. 0. 0. 0. 0. 0. 0. 0. 0. 0. 0. 0. 0. 0. 0.
      4.71698120e-003 4.71698120e-003 0. 0. 0. 0. 0. 0. 0. 0. 0. 0. 0.
      0. 0. 0. 0. 0. 0. 0. 0. 0. 0. 0. 0. 0. 0. 0. 0. 0. 0. 0. 0.
      9.43396240e-003 0. 4.71698120e-003 0. 0. 0. 0. 4.71698120e-003
      4.71698120e-003 4.71698120e-003 4.71698120e-003 0. 0. 0. 0.
      4.71698120e-003 0. 0. 0. 0. 0. 0. 4.71698120e-003 0. 0. 0. 0. 0.
      0. 0. 0. 9.43396240e-003 0. 0. 0. 0. 0. 0. 0. 0. 0. 0. 0. 0. 0. 0.
      0. 0. 0. 0. 0. 0. 0. 0. 0. 0. 4.71698120e-003 4.71698120e-003 0.
      0. 4.71698120e-003 0. 0. 0. 4.71698120e-003 0. 0. 0. 0. 0. 0. 0.
      0. 0. 0. 0. 0. 0. 0. 4.71698120e-003 1.88679248e-002 0. 0.
      4.71698120e-003 0. 4.71698120e-003 0. 0. 4.71698120e-003 0. 0. 0.
      0. 0. 0. 0. 4.71698120e-003 4.71698120e-003 0. 0. 0.
      4.71698120e-003 0. 4.71698120e-003 0. 0. 0. 0. 0. 0. 0. 0. 0. 0.
      0. 4.71698120e-003 0. 0. 9.43396240e-003 0. 0. 0. 0. 0. 0. 0. 0.
      0. 0. 0. 0. 0. 0. 0. 0. 0. 0. 1.41509436e-002 0. 0. 0. 0.
      4.71698120e-003 0. 1.41509436e-002 0. 0. 4.71698120e-003 0.
      4.71698120e-003 0. 9.43396240e-003 0. 0. 0. 0. 0. 0. 0. 0. 0. 0.
      0. 9.43396240e-003 0. 0. 0. 0. 0. 9.43396240e-003 0. 0. 0. 0. 0.
      4.71698120e-003 0. 0. 0. 0. 0. 4.71698120e-003 0. 0. 0. 0. 0. 0.
      4.71698120e-003 4.71698120e-003 0. 0. 0. 0. 0. 0. 0. 0. 0. 0. 0.
      0. 0. 0. 0. 0. 0. 0. 0. 0. 4.71698120e-003 0. 0. 0. 0. 0. 0. 0. 0.
      0. 0. 4.71698120e-003 0. 0. 0. 0. 0. 0. 0. 4.71698120e-003 0. 0.
      0. 0. 0. 0. 0. 0. 0. 0. 0. 0. 0. 0. 0. 0. 4.71698120e-003 0.
      4.71698120e-003 0. 0. 9.43396240e-003 0. 0. 0. 4.71698120e-003 0.
      0. 0. 0. 0. 4.71698120e-003 4.71698120e-003 0. 0. 0. 0. 0. 0.
      4.71698120e-003 0. 4.71698120e-003 0. 0. 9.43396240e-003 0. 0. 0.
      0. 0. 0. 0. 4.71698120e-003 0. 0. 0. 0. 0. 4.71698120e-003 0. 0.
      0. 0. 4.71698120e-003 0. 0. 0. 0. 0. 0. 4.71698120e-003 0. 0. 0.
      0. 0. 0. 0. 0. 0. 0. 0. 0. 0. 0. 0. 0. 0. 0. 0. 0. 0. 0. 0. 0. 0.
      0. 0. 0. 0. 9.43396240e-003 1.41509436e-002 0. 0. 0. 0. 0. 0. 0.
      4.71698120e-003 0. 0. 0. 4.24528308e-002 0. 0. 0. 9.43396240e-003
      0. 0. 4.71698120e-003 0. 0. 0. 4.71698120e-003 0. 0. 0. 0. 0. 0.
      0. 4.71698120e-003 0. 0. 0. 0. 0. 4.71698120e-003 0.
      1.41509436e-002 0. 0. 0. 0. 0. 0. 0. 4.71698120e-003 0.
      4.71698120e-003 4.71698120e-003 0. 0. 4.71698120e-003
      4.71698120e-003 0. 0. 0. 0. 0. 0. 0. 0. 0. 0. 0. 1.41509436e-002
      0. 0. 9.43396240e-003 0. 4.71698120e-003 0. 0. 0. 0. 0. 0. 0. 0.
      0. 0. 0. 0. 0. 0. 0. 4.71698120e-003 0. 0. 0. 4.71698120e-003 0.
      0. 0. 0. 0. 0. 0. 0. 0. 0. 0. 0. 0. 0. 0. 0. 0. 4.71698120e-003
      4.71698120e-003 0. 0. 0. 0. 0. 0. 0. 0. 0. 0. 0. 0. 0.
      9.43396240e-003 0. 0. 0. 0. 0. 4.71698120e-003 0. 0. 0. 0.
      4.71698120e-003 0. 0. 0. 0. 0. 0. 0. 0. 0. 0. 4.71698120e-003 0.
      0. 0. 0. 0. 0. 0. 0. 4.71698120e-003 0. 0. 0. 0. 0. 0. 0. 0. 0.
      9.43396240e-003 0. 0. 0. 0. 0. 0. 0. 0. 4.71698120e-003 0. 0.
      4.71698120e-003 4.71698120e-003 4.71698120e-003 0. 4.71698120e-003
      0. 0. 0. 0. 0. 0. 0. 0. 0. 0. 4.71698120e-003 0. 0. 0. 0. 0. 0. 0.
      0. 0. 0. 0. 0. 0. 0. 0. 4.71698120e-003 0. 0. 0. 0. 0. 0. 0. 0. 0.
      4.71698120e-003 0. 0. 0. 0. 0. 0. 0. 0. 4.71698120e-003 0. 0. 0.
      0. 0. 0. 0. 0. 0. 0. 0. 0. 0. 0. 0. 4.71698120e-002 0. 0.
      4.71698120e-003 0. 0. 0. 4.71698120e-003 0. 0. 0. 0. 0. 0. 0.
      4.71698120e-003 0. 0. 0. 0. 0. 0. 0. 4.71698120e-003 0. 0. 0.
      4.71698120e-003 0. 4.71698120e-003 0. 0. 0. 0. 0. 0. 0. 0. 0. 0.
      0. 0. 0. 0. 0. 0. 0. 4.71698120e-003 0. 0. 0. 0. 0. 0. 0. 0. 0. 0.
      4.71698120e-003 0. 0. 0. 0. 0. 0. 0. 0. 2.83018872e-002
      4.71698120e-003 0. 0. 0. 0. 0. 0. 0. 0. 0. 0. 4.71698120e-003 0.
      0. 0. 4.71698120e-003 0. 0. 0. 0. 0. 0. 0. 0. 0. 0. 0. 0. 0. 0. 0.
      0. 0. 0. 0. 0. 0. 4.71698120e-003 0. 0. 0. 0. 0. 0. 0.
      4.71698120e-003 0. 0. 0. 0. 0. 0. 0. 0. 0. 0. 0. 4.71698120e-003
      0.</_>
    <_>
      0. 0. 0. 0. 0. 0. 0. 0. 0. 8.73362459e-003 0. 0. 0. 0. 0. 0. 0.
      4.36681230e-003 4.36681230e-003 0. 0. 0. 4.36681230e-003 0. 0. 0.
      0. 0. 0. 0. 0. 4.36681230e-003 0. 0. 4.36681230e-003 0. 0.
      4.36681230e-003 0. 0. 0. 0. 0. 0. 0. 4.36681230e-003
      4.36681230e-003 0. 0. 4.36681230e-003 0. 0. 0. 4.36681230e-003 0.
      0. 0. 4.36681230e-003 0. 0. 0. 0. 0. 0. 4.36681230e-003 0. 0.
      8.73362459e-003 0. 0. 0. 4.36681230e-003 0. 0. 0. 0. 0. 0. 0.
      1.31004369e-002 4.36681230e-003 0. 0. 0. 0. 0. 0. 0. 0. 0. 0.
      4.36681230e-003 0. 0. 8.73362459e-003 4.36681230e-003
      3.05676870e-002 0. 0. 0. 0. 4.36681230e-003 0. 0. 0. 0. 0. 0. 0.
      0. 0. 0. 0. 0. 0. 0. 0. 0. 0. 4.36681230e-003 0. 0. 0. 0. 0. 0. 0.
      0. 0. 0. 4.36681230e-003 0. 0. 0. 4.36681230e-003 0. 0. 0. 0. 0.
      0. 0. 0. 0. 0. 0. 0. 0. 4.36681230e-003 0. 0. 0. 0. 0.
      4.36681230e-003 4.36681230e-003 4.36681230e-003 0. 0.
      4.36681230e-003 0. 0. 0. 0. 0. 0. 0. 0. 0. 0. 0. 0. 0. 0. 0.
      4.36681230e-003 0. 4.36681230e-003 0. 0. 4.36681230e-003 0. 0. 0.
      0. 0. 0. 0. 0. 0. 0. 0. 0. 0. 0. 0. 0. 8.73362459e-003
      4.36681230e-003 0. 4.36681230e-003 0. 0. 0. 0. 0. 0. 0. 0. 0. 0.
      0. 0. 0. 0. 0. 0. 0. 0. 0. 0. 0. 0. 0. 4.36681230e-003 0. 0. 0. 0.
      0. 0. 0. 0. 4.36681230e-003 0. 0. 0. 0. 0. 0. 0. 0. 0.
      4.36681230e-003 0. 0. 0. 0. 0. 0. 0. 0. 0. 0. 0. 0. 0.
      4.36681230e-003 4.36681230e-003 0. 0. 0. 0. 0. 0. 0.
      4.36681230e-003 0. 0. 0. 0. 0. 0. 0. 0. 0. 0. 0. 0. 0. 0. 0. 0. 0.
      0. 0. 0. 0. 0. 0. 4.36681230e-003 4.36681230e-003 0. 0. 0. 0.
      4.36681230e-003 0. 0. 0. 0. 0. 0. 0. 4.36681230e-003
      4.36681230e-003 4.36681230e-003 4.36681230e-003 0. 0. 0. 0.
      4.36681230e-003 0. 8.73362459e-003 0. 0. 0. 4.36681230e-003 0. 0.
      0. 0. 0. 0. 0. 0. 0. 0. 0. 8.73362459e-003 0. 0. 0. 0.
      4.36681230e-003 0. 0. 4.36681230e-003 0. 0. 0. 0. 0. 0. 0. 0. 0.
      0. 0. 0. 0. 0. 0. 0. 0. 0. 4.36681230e-003 0. 4.36681230e-003 0.
      0. 0. 0. 0. 0. 4.36681230e-003 4.36681230e-003 0. 4.36681230e-003
      0. 0. 4.36681230e-003 0. 0. 4.36681230e-003 0. 0. 0.
      4.36681230e-003 4.36681230e-003 0. 0. 0. 0. 0. 4.36681230e-003
      8.73362459e-003 0. 0. 0. 4.36681230e-003 0. 0. 8.73362459e-003
      4.36681230e-003 0. 0. 0. 0. 0. 0. 0. 0. 0. 0. 0. 0. 0. 0. 0. 0. 0.
      0. 0. 0. 4.36681230e-003 0. 0. 0. 8.73362459e-003 8.73362459e-003
      0. 0. 0. 4.36681230e-003 0. 0. 0. 0. 4.36681230e-003 0. 0. 0. 0.
      8.73362459e-003 0. 0. 0. 0. 0. 4.36681230e-003 0. 0. 0. 0. 0. 0.
      0. 0. 1.31004369e-002 0. 0. 0. 0. 0. 4.36681230e-003 0. 0.
      4.36681230e-003 0. 0. 0. 0. 0. 0. 0. 0. 8.73362459e-003 0. 0. 0.
      0. 0. 0. 0. 0. 0. 0. 0. 1.31004369e-002 0. 4.36681230e-003 0. 0.
      0. 0. 0. 0. 0. 4.36681230e-003 0. 4.36681230e-003 0. 0. 0.
      8.73362459e-003 0. 0. 0. 0. 4.36681230e-003 0. 0. 0. 0. 0. 0. 0.
      4.36681230e-003 0. 0. 4.36681230e-003 0. 0. 4.36681230e-003 0. 0.
      0. 0. 0. 0. 4.36681230e-003 8.73362459e-003 8.73362459e-003 0. 0.
      0. 8.73362459e-003 0. 0. 0. 0. 0. 0. 0. 0. 0. 0. 0. 0.
      4.36681230e-003 0. 0. 0. 0. 4.36681230e-003 0. 4.36681230e-003 0.
      4.36681230e-003 4.36681230e-003 0. 0. 0. 0. 0. 0. 0. 0. 0. 0.
      4.36681230e-003 0. 0. 4.36681230e-003 4.36681230e-003
      4.36681230e-003 4.36681230e-003 0. 4.36681230e-003 0.
      4.36681230e-003 4.36681230e-003 4.36681230e-003 0. 0. 0. 0. 0. 0.
      0. 0. 0. 0. 0. 0. 0. 0. 0. 4.36681230e-003 0. 0. 0. 0. 0. 0. 0. 0.
      0. 0. 4.36681230e-003 0. 4.36681230e-003 1.31004369e-002
      4.36681230e-003 4.36681230e-003 0. 0. 0. 8.73362459e-003
      4.36681230e-003 0. 0. 0. 4.36681230e-003 0. 4.36681230e-003 0. 0.
      0. 0. 0. 0. 4.36681230e-003 0. 0. 4.36681230e-003 4.36681230e-003
      0. 0. 1.74672492e-002 0. 4.36681230e-003 0. 0. 0. 0.
      8.73362459e-003 4.36681230e-003 0. 0. 0. 0. 0. 0. 1.31004369e-002
      0. 4.36681230e-003 0. 0. 0. 0. 0. 4.36681230e-003 0. 0. 0. 0. 0.
      0. 0. 0. 4.36681230e-003 0. 0. 8.73362459e-003 0. 0. 0. 0. 0. 0.
      4.36681230e-003 0. 0. 0. 0. 4.36681230e-003 0. 0. 0. 0. 0. 0. 0.
      0. 0. 0. 0. 0. 0. 4.36681230e-003 0. 0. 0. 0. 4.36681230e-003 0.
      0. 0. 0. 0. 0. 0. 0. 0. 0. 4.36681230e-003 4.36681230e-003 0. 0.
      0. 0. 0. 1.31004369e-002 4.36681230e-003 0. 0. 0. 4.36681230e-003
      0. 0. 0. 0. 0. 0. 0. 0. 0. 4.36681230e-003 0. 0. 4.36681230e-003
      4.36681230e-003 0. 0. 0. 0. 0. 0. 0. 0. 0. 0. 0. 0. 0. 0. 0. 0. 0.
      0. 0. 0. 0. 0. 0. 0. 0. 0. 0. 0. 0. 0. 0. 0. 0. 4.36681230e-003
      4.36681230e-003 0. 0. 0. 0. 0. 0. 4.36681230e-003 0. 0. 0. 0. 0.
      0. 0. 0. 0. 0. 0. 0. 0. 0. 0. 0. 0. 0. 0. 4.36681230e-003 0. 0. 0.
      0. 4.36681230e-003 0. 0. 0. 0. 0. 0. 0. 0. 4.36681230e-003 0. 0.
      0. 0. 0. 0. 0. 4.36681230e-003 0. 0. 0. 0. 0. 0. 0.
      4.36681230e-003 0. 0. 0. 0. 8.73362459e-003 4.36681230e-003 0. 0.
      0. 4.36681230e-003 0. 0. 0. 0. 0. 4.36681230e-003 0. 0. 0. 0. 0.
      0. 0. 0. 4.36681230e-003 0. 0. 0. 0. 0. 0. 0. 8.73362459e-003 0.
      0. 0. 0. 0. 0. 0. 0. 4.36681230e-003 0. 0. 0. 0. 0. 0. 0. 0. 0.
      4.36681230e-003 0. 0. 0. 0. 0. 0. 4.36681230e-003 0. 0. 0. 0. 0.
      0. 0. 0. 0. 0. 8.73362459e-003 0. 0. 0. 0. 0. 0. 0. 0. 0. 0. 0.
      4.36681230e-003 0. 4.36681230e-003 0. 0. 0. 0. 0. 4.36681230e-003
      1.31004369e-002 0. 0. 0. 0. 4.36681230e-003 4.36681230e-003 0. 0.
      0. 0. 0. 4.36681230e-003 0. 0. 0. 0. 0. 0. 0. 4.36681230e-003 0.
      0. 0. 4.36681230e-003 0. 0. 0. 0. 0. 0. 0. 0. 0. 0. 0. 0. 0.
      4.36681230e-003 0. 0. 0. 4.36681230e-003 0. 0. 0. 0. 0. 0. 0. 0.
      0. 0. 4.36681230e-003 4.36681230e-003 0. 0. 0. 4.36681230e-003 0.
      0. 4.36681230e-003 8.73362459e-003 0. 0. 0. 4.36681230e-003 0.
      1.74672492e-002 0. 0. 0. 0. 4.36681230e-003 4.36681230e-003 0.
      4.36681230e-003 0. 0. 0. 0. 0. 0.</_>
    <_>
      0. 0. 6.71140943e-003 0. 0. 0. 0. 0. 0. 0. 0. 0. 0. 0. 0. 0. 0. 0.
      6.71140943e-003 0. 0. 0. 0. 6.71140943e-003 0. 6.71140943e-003 0.
      0. 0. 0. 0. 0. 0. 0. 0. 0. 0. 0. 0. 0. 0. 0. 0. 0. 0. 0.
      6.71140943e-003 0. 0. 0. 0. 0. 0. 0. 0. 0. 0. 6.71140943e-003
      6.71140943e-003 0. 0. 0. 0. 6.71140943e-003 0. 0. 0.
      1.34228189e-002 0. 0. 0. 0. 0. 0. 0. 0. 6.71140943e-003 0. 0. 0.
      0. 0. 0. 0. 0. 0. 0. 0. 0. 0. 0. 0. 0. 0. 0. 0. 0. 0. 0. 0. 0. 0.
      0. 0. 6.71140943e-003 6.71140943e-003 0. 0. 0. 0. 0. 0.
      1.34228189e-002 0. 6.71140943e-003 0. 0. 0. 0. 6.71140943e-003 0.
      0. 6.71140943e-003 0. 0. 0. 0. 0. 0. 0. 0. 0. 0. 0. 0.
      6.71140943e-003 0. 6.71140943e-003 0. 6.71140943e-003 0. 0. 0. 0.
      0. 0. 0. 0. 0. 0. 0. 6.71140943e-003 0. 0. 0. 0. 0. 0. 0. 0. 0. 0.
      0. 0. 0. 0. 0. 0. 0. 0. 6.71140943e-003 0. 0. 0. 0. 0. 0. 0. 0. 0.
      0. 0. 0. 0. 0. 0. 0. 0. 0. 0. 0. 0. 0. 0. 6.71140943e-003 0. 0. 0.
      0. 0. 0. 0. 0. 0. 0. 0. 1.34228189e-002 0. 0. 0. 0. 0.
      6.71140943e-003 6.71140943e-003 0. 0. 0. 0. 0. 0. 0. 0. 0. 0. 0.
      0. 6.71140943e-003 0. 0. 0. 0. 0. 0. 0. 0. 0. 0. 0. 0. 0. 0. 0. 0.
      0. 0. 6.71140943e-003 0. 0. 0. 6.71140943e-003 0. 0. 0. 0. 0. 0.
      0. 0. 0. 0. 0. 6.71140943e-003 0. 0. 0. 0. 0. 6.71140943e-003 0.
      0. 0. 0. 0. 0. 0. 0. 0. 0. 0. 6.71140943e-003 0. 0.
      6.71140943e-003 0. 6.71140943e-003 0. 0. 0. 6.71140943e-003 0. 0.
      0. 0. 0. 0. 0. 0. 0. 0. 0. 0. 0. 0. 0. 0. 0. 0. 6.71140943e-003 0.
      0. 0. 0. 0. 0. 0. 0. 0. 0. 0. 0. 0. 0. 0. 0. 0. 0. 0. 0. 0. 0. 0.
      6.71140943e-003 0. 0. 0. 0. 0. 0. 0. 0. 0. 0. 0. 0. 0. 0. 0. 0. 0.
      0. 0. 0. 0. 0. 0. 1.34228189e-002 0. 0. 0. 0. 6.71140943e-003 0.
      0. 0. 6.71140943e-003 6.71140943e-003 0. 0. 0. 0. 0. 0. 0. 0. 0.
      0. 0. 0. 0. 0. 0. 0. 0. 0. 2.01342292e-002 0. 0. 6.71140943e-003
      0. 0. 0. 0. 0. 0. 0. 0. 0. 0. 6.71140943e-003 0. 0. 0. 0. 0. 0.
      6.71140943e-003 0. 0. 0. 0. 0. 0. 0. 0. 0. 0. 0. 0. 0. 0. 0. 0. 0.
      0. 0. 6.71140943e-003 0. 0. 0. 0. 0. 0. 0. 2.01342292e-002 0. 0.
      0. 0. 6.71140943e-003 0. 0. 0. 0. 0. 0. 0. 0. 0. 0. 0. 0.
      6.71140943e-003 0. 6.71140943e-003 6.71140943e-003 0. 0. 0. 0. 0.
      0. 0. 6.71140943e-003 0. 0. 0. 0. 0. 0. 0. 0. 6.71140943e-003 0.
      0. 0. 0. 6.71140943e-003 0. 0. 0. 0. 0. 0. 0. 0. 6.71140943e-003
      0. 0. 0. 0. 0. 0. 0. 0. 0. 0. 0. 0. 6.71140943e-003 0. 0. 0. 0. 0.
      0. 0. 6.71140943e-003 0. 0. 0. 6.71140943e-003 0. 0. 0. 0. 0.
      6.71140943e-003 0. 0. 0. 0. 0. 0. 0. 0. 0. 0. 0. 0. 0.
      6.71140943e-003 0. 0. 0. 0. 0. 0. 6.71140943e-003 0. 0. 0. 0. 0.
      0. 0. 0. 0. 6.71140943e-003 0. 0. 0. 0. 0. 0. 6.71140943e-003 0.
      0. 0. 0. 0. 6.71140943e-003 0. 0. 0. 1.34228189e-002 0. 0.
      6.71140943e-003 0. 0. 6.71140943e-003 0. 0. 0. 0. 0. 0. 0.
      6.71140943e-003 0. 6.71140943e-003 0. 0. 0. 0. 0. 0. 0. 0. 0. 0.
      0. 0. 0. 0. 0. 6.71140943e-003 0. 0. 0. 0. 0. 0. 0. 0. 0. 0. 0. 0.
      0. 0. 6.71140943e-003 0. 0. 0. 0. 0. 1.34228189e-002
      6.71140943e-003 0. 0. 0. 6.71140943e-003 0. 0. 0. 6.71140943e-003
      0. 0. 0. 0. 0. 0. 0. 0. 1.34228189e-002 6.71140943e-003 0. 0. 0.
      0. 0. 0. 0. 0. 6.71140943e-003 0. 0. 0. 0. 0. 0. 0.
      6.71140943e-003 0. 0. 0. 0. 0. 6.71140943e-003 0. 0. 0. 0. 0. 0.
      0. 0. 0. 0. 6.71140943e-003 0. 6.71140943e-003 0. 0. 0. 0. 0. 0.
      0. 0. 0. 0. 0. 0. 6.71140943e-003 0. 0. 0. 0. 0. 1.34228189e-002
      0. 0. 0. 0. 0. 0. 0. 0. 6.71140943e-003 0. 0. 2.01342292e-002 0.
      0. 0. 6.71140943e-003 0. 1.34228189e-002 0. 0. 0. 0. 0. 0. 0. 0.
      0. 0. 0. 6.71140943e-003 0. 0. 0. 0. 0. 0. 0. 0. 0. 0. 0. 0. 0. 0.
      0. 0. 0. 0. 6.71140943e-003 0. 0. 0. 0. 0. 0. 0. 0.
      6.71140943e-003 0. 0. 2.01342292e-002 0. 0. 0. 0. 0.
      6.71140943e-003 0. 0. 0. 0. 0. 0. 0. 0. 0. 6.71140943e-003 0. 0.
      0. 0. 0. 0. 0. 6.71140943e-003 0. 1.34228189e-002 0. 0.
      6.71140943e-003 0. 0. 0. 0. 0. 0. 0. 0. 0. 6.71140943e-003 0. 0.
      0. 0. 0. 0. 6.71140943e-003 0. 0. 0. 0. 0. 0. 1.34228189e-002 0.
      0. 0. 0. 0. 0. 0. 0. 0. 2.01342292e-002 0. 0. 0. 0.
      6.71140943e-003 0. 0. 0. 0. 0. 0. 0. 0. 0. 0. 0. 0. 0. 0.
      6.71140943e-003 0. 0. 0. 0. 0. 0. 0. 0. 0. 6.71140943e-003 0. 0.
      0. 0. 6.71140943e-003 0. 0. 6.71140943e-003 0. 0. 0.
      6.71140943e-003 0. 0. 0. 0. 0. 0. 0. 0. 6.71140943e-003
      6.71140943e-003 0. 0. 0. 0. 0. 0. 0. 0. 0. 0. 0. 0. 0. 0. 0. 0. 0.
      0. 0. 1.34228189e-002 0. 6.71140943e-003 0. 0. 6.71140943e-003 0.
      0. 0. 0. 0. 0. 0. 0. 0. 0. 0. 0. 0. 0. 0. 0. 0. 0. 0. 0.
      6.71140943e-003 0. 0. 0. 1.34228189e-002 0. 6.71140943e-003 0. 0.
      0. 0. 0. 0. 0. 0. 0. 0. 0. 0. 0. 6.71140943e-003 0. 0. 0. 0. 0. 0.
      0. 0. 0. 0. 0. 0. 0. 6.71140943e-003 0. 0. 0. 0. 0. 0. 0.
      6.71140943e-003 0. 0. 0. 0. 0. 0. 0. 0. 0. 0. 0. 0. 0. 0. 0. 0. 0.
      1.34228189e-002 6.71140943e-003 0. 0. 0. 0. 0. 0. 6.71140943e-003
      0. 0. 1.34228189e-002 0. 0. 0. 0. 0. 0. 0. 0. 1.34228189e-002 0.
      0. 0. 6.71140943e-003 0. 0.</_>
    <_>
      0. 0. 0. 0. 0. 0. 0. 0. 0. 0. 0. 0. 0. 0. 0. 0. 0. 0. 0. 0. 0. 0.
      0. 0. 0. 6.13496918e-003 0. 0. 0. 0. 1.22699384e-002 0. 0. 0. 0.
      0. 0. 0. 0. 0. 0. 0. 6.13496918e-003 0. 0. 0. 6.13496918e-003
      6.13496918e-003 6.13496918e-003 0. 0. 0. 0. 0. 0. 0. 0. 0. 0. 0.
      0. 0. 0. 0. 0. 0. 0. 0. 0. 0. 0. 0. 0. 0. 0. 0. 0. 0. 0. 0. 0. 0.
      0. 0. 0. 0. 0. 6.13496918e-003 6.13496918e-003 0. 0.
      6.13496918e-003 0. 0. 2.45398767e-002 6.13496918e-003 0. 0.
      6.13496918e-003 0. 0. 0. 0. 0. 6.13496918e-003 0. 6.13496918e-003
      6.13496918e-003 0. 0. 0. 0. 0. 0. 0. 0. 0. 0. 0. 0. 0.
      6.13496918e-003 6.13496918e-003 0. 0. 0. 0. 0. 0. 0. 0. 0.
      6.13496918e-003 0. 0. 6.13496918e-003 0. 0. 0. 0. 0.
      6.13496918e-003 0. 0. 0. 0. 0. 0. 0. 6.13496918e-003 0.
      6.13496918e-003 0. 0. 0. 0. 0. 0. 6.13496918e-003 0. 0. 0. 0.
      6.13496918e-003 0. 0. 0. 0. 0. 0. 0. 0. 0. 0. 0. 0.
      6.13496918e-003 0. 0. 6.13496918e-003 0. 0. 0. 0. 0. 0. 0. 0. 0.
      0. 1.84049085e-002 0. 6.13496918e-003 0. 0. 0. 0. 0. 0. 0. 0. 0.
      0. 0. 1.84049085e-002 0. 0. 0. 0. 0. 0. 0. 0. 0. 0. 0. 0. 0. 0. 0.
      0. 6.13496918e-003 0. 0. 6.13496918e-003 0. 0. 0. 0. 0. 0. 0. 0.
      0. 0. 0. 0. 0. 0. 0. 0. 6.13496918e-003 0. 6.13496918e-003 0. 0.
      0. 0. 6.13496918e-003 0. 0. 0. 0. 6.13496918e-003 6.13496918e-003
      6.13496918e-003 6.13496918e-003 0. 6.13496918e-003 0. 0. 0. 0. 0.
      0. 0. 0. 0. 0. 0. 0. 0. 0. 6.13496918e-003 0. 6.13496918e-003 0.
      0. 0. 0. 0. 0. 0. 6.13496918e-003 0. 0. 0. 0. 0. 0.
      1.22699384e-002 0. 0. 0. 0. 0. 0. 0. 6.13496918e-003 0. 0.
      6.13496918e-003 6.13496918e-003 0. 6.13496918e-003 0. 0. 0. 0. 0.
      0. 0. 0. 0. 0. 6.13496918e-003 0. 0. 0. 0. 0. 0. 0. 0. 0. 0. 0. 0.
      0. 0. 6.13496918e-003 0. 0. 0. 0. 6.13496918e-003 0. 0. 0.
      6.13496918e-003 0. 0. 0. 0. 6.13496918e-003 0. 0. 0. 0. 0. 0. 0.
      0. 0. 0. 0. 0. 6.13496918e-003 0. 6.13496918e-003 0. 0. 0.
      6.13496918e-003 6.13496918e-003 0. 0. 0. 0. 0. 0. 1.22699384e-002
      0. 0. 0. 6.13496918e-003 0. 0. 6.13496918e-003 0. 6.13496918e-003
      0. 0. 0. 0. 6.13496918e-003 0. 0. 0. 0. 0. 0. 0. 0. 0.
      6.13496918e-003 0. 0. 0. 0. 0. 0. 0. 0. 0. 0. 0. 6.13496918e-003
      0. 0. 0. 0. 6.13496918e-003 0. 0. 6.13496918e-003 6.13496918e-003
      0. 0. 0. 0. 0. 0. 0. 0. 0. 0. 0. 0. 0. 0. 0. 0. 0. 0. 0. 0.
      6.13496918e-003 6.13496918e-003 0. 0. 0. 0. 6.13496918e-003 0.
      6.13496918e-003 0. 0. 0. 0. 0. 6.13496918e-003 0. 0.
      6.13496918e-003 0. 0. 0. 0. 0. 0. 0. 0. 0. 0. 0. 0. 0. 0. 0. 0. 0.
      0. 0. 0. 0. 0. 0. 6.13496918e-003 0. 0. 6.13496918e-003 0. 0. 0.
      0. 0. 0. 0. 0. 6.13496918e-003 0. 0. 0. 0. 0. 0. 0. 0. 0. 0. 0. 0.
      6.13496918e-003 0. 0. 0. 0. 0. 0. 0. 0. 0. 0. 0. 0. 0. 0.
      6.13496918e-003 0. 0. 0. 0. 0. 0. 0. 0. 0. 0. 0. 0. 0. 0. 0. 0. 0.
      0. 0. 0. 0. 0. 0. 0. 0. 0. 0. 0. 6.13496918e-003 0. 0. 0. 0. 0. 0.
      0. 0. 0. 0. 6.13496918e-003 0. 0. 0. 0. 0. 0. 0. 6.13496918e-003
      0. 0. 0. 0. 0. 0. 3.06748450e-002 0. 0. 0. 0. 0. 0. 0. 0. 0.
      6.13496918e-003 0. 0. 0. 0. 0. 0. 0. 0. 0. 6.13496918e-003 0. 0.
      0. 0. 0. 0. 0. 0. 0. 0. 6.13496918e-003 0. 0. 0. 0. 0. 0. 0. 0. 0.
      0. 0. 0. 0. 0. 0. 0. 0. 0. 0. 0. 0. 0. 0. 0. 6.13496918e-003 0. 0.
      0. 6.13496918e-003 0. 0. 0. 0. 6.13496918e-003 0. 0. 0. 0. 0. 0.
      0. 0. 6.13496918e-003 0. 0. 0. 0. 6.13496918e-003 0. 0.
      6.13496918e-003 0. 0. 1.22699384e-002 0. 0. 0. 0. 0.
      1.84049085e-002 0. 0. 0. 0. 0. 0. 0. 1.22699384e-002 0. 0. 0. 0.
      0. 0. 0. 0. 0. 0. 0. 0. 6.13496918e-003 0. 0. 0. 0. 0. 0. 0. 0. 0.
      0. 0. 0. 0. 0. 0. 0. 0. 0. 0. 0. 0. 0. 0. 6.13496918e-003
      1.22699384e-002 0. 0. 0. 0. 6.13496918e-003 0. 0. 0. 0. 0.
      6.13496918e-003 0. 0. 0. 0. 0. 0. 0. 0. 6.13496918e-003 0.
      6.13496918e-003 0. 0. 0. 0. 0. 0. 0. 0. 0. 0. 0. 0. 0. 0. 0. 0. 0.
      0. 0. 6.13496918e-003 0. 1.22699384e-002 0. 0. 0. 0. 0.
      6.13496918e-003 6.13496918e-003 0. 0. 0. 0. 0. 1.22699384e-002 0.
      0. 0. 1.22699384e-002 0. 0. 0. 0. 0. 6.13496918e-003
      6.13496918e-003 6.13496918e-003 0. 0. 0. 0. 0. 0. 0. 0. 0. 0. 0.
      0. 6.13496918e-003 6.13496918e-003 6.13496918e-003 0. 0.
      6.13496918e-003 0. 0. 0. 0. 6.13496918e-003 0. 0. 0. 0. 0. 0. 0.
      0. 0. 0. 0. 0. 0. 0. 0. 0. 6.13496918e-003 0. 0. 0. 0. 0. 0. 0. 0.
      0. 0. 0. 0. 0. 0. 0. 6.13496918e-003 0. 0. 6.13496918e-003 0. 0.
      0. 6.13496918e-003 0. 0. 0. 0. 6.13496918e-003 0. 6.13496918e-003
      0. 0. 0. 0. 0. 0. 6.13496918e-003 0. 6.13496918e-003 0. 0. 0. 0.
      0. 0. 0. 0. 6.13496918e-003 0. 0. 0. 0. 0. 0. 0. 0.
      6.13496918e-003 0. 1.22699384e-002 0. 0. 0. 0. 6.13496918e-003 0.
      0. 6.13496918e-003 0. 0. 0. 0. 0. 6.13496918e-003 0. 0. 0. 0. 0.
      0. 0. 0. 0. 0. 6.13496918e-003 0. 6.13496918e-003 0.
      6.13496918e-003 0. 0. 0. 0. 0. 0. 0. 0. 0. 1.84049085e-002 0. 0.
      6.13496918e-003 0. 0. 0. 0. 0. 0. 0. 0. 0. 0. 0. 0.
      6.13496918e-003 0. 0. 0. 0. 0. 0. 0. 0. 0. 0. 0. 0. 0. 0. 0. 0. 0.
      0. 0. 0. 0. 0. 0. 0. 0. 0. 0. 0. 0. 0. 0. 0. 0. 0. 0. 0. 0. 0.
      6.13496918e-003 0. 0. 0. 0. 0. 0. 0. 0. 0. 0. 6.13496918e-003 0.
      6.13496918e-003 0. 0. 0. 0. 0. 0. 0. 0. 0. 0. 6.13496918e-003 0.
      0. 0.</_>
    <_>
      0. 0. 0. 0. 6.21118024e-003 0. 0. 0. 0. 0. 0. 0. 6.21118024e-003
      1.24223605e-002 0. 0. 0. 0. 0. 6.21118024e-003 0. 0. 0. 0. 0. 0.
      0. 6.21118024e-003 0. 0. 1.86335407e-002 0. 0. 0. 6.21118024e-003
      0. 0. 0. 0. 0. 6.21118024e-003 0. 0. 0. 0. 6.21118024e-003 0. 0.
      0. 0. 0. 0. 0. 0. 0. 0. 0. 0. 0. 0. 0. 0. 0. 0. 0. 0. 0. 0. 0. 0.
      6.21118024e-003 6.21118024e-003 0. 0. 0. 0. 0. 6.21118024e-003 0.
      0. 0. 0. 0. 0. 0. 0. 0. 0. 6.21118024e-003 0. 0. 0. 0. 0.
      6.21118024e-003 0. 0. 0. 0. 0. 0. 0. 0. 0. 0. 0. 0. 0. 0. 0. 0. 0.
      0. 0. 0. 0. 0. 0. 1.24223605e-002 0. 0. 0. 0. 0. 0. 0.
      6.21118024e-003 0. 0. 6.21118024e-003 0. 0. 0. 0. 0. 0. 0. 0. 0.
      0. 0. 0. 0. 0. 0. 0. 6.21118024e-003 0. 0. 0. 0. 0. 0. 0. 0. 0.
      6.21118024e-003 0. 0. 0. 0. 0. 0. 0. 0. 0. 0. 0. 0. 0.
      6.21118024e-003 0. 6.21118024e-003 0. 0. 0. 0. 0. 0. 0. 0. 0. 0.
      0. 0. 0. 0. 0. 0. 1.24223605e-002 1.86335407e-002 6.21118024e-003
      6.21118024e-003 6.21118024e-003 6.21118024e-003 0. 0. 0. 0. 0. 0.
      0. 0. 0. 0. 0. 0. 0. 0. 0. 0. 0. 0. 0. 0. 0. 0. 0. 0. 0. 0. 0.
      6.21118024e-003 0. 0. 0. 0. 0. 0. 0. 0. 0. 0. 6.21118024e-003 0.
      0. 6.21118024e-003 6.21118024e-003 0. 0. 0. 0. 0. 0. 0. 0.
      6.21118024e-003 0. 0. 0. 0. 0. 0. 0. 0. 0. 0. 0. 0. 0.
      6.21118024e-003 0. 0. 6.21118024e-003 0. 0. 0. 0. 0. 0. 0. 0. 0.
      0. 0. 0. 0. 0. 6.21118024e-003 0. 0. 0. 0. 6.21118024e-003 0. 0.
      6.21118024e-003 0. 0. 0. 6.21118024e-003 0. 0. 0. 0. 0. 0. 0. 0.
      6.21118024e-003 0. 0. 6.21118024e-003 0. 0. 6.21118024e-003 0. 0.
      0. 0. 0. 0. 0. 0. 0. 0. 0. 0. 0. 0. 0. 0. 0. 0. 0. 6.21118024e-003
      0. 0. 0. 0. 0. 0. 6.21118024e-003 0. 0. 0. 0. 6.21118024e-003 0.
      0. 0. 0. 6.21118024e-003 0. 6.21118024e-003 0. 0. 0.
      6.21118024e-003 0. 0. 0. 0. 0. 0. 0. 0. 6.21118024e-003 0.
      3.72670814e-002 0. 0. 0. 0. 6.21118024e-003 0. 0. 0. 0. 0. 0. 0.
      0. 0. 0. 0. 0. 0. 0. 6.21118024e-003 6.21118024e-003 0. 0. 0.
      6.21118024e-003 0. 6.21118024e-003 0. 0. 0. 0. 0. 0. 0. 0. 0. 0.
      0. 0. 0. 0. 6.21118024e-003 0. 6.21118024e-003 6.21118024e-003 0.
      0. 0. 0. 0. 0. 0. 1.24223605e-002 0. 0. 0. 0. 0. 0. 0. 0.
      6.21118024e-003 0. 0. 0. 0. 0. 0. 0. 0. 0. 6.21118024e-003 0. 0.
      0. 6.21118024e-003 0. 0. 6.21118024e-003 0. 0. 0. 0. 0. 0. 0. 0.
      0. 0. 6.21118024e-003 0. 0. 0. 1.24223605e-002 0. 0. 0. 0. 0. 0.
      0. 0. 0. 0. 0. 0. 0. 0. 6.21118024e-003 0. 0. 0. 6.21118024e-003
      0. 0. 0. 0. 0. 0. 0. 0. 0. 0. 0. 0. 0. 0. 0. 6.21118024e-003 0. 0.
      0. 0. 0. 0. 0. 0. 0. 6.21118024e-003 0. 0. 1.24223605e-002 0. 0.
      0. 0. 0. 0. 0. 6.21118024e-003 0. 0. 0. 0. 1.24223605e-002 0. 0.
      0. 6.21118024e-003 0. 0. 0. 0. 0. 0. 0. 0. 0. 0. 0. 0. 0. 0. 0. 0.
      0. 0. 6.21118024e-003 0. 0. 0. 0. 0. 0. 0. 1.24223605e-002 0. 0.
      0. 0. 0. 0. 0. 0. 0. 0. 0. 0. 0. 0. 0. 0. 0. 0. 0. 0. 0. 0. 0. 0.
      0. 0. 0. 0. 0. 0. 0. 0. 0. 0. 0. 0. 0. 0. 0. 0. 0. 0. 0. 0. 0. 0.
      0. 0. 0. 0. 0. 6.21118024e-003 0. 1.24223605e-002 0. 0. 0. 0. 0.
      6.21118024e-003 0. 0. 0. 0. 0. 0. 0. 0. 0. 0. 0. 6.21118024e-003
      0. 0. 0. 0. 0. 0. 0. 6.21118024e-003 0. 0. 0. 0. 0.
      1.86335407e-002 0. 6.21118024e-003 0. 6.21118024e-003 0. 0. 0. 0.
      0. 0. 0. 0. 0. 0. 1.24223605e-002 0. 0. 0. 0. 0. 0. 0. 0. 0. 0. 0.
      0. 6.21118024e-003 0. 0. 0. 0. 0. 0. 0. 0. 6.21118024e-003
      6.21118024e-003 1.86335407e-002 0. 0. 0. 1.86335407e-002 0. 0. 0.
      6.21118024e-003 0. 0. 6.21118024e-003 0. 6.21118024e-003 0. 0. 0.
      6.21118024e-003 0. 0. 0. 0. 0. 0. 0. 0. 0. 0. 0. 0.
      1.86335407e-002 0. 0. 0. 0. 0. 0. 0. 0. 0. 0. 0. 6.21118024e-003
      0. 0. 0. 0. 0. 0. 6.21118024e-003 0. 6.21118024e-003 0. 0. 0. 0.
      0. 0. 0. 0. 0. 0. 0. 0. 0. 0. 6.21118024e-003 0. 0. 0. 0. 0. 0. 0.
      0. 0. 0. 0. 0. 0. 0. 0. 0. 0. 1.24223605e-002 0. 0.
      6.21118024e-003 0. 0. 1.24223605e-002 0. 0. 0. 1.24223605e-002 0.
      0. 0. 6.21118024e-003 0. 0. 0. 0. 0. 0. 0. 6.21118024e-003
      1.24223605e-002 0. 0. 0. 0. 0. 0. 0. 0. 0. 0. 0. 0. 0. 0. 0. 0.
      6.21118024e-003 0. 0. 0. 0. 0. 0. 0. 0. 6.21118024e-003 0. 0. 0.
      6.21118024e-003 0. 0. 0. 0. 0. 0. 6.21118024e-003 0. 0. 0. 0. 0.
      0. 0. 0. 0. 0. 0. 0. 0. 0. 0. 0. 0. 0. 0. 0. 0. 0. 0. 0. 0. 0. 0.
      0. 0. 0. 0. 0. 0. 0. 0. 0. 0. 0. 0. 0. 0. 0. 0. 0. 0. 0. 0. 0. 0.
      0. 0. 0. 0. 0. 0. 0. 0. 0. 0. 0. 0. 0. 0. 0. 6.21118024e-003
      1.24223605e-002 0. 0. 0. 0. 6.21118024e-003 0. 0. 0. 0. 0. 0.
      6.21118024e-003 0. 0. 0. 0. 0. 0. 0. 0. 0. 0. 6.21118024e-003 0.
      0. 0. 1.24223605e-002 0. 0. 0. 0. 0. 0. 0. 0. 0. 0. 0. 0. 0. 0. 0.
      0. 0. 0. 6.21118024e-003 0. 1.24223605e-002 0. 0. 0. 0. 0. 0. 0.
      0. 6.21118024e-003 0. 0. 0. 0. 0. 0. 0. 0. 0. 0. 0. 0. 0. 0. 0. 0.
      0. 6.21118024e-003 6.21118024e-003 0. 0. 0. 0. 0. 6.21118024e-003
      0. 0. 6.21118024e-003 0. 0. 0. 0. 0. 0. 0. 0. 0. 0. 0. 0. 0.
      6.21118024e-003 0. 0. 0. 0. 0. 0. 0. 0. 0. 0. 0. 1.24223605e-002
      0. 6.21118024e-003 0. 0. 6.21118024e-003 0. 6.21118024e-003 0.</_>
    <_>
      5.26315812e-003 0. 0. 0. 0. 0. 0. 0. 0. 0. 0. 0. 0.
      1.57894753e-002 0. 5.26315812e-003 0. 0. 0. 0. 0. 0. 0. 0. 0. 0.
      0. 5.26315812e-003 0. 5.26315812e-003 5.26315812e-003 0. 0. 0.
      5.26315812e-003 0. 5.26315812e-003 0. 0. 0. 0. 0. 0. 0. 0. 0. 0.
      0. 5.26315812e-003 0. 5.26315812e-003 0. 0. 0. 0. 0. 0. 0. 0.
      5.26315812e-003 0. 0. 0. 0. 0. 0. 0. 0. 0. 0. 0. 5.26315812e-003
      0. 0. 0. 0. 0. 0. 3.68421078e-002 5.26315812e-003 0. 0. 0. 0. 0.
      0. 5.26315812e-003 0. 0. 0. 0. 0. 0. 0. 0. 0. 5.26315812e-003 0.
      0. 5.26315812e-003 0. 0. 0. 0. 0. 0. 0. 0. 0. 0. 0. 0. 0. 0. 0.
      5.26315812e-003 5.26315812e-003 0. 5.26315812e-003 0. 0.
      5.26315812e-003 0. 0. 0. 0. 0. 0. 0. 0. 0. 0. 0. 0. 0. 0.
      5.26315812e-003 5.26315812e-003 0. 0. 0. 0. 0. 0. 0. 0. 0.
      5.26315812e-003 0. 0. 0. 0. 0. 0. 0. 0. 5.26315812e-003 0. 0. 0.
      0. 0. 0. 0. 1.57894753e-002 0. 0. 0. 0. 0. 5.26315812e-003 0. 0.
      0. 0. 0. 0. 0. 0. 0. 0. 0. 0. 0. 0. 0. 0. 0. 0. 0. 1.05263162e-002
      0. 1.05263162e-002 0. 0. 0. 0. 0. 0. 0. 0. 0. 0. 0.
      5.26315812e-003 0. 0. 0. 0. 0. 0. 0. 0. 0. 0. 0. 0. 0. 0.
      5.26315812e-003 0. 0. 0. 0. 5.26315812e-003 0. 0. 0. 0. 0. 0. 0.
      0. 1.05263162e-002 0. 0. 0. 0. 0. 0. 0. 0. 0. 0. 0. 0. 0. 0. 0. 0.
      0. 0. 0. 0. 0. 0. 0. 0. 0. 1.05263162e-002 0. 0. 0. 0.
      5.26315812e-003 0. 0. 5.26315812e-003 0. 0. 0. 0. 0. 0. 0. 0. 0.
      0. 5.26315812e-003 0. 0. 0. 0. 0. 0. 0. 5.26315812e-003 0. 0. 0.
      5.26315812e-003 0. 0. 0. 0. 0. 0. 0. 0. 0. 0. 0. 5.26315812e-003
      0. 1.05263162e-002 0. 0. 5.26315812e-003 0. 0. 0. 5.26315812e-003
      0. 0. 5.26315812e-003 0. 0. 0. 0. 0. 0. 0. 0. 0. 0. 0. 0. 0. 0. 0.
      0. 0. 5.26315812e-003 0. 0. 0. 0. 0. 5.26315812e-003 0. 0. 0.
      5.26315812e-003 0. 0. 0. 0. 0. 0. 0. 0. 0. 0. 0. 5.26315812e-003
      5.26315812e-003 0. 0. 0. 1.05263162e-002 0. 0. 0. 0.
      5.26315812e-003 0. 0. 0. 0. 0. 0. 0. 0. 0. 0. 0. 0.
      5.26315812e-003 0. 0. 0. 0. 0. 0. 0. 0. 0. 5.26315812e-003 0. 0.
      0. 5.26315812e-003 0. 0. 0. 0. 0. 0. 0. 5.26315812e-003 0. 0. 0.
      0. 0. 0. 0. 0. 0. 0. 0. 0. 5.26315812e-003 0. 0. 0. 0. 0. 0. 0. 0.
      0. 0. 0. 0. 0. 0. 0. 0. 0. 0. 0. 0. 5.26315812e-003
      5.26315812e-003 0. 5.26315812e-003 5.26315812e-003 0. 0. 0.
      5.26315812e-003 0. 0. 0. 0. 0. 0. 0. 0. 0. 0. 0. 0. 0. 0. 0. 0. 0.
      0. 0. 0. 5.26315812e-003 0. 0. 5.26315812e-003 0. 0. 0. 0. 0. 0.
      0. 5.26315812e-003 5.26315812e-003 0. 0. 0. 0. 0. 0. 0.
      5.26315812e-003 0. 0. 0. 0. 0. 0. 0. 0. 5.26315812e-003 0. 0. 0.
      0. 0. 0. 0. 0. 0. 0. 0. 0. 0. 0. 0. 0. 0. 0. 0. 0. 0. 0.
      5.26315812e-003 0. 0. 0. 0. 0. 0. 0. 0. 5.26315812e-003 0. 0. 0.
      0. 0. 5.26315812e-003 0. 5.26315812e-003 0. 0. 5.26315812e-003 0.
      0. 0. 0. 0. 0. 0. 0. 0. 0. 0. 0. 0. 0. 5.26315812e-003 0. 0. 0. 0.
      0. 0. 0. 0. 0. 0. 1.57894753e-002 0. 0. 1.57894753e-002 0. 0. 0.
      0. 2.63157897e-002 0. 5.26315812e-003 5.26315812e-003 0. 0. 0. 0.
      0. 0. 0. 0. 0. 0. 0. 0. 0. 0. 0. 0. 0. 0. 0. 0. 0. 0. 0. 0. 0. 0.
      0. 0. 0. 0. 5.26315812e-003 0. 0. 0. 0. 5.26315812e-003 0. 0. 0.
      5.26315812e-003 0. 0. 0. 1.05263162e-002 0. 0. 0. 0. 0. 0.
      5.26315812e-003 0. 0. 0. 0. 0. 0. 1.05263162e-002 0. 0. 0. 0. 0.
      5.26315812e-003 0. 0. 0. 0. 0. 0. 1.57894753e-002 0. 0. 0. 0. 0.
      0. 0. 0. 0. 0. 0. 2.10526325e-002 0. 0. 0. 0. 0. 0. 0. 0. 0.
      2.63157897e-002 0. 5.26315812e-003 0. 0. 0. 0. 1.05263162e-002 0.
      0. 0. 0. 0. 0. 0. 0. 0. 0. 0. 0. 0. 0. 0. 0. 0. 0. 0.
      2.63157897e-002 0. 0. 0. 5.26315812e-003 0. 0. 0. 0.
      5.26315812e-003 0. 0. 5.26315812e-003 0. 0. 0. 0. 0. 0. 0. 0. 0.
      0. 0. 0. 0. 0. 0. 0. 0. 0. 0. 5.26315812e-003 0. 0. 0. 0. 0. 0. 0.
      0. 0. 5.26315812e-003 0. 5.26315812e-003 0. 0. 0. 5.26315812e-003
      0. 0. 0. 0. 0. 0. 5.26315812e-003 0. 0. 0. 0. 0. 0. 0.
      5.26315812e-003 0. 0. 0. 0. 0. 0. 0. 0. 0. 2.10526325e-002 0. 0.
      0. 0. 0. 0. 0. 0. 5.26315812e-003 0. 0. 0. 5.26315812e-003
      1.57894753e-002 0. 0. 0. 0. 0. 0. 0. 0. 0. 0. 0. 0.
      5.26315812e-003 0. 0. 0. 5.26315812e-003 0. 0. 0. 0. 0. 0. 0.
      5.26315812e-003 0. 0. 0. 5.26315812e-003 0. 0. 0. 0. 0. 0. 0. 0.
      0. 0. 0. 0. 0. 0. 0. 0. 0. 0. 5.26315812e-003 4.21052650e-002 0.
      0. 0. 0. 0. 0. 0. 0. 0. 0. 0. 0. 0. 5.26315812e-003 0. 0. 0. 0. 0.
      0. 0. 0. 0. 0. 0. 0. 0. 0. 0. 5.26315812e-003 0. 5.26315812e-003
      0. 5.26315812e-003 0. 5.26315812e-003 0. 0. 0. 0. 0.
      5.26315812e-003 0. 0. 0. 5.26315812e-003 0. 0. 0. 0. 0. 0. 0. 0.
      0. 0. 0. 0. 0. 0. 0. 0. 0. 0. 0. 3.15789506e-002 0.
      3.15789506e-002 0. 0. 0. 0. 0. 0. 0. 0. 0. 0. 0. 1.57894753e-002
      0. 0. 0. 0. 0. 0. 0. 0. 0. 0. 0. 5.26315812e-003 0. 0. 0. 0. 0. 0.
      0. 0. 0. 0. 0. 0. 0. 0. 0. 0. 0. 0. 0. 0. 0. 0. 0. 0. 0. 0. 0. 0.
      0. 0. 0. 0. 0. 0. 0. 1.05263162e-002 0. 0. 0. 0. 0.
      5.26315812e-003 0. 0. 0. 0. 0. 0. 0. 0. 0. 0. 0. 0. 0. 0. 0. 0. 0.
      0. 0. 0. 0. 0. 0. 5.26315812e-003 0. 0. 0. 0. 0. 0. 0. 0. 0. 0. 0.
      0. 5.26315812e-003 0.</_>
    <_>
      0. 0. 0. 0. 0. 0. 0. 0. 0. 0. 0. 5.23560215e-003 5.23560215e-003
      1.57068074e-002 0. 0. 0. 0. 0. 0. 0. 1.04712043e-002 0. 0. 0. 0.
      0. 0. 0. 0. 0. 0. 0. 0. 1.04712043e-002 0. 0. 0. 0. 0. 0. 0. 0. 0.
      5.23560215e-003 0. 0. 0. 0. 0. 0. 0. 0. 0. 0. 0. 0.
      5.23560215e-003 0. 0. 0. 0. 0. 0. 5.23560215e-003 0. 0. 0. 0. 0.
      5.23560215e-003 0. 0. 0. 0. 0. 5.23560215e-003 0. 0. 0. 0. 0. 0.
      0. 0. 0. 0. 0. 0. 0. 0. 0. 0. 0. 0. 0. 0. 0. 0. 0. 0. 0. 0. 0. 0.
      0. 0. 0. 0. 5.23560215e-003 5.23560215e-003 0. 5.23560215e-003 0.
      0. 0. 0. 0. 0. 0. 0. 0. 0. 0. 0. 0. 0. 0. 0. 0. 0. 0. 0. 0. 0. 0.
      0. 5.23560215e-003 0. 0. 0. 0. 0. 0. 5.23560215e-003 0. 0. 0. 0.
      0. 0. 0. 0. 0. 0. 0. 0. 0. 5.23560215e-003 0. 0. 0. 0.
      1.04712043e-002 0. 0. 0. 0. 0. 0. 0. 0. 0. 0. 0. 0.
      1.04712043e-002 5.23560215e-003 0. 0. 0. 0. 0. 0. 0. 0. 0. 0. 0.
      0. 0. 0. 0. 0. 0. 0. 0. 0. 0. 0. 0. 0. 0. 5.23560215e-003 0. 0.
      5.23560215e-003 0. 0. 0. 0. 0. 0. 0. 5.23560215e-003 0.
      5.23560215e-003 0. 0. 0. 0. 0. 0. 0. 0. 0. 0. 0. 0. 0.
      5.23560215e-003 0. 0. 0. 0. 0. 0. 0. 0. 0. 0. 0. 0. 0. 0. 0. 0. 0.
      0. 0. 5.23560215e-003 0. 0. 0. 0. 0. 5.23560215e-003 0.
      5.23560215e-003 0. 5.23560215e-003 0. 0. 0. 0. 0. 0. 0. 0. 0. 0.
      0. 0. 0. 0. 0. 0. 0. 0. 0. 5.23560215e-003 0. 1.04712043e-002 0.
      5.23560215e-003 0. 0. 0. 0. 0. 0. 0. 0. 0. 0. 5.23560215e-003 0.
      0. 0. 0. 0. 0. 5.23560215e-003 0. 0. 0. 0. 0. 0. 5.23560215e-003
      5.23560215e-003 0. 5.23560215e-003 0. 0. 0. 0. 0. 0. 0. 0. 0. 0.
      0. 0. 5.23560215e-003 0. 0. 0. 0. 0. 0. 0. 5.23560215e-003 0. 0.
      0. 5.23560215e-003 5.23560215e-003 0. 0. 0. 0. 0. 0. 0. 0. 0. 0.
      0. 5.23560215e-003 0. 0. 0. 0. 0. 0. 0. 0. 0. 5.23560215e-003
      5.23560215e-003 0. 0. 0. 0. 0. 5.23560215e-003 0. 0. 0. 0. 0.
      5.23560215e-003 0. 5.23560215e-003 5.23560215e-003 0. 0.
      5.23560215e-003 5.23560215e-003 0. 0. 0. 0. 0. 0. 0.
      5.23560215e-003 0. 5.23560215e-003 0. 0. 1.04712043e-002 0. 0. 0.
      0. 0. 0. 0. 0. 0. 0. 0. 0. 0. 0. 0. 0. 0. 0. 5.23560215e-003 0. 0.
      0. 0. 0. 0. 0. 5.23560215e-003 0. 0. 5.23560215e-003 0. 0. 0. 0.
      0. 0. 0. 0. 0. 5.23560215e-003 0. 0. 0. 0. 0. 0. 0.
      5.23560215e-003 0. 0. 0. 5.23560215e-003 0. 0. 0. 0. 0. 0.
      5.23560215e-003 0. 0. 0. 0. 0. 0. 5.23560215e-003 0. 0. 0.
      5.23560215e-003 0. 5.23560215e-003 0. 0. 0. 0. 0. 0. 0.
      1.04712043e-002 0. 0. 0. 5.23560215e-003 0. 0. 0. 0. 0. 0. 0. 0.
      0. 0. 0. 0. 0. 0. 0. 0. 0. 5.23560215e-003 0. 0. 0. 0. 0. 0. 0. 0.
      5.23560215e-003 0. 0. 0. 0. 0. 0. 0. 0. 0. 5.23560215e-003 0. 0.
      5.23560215e-003 1.04712043e-002 0. 0. 0. 0. 0. 0. 5.23560215e-003
      0. 1.04712043e-002 0. 0. 1.04712043e-002 0. 5.23560215e-003 0. 0.
      0. 1.57068074e-002 5.23560215e-003 0. 0. 0. 0. 0. 0. 0. 0. 0.
      1.57068074e-002 0. 0. 0. 0. 5.23560215e-003 5.23560215e-003 0. 0.
      0. 0. 0. 1.04712043e-002 0. 0. 0. 0. 0. 5.23560215e-003 0.
      5.23560215e-003 0. 5.23560215e-003 0. 5.23560215e-003 0. 0. 0. 0.
      5.23560215e-003 0. 0. 0. 0. 0. 0. 0. 1.04712043e-002 0. 0.
      1.04712043e-002 0. 0. 0. 0. 0. 5.23560215e-003 5.23560215e-003 0.
      0. 5.23560215e-003 0. 0. 0. 0. 0. 5.23560215e-003 0. 0. 0. 0.
      5.23560215e-003 0. 0. 1.04712043e-002 0. 0. 0. 0. 0. 0. 0. 0. 0.
      0. 0. 0. 0. 5.23560215e-003 0. 0. 5.23560215e-003 0. 0.
      5.23560215e-003 0. 5.23560215e-003 0. 5.23560215e-003 0.
      5.23560215e-003 1.04712043e-002 5.23560215e-003 0. 0. 0. 0. 0. 0.
      0. 0. 0. 0. 0. 0. 0. 0. 0. 0. 0. 0. 0. 0. 0. 1.04712043e-002 0. 0.
      1.04712043e-002 0. 0. 0. 0. 0. 0. 0. 0. 0. 0. 0. 0. 0. 0. 0.
      5.23560215e-003 0. 0. 0. 0. 0. 0. 0. 0. 1.04712043e-002 0. 0. 0.
      0. 0. 5.23560215e-003 5.23560215e-003 0. 0. 0. 0. 0. 0. 0. 0. 0.
      0. 0. 0. 0. 0. 0. 5.23560215e-003 0. 0. 0. 0. 0. 0. 0. 0. 0.
      5.23560215e-003 5.23560215e-003 0. 0. 5.23560215e-003 0. 0.
      5.23560215e-003 5.23560215e-003 0. 0. 0. 0. 0. 0. 0. 0. 0. 0. 0.
      0. 0. 0. 0. 5.23560215e-003 0. 0. 5.23560215e-003 0. 0. 0. 0. 0.
      0. 0. 0. 5.23560215e-003 0. 0. 0. 0. 1.04712043e-002 0. 0. 0. 0.
      0. 0. 5.23560215e-003 0. 0. 1.04712043e-002 0. 0. 0. 0. 0. 0. 0.
      0. 1.04712043e-002 0. 5.23560215e-003 0. 0. 5.23560215e-003 0. 0.
      0. 5.23560215e-003 0. 0. 0. 0. 0. 0. 0. 0. 0. 5.23560215e-003 0.
      0. 0. 0. 0. 0. 0. 0. 0. 0. 0. 0. 0. 0. 0. 0. 0. 0. 0. 0. 0. 0.
      5.23560215e-003 0. 0. 0. 0. 0. 0. 0. 5.23560215e-003 0. 0.
      5.23560215e-003 0. 0. 0. 0. 0. 5.23560215e-003 0. 5.23560215e-003
      0. 0. 5.23560215e-003 0. 5.23560215e-003 0. 0. 5.23560215e-003 0.
      0. 0. 0. 0. 0. 0. 0. 0. 0. 0. 0. 0. 0. 5.23560215e-003 0. 0. 0. 0.
      0. 0. 0. 0. 0. 0. 1.04712043e-002 0. 0. 5.23560215e-003 0. 0. 0.
      0. 0. 5.23560215e-003 0. 5.23560215e-003 0. 0. 0. 5.23560215e-003
      1.04712043e-002 0. 0. 0. 0. 0. 0. 0. 5.23560215e-003
      5.23560215e-003 0. 0. 0. 0. 0. 0. 0. 0. 0. 0. 0. 0. 0. 0.
      5.23560215e-003 1.04712043e-002 0. 0. 0. 0. 0. 0. 0. 0.
      5.23560215e-003 0. 0. 0. 0. 0. 0. 0. 0. 0. 1.04712043e-002 0. 0.
      0. 1.04712043e-002 1.04712043e-002 0. 0. 0. 5.23560215e-003 0.
      5.23560215e-003 0. 1.04712043e-002 0. 0. 0. 5.23560215e-003 0.
      5.23560215e-003 0. 0. 0. 0. 0. 0. 0. 0. 0. 0. 0. 0. 0. 0. 0. 0. 0.
      0. 0. 0. 0. 0. 0. 0. 0. 0. 0. 0. 0. 5.23560215e-003 0. 0.
      5.23560215e-003 5.23560215e-003 0. 5.23560215e-003 5.23560215e-003
      0. 0. 0. 0. 0. 5.23560215e-003</_>
    <_>
      0. 0. 5.26315812e-003 0. 0. 0. 0. 0. 5.26315812e-003 0. 0.
      5.26315812e-003 0. 5.26315812e-003 0. 5.26315812e-003 0. 0. 0.
      5.26315812e-003 0. 0. 5.26315812e-003 0. 0. 5.26315812e-003 0.
      5.26315812e-003 0. 0. 0. 0. 5.26315812e-003 0. 5.26315812e-003 0.
      5.26315812e-003 0. 0. 0. 5.26315812e-003 0. 0. 0. 0.
      5.26315812e-003 0. 0. 0. 0. 0. 0. 0. 0. 0. 0. 0. 0. 0.
      5.26315812e-003 0. 0. 0. 0. 0. 0. 0. 5.26315812e-003 0. 0. 0. 0.
      0. 0. 0. 0. 0. 0. 5.26315812e-003 0. 0. 0. 0. 0. 0. 0. 0.
      5.26315812e-003 0. 0. 0. 5.26315812e-003 0. 5.26315812e-003 0. 0.
      0. 0. 0. 0. 0. 0. 0. 5.26315812e-003 0. 0. 0. 0. 5.26315812e-003
      0. 0. 0. 0. 0. 0. 0. 0. 0. 0. 0. 0. 0. 0. 5.26315812e-003 0. 0. 0.
      0. 0. 0. 0. 0. 0. 0. 0. 0. 0. 0. 0. 5.26315812e-003 0. 0. 0. 0. 0.
      0. 0. 0. 0. 1.05263162e-002 0. 5.26315812e-003 0. 5.26315812e-003
      0. 0. 5.26315812e-003 0. 1.05263162e-002 0. 0. 5.26315812e-003
      5.26315812e-003 0. 0. 0. 0. 0. 0. 5.26315812e-003 5.26315812e-003
      0. 0. 0. 0. 0. 5.26315812e-003 0. 0. 0. 0. 0. 0. 0. 0. 0. 0. 0. 0.
      5.26315812e-003 0. 0. 0. 0. 0. 0. 5.26315812e-003 0. 0. 0. 0. 0.
      0. 0. 0. 0. 0. 0. 0. 0. 0. 0. 0. 0. 0. 5.26315812e-003 0. 0. 0. 0.
      0. 0. 5.26315812e-003 5.26315812e-003 0. 0. 0. 0. 5.26315812e-003
      0. 0. 0. 0. 0. 5.26315812e-003 0. 0. 0. 0. 0. 0. 0.
      5.26315812e-003 0. 0. 5.26315812e-003 0. 0. 0. 0. 0. 0. 0. 0. 0.
      5.26315812e-003 5.26315812e-003 0. 0. 0. 0. 0. 0. 0. 0.
      5.26315812e-003 0. 0. 0. 0. 0. 0. 0. 0. 0. 0. 0. 0. 0. 0. 0. 0. 0.
      5.26315812e-003 0. 0. 0. 0. 0. 0. 5.26315812e-003 0. 0. 0. 0. 0.
      0. 0. 0. 5.26315812e-003 0. 0. 0. 0. 0. 0. 5.26315812e-003
      1.57894753e-002 5.26315812e-003 0. 0. 5.26315812e-003
      5.26315812e-003 1.05263162e-002 0. 0. 0. 0. 0. 0. 0. 0. 0. 0. 0.
      0. 0. 0. 0. 5.26315812e-003 0. 5.26315812e-003 0. 0. 0. 0. 0. 0.
      5.26315812e-003 0. 0. 0. 0. 0. 0. 0. 0. 1.05263162e-002 0. 0. 0.
      5.26315812e-003 0. 0. 0. 0. 0. 0. 0. 0. 0. 0. 0. 0. 0. 0. 0.
      5.26315812e-003 0. 1.05263162e-002 5.26315812e-003 0. 0.
      5.26315812e-003 0. 0. 0. 5.26315812e-003 0. 0. 0. 0. 0. 0.
      1.05263162e-002 0. 0. 0. 0. 5.26315812e-003 0. 0. 0. 0. 0. 0. 0.
      0. 0. 0. 0. 0. 0. 5.26315812e-003 0. 0. 0. 5.26315812e-003
      5.26315812e-003 0. 0. 5.26315812e-003 0. 0. 0. 0. 0. 0. 0. 0. 0.
      0. 0. 0. 0. 0. 0. 0. 0. 0. 0. 5.26315812e-003 5.26315812e-003 0.
      0. 0. 0. 0. 0. 0. 0. 0. 0. 0. 0. 0. 0. 5.26315812e-003 0. 0. 0. 0.
      0. 0. 0. 0. 0. 0. 0. 5.26315812e-003 0. 0. 0. 0. 0. 0. 0.
      5.26315812e-003 0. 0. 0. 1.05263162e-002 0. 0. 0. 0. 0. 0. 0. 0.
      0. 0. 0. 0. 0. 5.26315812e-003 0. 0. 0. 0. 0. 0. 0.
      5.26315812e-003 0. 0. 0. 0. 0. 0. 0. 0. 0. 0. 0. 0. 0. 0. 0.
      5.26315812e-003 0. 0. 0. 0. 0. 0. 0. 0. 0. 0. 0. 0.
      1.57894753e-002 0. 1.05263162e-002 0. 0. 0. 0. 5.26315812e-003 0.
      0. 1.57894753e-002 0. 0. 0. 0. 1.05263162e-002 0. 0. 0. 0. 0. 0.
      0. 0. 0. 0. 0. 0. 0. 0. 0. 0. 0. 0. 0. 0. 0. 0. 0. 0. 0. 0. 0. 0.
      0. 0. 0. 0. 0. 0. 0. 2.10526325e-002 0. 0. 5.26315812e-003 0. 0.
      0. 0. 0. 0. 0. 0. 0. 0. 1.57894753e-002 0. 0. 0. 0. 0. 0.
      1.05263162e-002 1.05263162e-002 0. 0. 0. 0. 0. 0. 0. 0. 0. 0. 0.
      5.26315812e-003 0. 0. 0. 0. 5.26315812e-003 0. 0. 0. 0. 0. 0. 0.
      0. 0. 0. 0. 0. 0. 0. 5.26315812e-003 0. 0. 0. 0. 5.26315812e-003
      5.26315812e-003 0. 0. 0. 0. 1.05263162e-002 0. 0. 0. 0. 0. 0. 0.
      0. 0. 0. 0. 0. 0. 0. 0. 0. 0. 5.26315812e-003 0. 0. 0. 0.
      5.26315812e-003 0. 0. 0. 0. 0. 0. 0. 0. 1.57894753e-002 0. 0. 0.
      0. 0. 0. 0. 0. 0. 5.26315812e-003 0. 0. 0. 0. 5.26315812e-003 0.
      0. 0. 5.26315812e-003 0. 0. 0. 0. 5.26315812e-003 0. 0. 0. 0. 0.
      0. 5.26315812e-003 1.05263162e-002 0. 0. 0. 5.26315812e-003 0. 0.
      0. 0. 0. 0. 0. 0. 0. 0. 0. 0. 0. 0. 0. 0. 0. 0. 0. 0. 0. 0. 0. 0.
      0. 5.26315812e-003 0. 0. 0. 0. 0. 0. 0. 0. 0. 5.26315812e-003 0.
      0. 5.26315812e-003 5.26315812e-003 0. 0. 0. 0. 0. 0. 0. 0.
      5.26315812e-003 0. 0. 5.26315812e-003 5.26315812e-003
      5.26315812e-003 0. 5.26315812e-003 0. 0. 1.05263162e-002
      5.26315812e-003 0. 5.26315812e-003 0. 5.26315812e-003 0. 0. 0. 0.
      0. 0. 0. 1.05263162e-002 0. 0. 0. 0. 0. 0. 0. 0. 0. 0. 0. 0. 0. 0.
      0. 5.26315812e-003 0. 0. 0. 0. 5.26315812e-003 0. 0. 0.
      5.26315812e-003 0. 5.26315812e-003 0. 0. 0. 0. 0. 0. 0. 0. 0. 0.
      0. 0. 0. 0. 0. 1.05263162e-002 0. 0. 5.26315812e-003 0. 0. 0. 0.
      0. 0. 0. 0. 0. 0. 5.26315812e-003 5.26315812e-003 0. 0. 0. 0.
      5.26315812e-003 0. 5.26315812e-003 0. 0. 5.26315812e-003 0. 0. 0.
      0. 5.26315812e-003 0. 5.26315812e-003 0. 0. 0. 5.26315812e-003 0.
      0. 0. 0. 0. 0. 0. 0. 0. 0. 0. 0. 0. 0. 0. 0. 0. 5.26315812e-003 0.
      0. 0. 0. 0. 5.26315812e-003 0. 5.26315812e-003 0. 0. 0.
      5.26315812e-003 0. 5.26315812e-003 5.26315812e-003 0. 0. 0. 0. 0.
      0. 0. 0. 0. 0. 0. 0. 0. 0. 1.05263162e-002 0. 5.26315812e-003 0.
      0. 0. 0. 0. 0. 0. 0. 0. 5.26315812e-003 0. 0. 0. 5.26315812e-003
      0. 0. 0. 0. 0. 0. 0. 0. 0. 0. 0. 0. 0. 0. 0. 0. 0. 0.
      5.26315812e-003 0. 0. 0. 0. 0. 0. 0. 0. 0. 0. 0. 0. 0. 0.
      1.05263162e-002 0. 0. 0. 0. 0. 0. 0. 5.26315812e-003 0. 0. 0. 0.
      0. 0. 0. 0. 0. 0. 1.05263162e-002 0. 0. 0. 0. 0. 0. 0.
      5.26315812e-003 5.26315812e-003 0. 0. 0. 0. 5.26315812e-003
      5.26315812e-003 5.26315812e-003 0. 1.05263162e-002 0. 0.
      1.05263162e-002 5.26315812e-003 0. 0. 0.</_>
    <_>
      0. 0. 0. 0. 0. 0. 0. 0. 0. 0. 1.06951874e-002 0. 0.
      5.34759369e-003 0. 0. 0. 0. 0. 0. 0. 0. 0. 0. 0. 0. 0. 0. 0. 0. 0.
      0. 0. 0. 0. 0. 5.34759369e-003 0. 0. 0. 0. 0. 0. 0. 0. 0. 0.
      5.34759369e-003 0. 0. 5.34759369e-003 0. 5.34759369e-003 0. 0. 0.
      1.06951874e-002 5.34759369e-003 0. 5.34759369e-003 0. 0. 0. 0. 0.
      0. 0. 0. 5.34759369e-003 0. 0. 0. 0. 0. 0. 5.34759369e-003 0. 0.
      5.34759369e-003 0. 0. 0. 5.34759369e-003 0. 0. 0. 0.
      1.06951874e-002 0. 0. 0. 0. 0. 0. 0. 0. 0. 0. 0. 5.34759369e-003
      0. 0. 0. 0. 0. 0. 0. 0. 0. 0. 0. 5.34759369e-003 0. 0. 0. 0. 0. 0.
      0. 0. 0. 0. 5.34759369e-003 0. 0. 5.34759369e-003 5.34759369e-003
      0. 0. 0. 0. 5.34759369e-003 0. 5.34759369e-003 5.34759369e-003 0.
      0. 0. 0. 0. 0. 0. 0. 0. 0. 0. 0. 0. 5.34759369e-003 0.
      5.34759369e-003 0. 0. 0. 0. 0. 0. 0. 0. 0. 0. 0. 0. 0. 0. 0. 0. 0.
      5.34759369e-003 5.34759369e-003 0. 0. 0. 5.34759369e-003 0.
      5.34759369e-003 0. 0. 0. 0. 0. 0. 0. 5.34759369e-003 0. 0.
      5.34759369e-003 0. 0. 5.34759369e-003 5.34759369e-003 0. 0.
      5.34759369e-003 0. 5.34759369e-003 0. 0. 0. 0. 0. 0. 0. 0. 0. 0.
      0. 0. 0. 0. 0. 0. 5.34759369e-003 0. 0. 0. 0. 0. 0. 0.
      5.34759369e-003 0. 5.34759369e-003 0. 5.34759369e-003 0. 0. 0. 0.
      0. 0. 0. 0. 0. 0. 0. 0. 0. 0. 0. 0. 0. 5.34759369e-003
      5.34759369e-003 5.34759369e-003 0. 0. 0. 0. 0. 0. 0. 0. 0. 0. 0.
      0. 0. 0. 0. 0. 0. 0. 0. 0. 0. 5.34759369e-003 0. 0. 0. 0. 0.
      5.34759369e-003 0. 0. 0. 0. 0. 0. 0. 0. 0. 0. 0. 0. 0. 0.
      5.34759369e-003 0. 0. 0. 0. 0. 5.34759369e-003 0. 0. 0. 0. 0. 0.
      0. 0. 0. 0. 0. 0. 0. 0. 5.34759369e-003 5.34759369e-003 0. 0. 0.
      0. 0. 0. 5.34759369e-003 0. 0. 5.34759369e-003 5.34759369e-003 0.
      0. 5.34759369e-003 0. 0. 0. 0. 0. 0. 5.34759369e-003
      5.34759369e-003 1.06951874e-002 0. 0. 5.34759369e-003 0. 0. 0. 0.
      0. 0. 0. 0. 0. 5.34759369e-003 0. 0. 0. 0. 0. 0. 0. 0. 0. 0. 0. 0.
      0. 1.60427801e-002 0. 5.34759369e-003 0. 0. 1.06951874e-002 0.
      5.34759369e-003 0. 0. 0. 0. 0. 0. 5.34759369e-003 0. 0. 0. 0. 0.
      1.06951874e-002 0. 0. 5.34759369e-003 0. 1.60427801e-002 0.
      5.34759369e-003 0. 0. 0. 0. 0. 0. 0. 0. 0. 0. 5.34759369e-003 0.
      0. 0. 5.34759369e-003 0. 0. 0. 0. 0. 5.34759369e-003 0. 0. 0. 0.
      5.34759369e-003 0. 0. 0. 0. 0. 0. 0. 5.34759369e-003
      5.34759369e-003 0. 0. 0. 0. 5.34759369e-003 5.34759369e-003 0. 0.
      0. 0. 5.34759369e-003 0. 0. 0. 0. 5.34759369e-003 1.06951874e-002
      0. 0. 0. 0. 0. 0. 0. 0. 0. 0. 0. 0. 0. 5.34759369e-003 0. 0. 0. 0.
      0. 0. 0. 0. 0. 0. 1.06951874e-002 5.34759369e-003 0. 0. 0. 0. 0.
      0. 0. 0. 0. 0. 0. 0. 0. 0. 0. 0. 0. 0. 0. 0. 5.34759369e-003 0. 0.
      0. 0. 0. 0. 5.34759369e-003 0. 0. 0. 0. 5.34759369e-003 0. 0. 0.
      0. 0. 0. 0. 0. 0. 0. 0. 5.34759369e-003 0. 0. 0. 0. 0. 0. 0. 0.
      1.06951874e-002 0. 5.34759369e-003 0. 5.34759369e-003 0.
      5.34759369e-003 0. 0. 0. 5.34759369e-003 0. 0. 0. 5.34759369e-003
      0. 0. 0. 0. 0. 0. 0. 0. 5.34759369e-003 0. 0. 0. 0. 0. 0. 0. 0. 0.
      0. 0. 0. 0. 0. 0. 0. 0. 0. 5.34759369e-003 0. 0. 0. 0. 0. 0.
      5.34759369e-003 0. 0. 0. 0. 0. 5.34759369e-003 5.34759369e-003 0.
      0. 5.34759369e-003 0. 0. 0. 0. 0. 0. 0. 0. 0. 0. 0. 0. 0. 0. 0. 0.
      0. 0. 5.34759369e-003 0. 0. 0. 0. 0. 0. 0. 0. 0. 0. 0.
      5.34759369e-003 0. 0. 1.06951874e-002 0. 5.34759369e-003 0.
      1.06951874e-002 0. 0. 0. 0. 0. 0. 0. 0. 0. 5.34759369e-003
      5.34759369e-003 0. 0. 5.34759369e-003 0. 0. 0. 5.34759369e-003 0.
      0. 0. 0. 0. 0. 0. 0. 0. 0. 0. 0. 5.34759369e-003 0. 0. 0. 0. 0. 0.
      0. 0. 0. 0. 0. 0. 0. 0. 0. 0. 5.34759369e-003 0. 0. 0.
      1.06951874e-002 0. 0. 5.34759369e-003 0. 0. 5.34759369e-003 0. 0.
      0. 0. 0. 0. 0. 0. 5.34759369e-003 0. 0. 5.34759369e-003
      5.34759369e-003 0. 0. 0. 0. 0. 0. 0. 1.06951874e-002
      1.06951874e-002 0. 5.34759369e-003 0. 0. 0. 0. 0. 1.06951874e-002
      0. 0. 1.06951874e-002 0. 5.34759369e-003 0. 0. 0. 1.06951874e-002
      0. 0. 5.34759369e-003 0. 0. 0. 5.34759369e-003 0. 0. 0. 0. 0. 0.
      0. 0. 0. 0. 0. 0. 0. 0. 0. 0. 5.34759369e-003 0. 0. 0. 0. 0. 0. 0.
      0. 0. 0. 0. 5.34759369e-003 5.34759369e-003 5.34759369e-003 0. 0.
      0. 1.06951874e-002 0. 0. 0. 0. 0. 0. 1.06951874e-002
      5.34759369e-003 0. 0. 0. 0. 0. 5.34759369e-003 0. 0. 0. 0. 0. 0.
      5.34759369e-003 0. 5.34759369e-003 5.34759369e-003 0. 0. 0. 0. 0.
      0. 0. 0. 0. 0. 0. 0. 0. 0. 0. 0. 0. 0. 5.34759369e-003 0. 0. 0. 0.
      0. 5.34759369e-003 0. 1.06951874e-002 0. 0. 0. 0. 0. 0. 0. 0. 0.
      0. 0. 0. 0. 0. 0. 0. 0. 5.34759369e-003 5.34759369e-003 0.
      5.34759369e-003 0. 0. 0. 0. 0. 0. 0. 0. 0. 0. 0. 0. 0. 0.
      5.34759369e-003 0. 5.34759369e-003 0. 0. 0. 0. 0. 0. 0. 0. 0. 0.
      0. 0. 0. 5.34759369e-003 0. 0. 0. 0. 0. 0. 5.34759369e-003
      5.34759369e-003 0. 5.34759369e-003 0. 5.34759369e-003
      1.06951874e-002 0. 0. 0. 5.34759369e-003 0. 0. 0. 0.
      1.06951874e-002 0. 0. 5.34759369e-003 0. 0. 0. 0. 0. 0. 0. 0. 0.
      0. 0. 0. 0. 5.34759369e-003 0. 0. 0. 0. 0. 0. 0. 0. 0. 0.
      5.34759369e-003 0. 0. 0. 0. 0. 0. 0. 0. 0. 0. 0. 0.
      5.34759369e-003 0. 0. 0. 0. 0. 0. 0. 0. 0. 0. 0. 0. 0. 0. 0. 0. 0.
      0. 0. 0. 5.34759369e-003 0. 0. 0. 0. 0. 0. 0. 0. 0. 0. 0. 0. 0. 0.
      0. 5.34759369e-003 5.34759369e-003 0. 0. 0. 0. 0. 0. 0. 0.
      5.34759369e-003 0. 0. 1.06951874e-002 0. 5.34759369e-003 0. 0. 0.
      0. 0. 0. 0. 0. 0. 0. 0. 0. 0. 0. 0. 5.34759369e-003 0. 0. 0. 0.
      5.34759369e-003 0. 0. 0. 0. 0. 0.</_>
    <_>
      0. 0. 1.24223605e-002 0. 0. 0. 0. 6.21118024e-003 0. 0. 0. 0. 0.
      0. 0. 0. 0. 0. 0. 0. 0. 0. 0. 0. 1.24223605e-002 0. 0. 0. 0. 0.
      6.21118024e-003 0. 0. 0. 0. 0. 0. 0. 0. 0. 0. 6.21118024e-003 0.
      0. 0. 1.24223605e-002 0. 0. 0. 0. 0. 6.21118024e-003 0. 0. 0. 0.
      0. 0. 0. 0. 0. 0. 0. 0. 0. 0. 0. 0. 0. 0. 0. 2.48447210e-002 0. 0.
      0. 0. 0. 0. 0. 6.21118024e-003 0. 0. 0. 0. 0. 0. 6.21118024e-003
      0. 0. 1.24223605e-002 0. 0. 0. 0. 0. 6.21118024e-003 0. 0. 0. 0.
      0. 6.21118024e-003 0. 0. 0. 0. 0. 0. 0. 0. 0. 0. 6.21118024e-003
      0. 6.21118024e-003 0. 0. 0. 6.21118024e-003 0. 0. 0. 0. 0. 0. 0.
      0. 0. 0. 0. 0. 0. 0. 0. 0. 6.21118024e-003 0. 0. 0. 0. 0. 0. 0.
      6.21118024e-003 0. 0. 0. 1.24223605e-002 0. 0. 0. 0.
      6.21118024e-003 0. 0. 0. 0. 0. 6.21118024e-003 0. 0. 0. 0. 0. 0.
      0. 0. 0. 0. 0. 0. 0. 0. 0. 0. 6.21118024e-003 6.21118024e-003 0.
      0. 0. 6.21118024e-003 6.21118024e-003 0. 0. 0. 0. 0. 0. 0. 0. 0.
      0. 0. 6.21118024e-003 1.24223605e-002 6.21118024e-003 0. 0. 0. 0.
      0. 0. 0. 0. 0. 6.21118024e-003 6.21118024e-003 0. 0. 0. 0. 0. 0.
      0. 0. 0. 0. 0. 0. 1.24223605e-002 1.24223605e-002 6.21118024e-003
      0. 0. 0. 0. 0. 0. 0. 0. 0. 0. 0. 0. 0. 0. 0. 0. 0. 0. 0. 0. 0. 0.
      0. 6.21118024e-003 0. 0. 0. 0. 0. 0. 0. 0. 0. 0. 0. 0. 0. 0.
      6.21118024e-003 0. 0. 0. 0. 0. 1.24223605e-002 0. 0. 0.
      6.21118024e-003 0. 0. 0. 0. 1.24223605e-002 0. 0. 0. 0. 0. 0. 0.
      0. 0. 0. 0. 0. 0. 0. 0. 0. 0. 0. 6.21118024e-003 1.24223605e-002
      0. 0. 0. 0. 6.21118024e-003 0. 0. 0. 0. 0. 0. 0. 0. 0. 0. 0. 0. 0.
      6.21118024e-003 0. 0. 0. 0. 0. 0. 0. 0. 0. 0. 0. 0. 0.
      6.21118024e-003 0. 0. 0. 0. 0. 1.24223605e-002 0. 0. 0.
      6.21118024e-003 0. 0. 0. 0. 0. 0. 0. 0. 0. 0. 0. 0. 0. 0. 0. 0. 0.
      0. 0. 0. 6.21118024e-003 0. 6.21118024e-003 0. 6.21118024e-003 0.
      0. 0. 0. 0. 0. 0. 6.21118024e-003 0. 0. 0. 6.21118024e-003 0. 0.
      6.21118024e-003 0. 0. 6.21118024e-003 0. 0. 0. 0. 0. 0. 0. 0. 0.
      0. 0. 0. 0. 0. 0. 0. 0. 0. 0. 0. 0. 0. 0. 0. 0. 0. 0. 0. 0. 0. 0.
      0. 0. 0. 0. 0. 0. 0. 0. 0. 0. 0. 6.21118024e-003 6.21118024e-003
      6.21118024e-003 0. 0. 0. 0. 6.21118024e-003 0. 0. 0. 0. 0. 0. 0.
      0. 0. 0. 0. 6.21118024e-003 0. 0. 0. 0. 0. 0. 0. 0. 0. 0.
      1.24223605e-002 0. 0. 0. 6.21118024e-003 6.21118024e-003 0. 0. 0.
      0. 0. 0. 0. 0. 0. 0. 0. 0. 1.86335407e-002 0. 0. 0. 0. 0. 0. 0. 0.
      6.21118024e-003 0. 0. 0. 0. 6.21118024e-003 0. 0. 0. 0.
      6.21118024e-003 0. 1.24223605e-002 0. 0. 0. 6.21118024e-003 0. 0.
      0. 6.21118024e-003 0. 0. 0. 0. 6.21118024e-003 6.21118024e-003 0.
      6.21118024e-003 0. 0. 0. 0. 0. 0. 0. 0. 1.86335407e-002 0.
      6.21118024e-003 0. 0. 0. 0. 0. 0. 6.21118024e-003 0. 0. 0. 0. 0.
      0. 6.21118024e-003 0. 0. 0. 0. 0. 0. 6.21118024e-003 0. 0. 0. 0.
      0. 0. 0. 0. 0. 0. 0. 0. 0. 0. 0. 0. 0. 0. 0. 0. 0. 0. 0. 0.
      6.21118024e-003 0. 6.21118024e-003 0. 0. 0. 0. 0. 0. 0. 0. 0. 0.
      0. 0. 1.24223605e-002 0. 0. 0. 0. 0. 0. 0. 0. 0. 0.
      6.21118024e-003 0. 0. 0. 0. 0. 0. 0. 0. 6.21118024e-003 0. 0.
      6.21118024e-003 0. 0. 6.21118024e-003 0. 0. 0. 1.24223605e-002 0.
      6.21118024e-003 0. 0. 0. 0. 6.21118024e-003 0. 0. 0. 0. 0. 0. 0.
      0. 0. 0. 0. 0. 0. 0. 0. 6.21118024e-003 0. 0. 0. 0. 0. 0. 0. 0. 0.
      6.21118024e-003 0. 1.24223605e-002 0. 0. 6.21118024e-003 0. 0. 0.
      0. 6.21118024e-003 0. 0. 0. 0. 0. 0. 0. 0. 0. 0. 0.
      1.24223605e-002 0. 0. 1.24223605e-002 0. 6.21118024e-003 0. 0. 0.
      0. 0. 0. 0. 0. 0. 0. 0. 6.21118024e-003 0. 0. 0. 0. 0. 0. 0.
      6.21118024e-003 0. 0. 0. 0. 0. 0. 0. 0. 0. 0. 0. 0. 0. 0. 0. 0. 0.
      0. 0. 0. 0. 0. 0. 0. 0. 0. 0. 0. 0. 0. 0. 0. 0. 0. 0. 0. 0. 0. 0.
      0. 0. 6.21118024e-003 0. 0. 0. 6.21118024e-003 0. 0. 0. 0. 0. 0.
      0. 0. 0. 0. 0. 6.21118024e-003 6.21118024e-003 0. 0. 0.
      6.21118024e-003 0. 0. 0. 0. 6.21118024e-003 0. 0. 0. 0. 0. 0. 0.
      0. 6.21118024e-003 0. 0. 0. 0. 0. 0. 0. 0. 0. 6.21118024e-003 0.
      6.21118024e-003 0. 6.21118024e-003 0. 6.21118024e-003 0. 0. 0. 0.
      0. 0. 0. 0. 0. 6.21118024e-003 0. 0. 0. 0. 0. 0. 0.
      6.21118024e-003 0. 0. 6.21118024e-003 0. 0. 0. 0. 0.
      6.21118024e-003 0. 0. 0. 0. 6.21118024e-003 6.21118024e-003
      1.24223605e-002 6.21118024e-003 0. 0. 0. 6.21118024e-003
      6.21118024e-003 0. 0. 0. 0. 0. 0. 0. 0. 0. 6.21118024e-003 0. 0.
      0. 0. 0. 0. 0. 0. 0. 0. 6.21118024e-003 0. 0. 0. 0. 0. 0. 0. 0. 0.
      0. 0. 0. 0. 0. 0. 0. 0. 0. 0. 0. 0. 0. 0. 6.21118024e-003 0. 0. 0.
      0. 0. 0. 0. 0. 0. 6.21118024e-003 0. 6.21118024e-003 0. 0. 0.
      6.21118024e-003 0. 0. 0. 0. 6.21118024e-003 0. 0. 0. 0. 0. 0. 0.
      0. 0. 0. 0. 0. 0. 6.21118024e-003 0. 0. 0. 0. 0. 0.
      6.21118024e-003 0. 0. 0. 0. 0. 6.21118024e-003 0. 0.
      6.21118024e-003 0. 0. 6.21118024e-003 0. 0. 6.21118024e-003 0. 0.
      0. 0. 0. 0. 0. 0. 0. 0. 0. 0. 0. 0. 0. 0. 0. 0. 0. 6.21118024e-003
      0. 0. 0. 0. 0. 0. 0. 0. 0. 6.21118024e-003 0. 0. 0. 0. 0. 0. 0. 0.
      0. 0. 0. 0. 0. 0. 6.21118024e-003 0. 0. 6.21118024e-003 0. 0. 0.
      0. 0. 6.21118024e-003 0. 0. 0. 0. 0. 0. 0. 0. 0. 0. 0. 0. 0. 0. 0.
      0. 0. 0. 0.</_>
    <_>
      0. 6.32911408e-003 0. 0. 0. 0. 0. 0. 0. 0. 0. 0. 0.
      6.32911408e-003 0. 0. 6.32911408e-003 0. 6.32911408e-003 0. 0.
      6.32911408e-003 0. 6.32911408e-003 0. 0. 0. 0. 0. 0. 0. 0. 0. 0.
      0. 0. 6.32911408e-003 0. 0. 0. 0. 0. 6.32911408e-003 0.
      6.32911408e-003 6.32911408e-003 0. 6.32911408e-003 0. 0. 0. 0. 0.
      1.26582282e-002 0. 0. 0. 6.32911408e-003 6.32911408e-003 0. 0. 0.
      0. 0. 0. 0. 0. 0. 0. 0. 0. 0. 0. 0. 6.32911408e-003 0. 0. 0.
      1.89873427e-002 0. 0. 0. 0. 0. 0. 0. 0. 0. 0. 0. 0.
      6.32911408e-003 0. 0. 0. 0. 0. 0. 0. 0. 0. 0. 6.32911408e-003 0.
      6.32911408e-003 0. 0. 0. 0. 0. 0. 0. 0. 0. 0. 6.32911408e-003 0.
      0. 6.32911408e-003 0. 0. 0. 0. 0. 6.32911408e-003 0. 0. 0.
      6.32911408e-003 0. 0. 0. 0. 0. 0. 0. 0. 0. 6.32911408e-003 0. 0.
      0. 0. 0. 0. 0. 0. 0. 0. 6.32911408e-003 0. 0. 0. 0.
      6.32911408e-003 0. 0. 0. 0. 0. 0. 0. 6.32911408e-003 0. 0. 0. 0.
      1.26582282e-002 0. 0. 0. 0. 6.32911408e-003 6.32911408e-003 0. 0.
      0. 0. 0. 0. 0. 0. 0. 0. 0. 0. 0. 0. 0. 0. 0. 0. 0. 0.
      1.26582282e-002 6.32911408e-003 0. 0. 0. 0. 0. 0. 0. 0. 0. 0. 0.
      0. 0. 0. 0. 0. 0. 0. 0. 0. 6.32911408e-003 0. 0. 0. 0. 0. 0. 0.
      6.32911408e-003 0. 0. 0. 6.32911408e-003 0. 0. 0. 0. 0. 0.
      6.32911408e-003 0. 0. 0. 0. 6.32911408e-003 0. 0. 0. 0.
      6.32911408e-003 0. 0. 0. 0. 0. 6.32911408e-003 0. 0. 0. 0. 0. 0.
      0. 0. 0. 0. 0. 6.32911408e-003 0. 6.32911408e-003 0. 0. 0. 0.
      6.32911408e-003 0. 0. 0. 0. 6.32911408e-003 0. 0. 0. 0. 0. 0. 0.
      0. 0. 0. 0. 0. 0. 0. 0. 0. 0. 0. 0. 0. 0. 0. 0. 0. 0. 0. 0. 0. 0.
      0. 0. 0. 0. 0. 0. 0. 0. 0. 0. 6.32911408e-003 0. 0. 0. 0. 0. 0. 0.
      0. 0. 0. 0. 6.32911408e-003 0. 0. 0. 0. 0. 0. 0. 0. 0. 0.
      1.26582282e-002 0. 0. 0. 0. 0. 0. 0. 6.32911408e-003 0. 0. 0. 0.
      0. 0. 0. 0. 0. 0. 0. 0. 0. 6.32911408e-003 0. 0. 0. 0. 0.
      6.32911408e-003 0. 0. 1.26582282e-002 0. 0. 0. 0. 0. 0. 0. 0. 0.
      0. 0. 0. 0. 0. 6.32911408e-003 0. 0. 0. 0. 0. 0. 0. 0. 0. 0. 0. 0.
      0. 0. 6.32911408e-003 0. 6.32911408e-003 0. 0. 0. 0. 0. 0. 0. 0.
      0. 0. 0. 0. 0. 0. 0. 0. 0. 0. 0. 0. 0. 6.32911408e-003 0. 0. 0. 0.
      0. 0. 0. 0. 0. 0. 6.32911408e-003 0. 0. 0. 0. 0. 0. 0.
      6.32911408e-003 0. 0. 0. 1.26582282e-002 0. 0. 6.32911408e-003 0.
      0. 0. 0. 1.26582282e-002 0. 0. 0. 0. 6.32911408e-003 0. 0.
      1.89873427e-002 0. 0. 0. 0. 0. 0. 0. 0. 6.32911408e-003 0. 0. 0.
      0. 0. 0. 0. 0. 0. 0. 0. 0. 0. 0. 0. 0. 0. 0. 0. 6.32911408e-003
      1.26582282e-002 0. 0. 0. 0. 0. 0. 0. 0. 6.32911408e-003 0. 0. 0.
      0. 0. 0. 0. 0. 6.32911408e-003 0. 0. 0. 0. 0. 0. 0. 0. 0. 0. 0. 0.
      0. 6.32911408e-003 0. 0. 0. 0. 0. 0. 0. 0. 0. 0. 0. 0. 0. 0. 0. 0.
      0. 0. 0. 6.32911408e-003 0. 0. 0. 0. 0. 6.32911408e-003 0. 0.
      6.32911408e-003 0. 0. 0. 0. 0. 1.26582282e-002 0. 0. 0. 0. 0. 0.
      0. 6.32911408e-003 0. 6.32911408e-003 0. 0. 0. 0. 0. 0. 0. 0. 0.
      0. 0. 6.32911408e-003 0. 0. 0. 0. 0. 0. 0. 0. 0. 0. 0. 0. 0. 0. 0.
      0. 0. 0. 0. 0. 0. 0. 0. 6.32911408e-003 1.26582282e-002 0. 0. 0.
      0. 0. 0. 0. 0. 0. 0. 0. 0. 0. 0. 0. 0. 0. 0. 0. 0. 0. 0. 0. 0. 0.
      0. 0. 0. 0. 0. 0. 0. 0. 0. 6.32911408e-003 6.32911408e-003 0. 0.
      6.32911408e-003 0. 0. 0. 0. 0. 6.32911408e-003 0. 0. 0. 0. 0. 0.
      0. 0. 6.32911408e-003 0. 0. 0. 0. 0. 0. 0. 0. 0. 0. 0. 0. 0. 0. 0.
      0. 0. 0. 0. 0. 0. 6.32911408e-003 0. 0. 6.32911408e-003 0. 0. 0.
      0. 0. 0. 0. 0. 6.32911408e-003 0. 0. 0. 0. 0. 0. 0. 0. 0. 0.
      6.32911408e-003 6.32911408e-003 6.32911408e-003 0. 6.32911408e-003
      0. 0. 1.26582282e-002 0. 0. 0. 0. 0. 0. 0. 0. 0. 0. 0. 0. 0. 0. 0.
      0. 0. 0. 0. 6.32911408e-003 0. 0. 6.32911408e-003 0. 0. 0. 0. 0.
      0. 0. 6.32911408e-003 0. 0. 0. 0. 0. 0. 0. 6.32911408e-003 0. 0.
      0. 0. 0. 0. 0. 0. 0. 6.32911408e-003 0. 0. 0. 0. 0. 0. 0.
      6.32911408e-003 0. 0. 0. 0. 0. 6.32911408e-003 0. 6.32911408e-003
      1.26582282e-002 0. 0. 0. 0. 0. 0. 0. 0. 0. 0. 0. 0.
      6.32911408e-003 0. 0. 0. 1.26582282e-002 0. 0. 0. 0. 0. 0.
      6.32911408e-003 0. 0. 0. 0. 6.32911408e-003 0. 0. 0. 0. 0.
      6.32911408e-003 0. 0. 0. 0. 0. 0. 0. 0. 0. 0. 0. 0. 0.
      1.89873427e-002 0. 0. 6.32911408e-003 6.32911408e-003 0. 0. 0. 0.
      0. 0. 0. 0. 0. 0. 0. 0. 0. 0. 0. 0. 0. 0. 0. 6.32911408e-003 0.
      6.32911408e-003 0. 0. 0. 0. 0. 0. 0. 0. 0. 0. 0. 0. 0. 0.
      6.32911408e-003 6.32911408e-003 0. 0. 0. 2.53164563e-002 0. 0. 0.
      6.32911408e-003 0. 1.26582282e-002 0. 0. 6.32911408e-003 0. 0. 0.
      0. 0. 6.32911408e-003 0. 0. 0. 0. 0. 0. 6.32911408e-003
      6.32911408e-003 0. 0. 0. 0. 0. 0. 0. 6.32911408e-003 0. 0.
      6.32911408e-003 0. 0. 0. 0. 6.32911408e-003 0. 0. 0. 0. 0. 0.
      6.32911408e-003 0. 0. 0. 0. 0. 0. 0. 6.32911408e-003
      6.32911408e-003 0. 0. 0. 0. 6.32911408e-003 0. 0. 0. 0.
      6.32911408e-003 0. 0. 0. 0. 0. 0. 6.32911408e-003 0. 0. 0. 0. 0.
      0. 0. 0. 0. 1.26582282e-002 0. 0. 0. 0. 0. 0. 0. 0.
      6.32911408e-003 0. 0. 0. 6.32911408e-003 0. 1.26582282e-002 0. 0.
      0. 0. 0. 0. 0. 0. 0. 0. 0. 0. 0. 6.32911408e-003 0. 0. 0. 0. 0. 0.
      6.32911408e-003 0. 6.32911408e-003 0. 0. 0. 0. 0. 0.</_>
    <_>
      0. 0. 6.66666683e-003 0. 0. 0. 0. 0. 6.66666683e-003 0.
      6.66666683e-003 0. 0. 0. 6.66666683e-003 0. 0. 0. 0. 0.
      6.66666683e-003 0. 0. 0. 0. 0. 0. 0. 0. 0. 0. 0. 0. 0. 0. 0. 0. 0.
      0. 0. 0. 0. 0. 0. 0. 6.66666683e-003 6.66666683e-003 0. 0. 0. 0.
      6.66666683e-003 0. 0. 0. 0. 0. 0. 0. 6.66666683e-003 0. 0.
      6.66666683e-003 6.66666683e-003 6.66666683e-003 0. 0. 0. 0. 0. 0.
      0. 0. 0. 6.66666683e-003 6.66666683e-003 0. 6.66666683e-003 0. 0.
      0. 0. 0. 0. 0. 0. 0. 0. 0. 0. 6.66666683e-003 6.66666683e-003 0.
      6.66666683e-003 0. 6.66666683e-003 6.66666683e-003 0. 0. 0. 0. 0.
      0. 0. 0. 0. 6.66666683e-003 0. 0. 0. 0. 0. 1.33333337e-002 0.
      1.33333337e-002 0. 0. 0. 0. 0. 6.66666683e-003 0. 0. 0. 0. 0. 0.
      0. 0. 0. 0. 0. 6.66666683e-003 0. 0. 0. 0. 0. 0. 0. 0. 0.
      2.66666673e-002 0. 0. 0. 0. 6.66666683e-003 0. 0. 0. 0. 0. 0.
      6.66666683e-003 0. 1.33333337e-002 0. 0. 0. 6.66666683e-003 0. 0.
      0. 0. 0. 0. 0. 0. 0. 0. 6.66666683e-003 0. 6.66666683e-003 0. 0.
      0. 6.66666683e-003 0. 0. 0. 0. 6.66666683e-003 0. 0. 0. 0. 0. 0.
      0. 0. 0. 0. 6.66666683e-003 0. 0. 6.66666683e-003 6.66666683e-003
      6.66666683e-003 0. 0. 0. 0. 0. 0. 6.66666683e-003 0. 0. 0. 0. 0.
      0. 0. 0. 0. 0. 0. 6.66666683e-003 0. 0. 0. 0. 0. 0.
      6.66666683e-003 0. 0. 0. 0. 0. 0. 0. 0. 0. 0. 0. 0. 0. 0. 0. 0. 0.
      0. 0. 0. 0. 0. 0. 0. 0. 6.66666683e-003 0. 0. 0. 6.66666683e-003
      6.66666683e-003 0. 0. 0. 0. 0. 0. 0. 0. 0. 0. 0. 0. 0. 0. 0. 0. 0.
      0. 0. 0. 0. 0. 0. 0. 0. 0. 0. 0. 6.66666683e-003 0. 0. 0. 0. 0. 0.
      0. 0. 0. 0. 6.66666683e-003 0. 0. 0. 0. 6.66666683e-003 0. 0. 0.
      0. 0. 0. 0. 0. 0. 0. 0. 0. 0. 0. 0. 0. 0. 0. 0. 0. 0. 0. 0. 0. 0.
      0. 6.66666683e-003 0. 0. 6.66666683e-003 0. 0. 0. 0. 0. 0. 0. 0.
      0. 6.66666683e-003 0. 0. 0. 0. 0. 0. 0. 0. 0. 0. 0. 0. 0. 0.
      1.33333337e-002 6.66666683e-003 0. 0. 1.33333337e-002 0. 0. 0. 0.
      0. 0. 0. 6.66666683e-003 0. 0. 0. 0. 0. 0. 0. 0. 1.33333337e-002
      0. 0. 0. 0. 0. 0. 6.66666683e-003 0. 0. 6.66666683e-003 0. 0. 0.
      6.66666683e-003 0. 0. 0. 0. 0. 0. 6.66666683e-003 0. 0. 0. 0. 0.
      0. 0. 6.66666683e-003 0. 0. 0. 0. 0. 0. 0. 0. 0. 0. 0. 0. 0. 0. 0.
      0. 0. 0. 0. 0. 0. 6.66666683e-003 0. 0. 0. 0. 0. 0. 0. 0.
      6.66666683e-003 1.33333337e-002 0. 0. 0. 0. 0. 0. 0. 0. 0. 0. 0.
      0. 0. 0. 0. 0. 6.66666683e-003 0. 0. 0. 0. 0. 0. 0. 0. 0. 0. 0. 0.
      0. 0. 0. 0. 0. 0. 0. 0. 0. 0. 0. 0. 0. 0. 0. 6.66666683e-003 0. 0.
      0. 0. 0. 0. 0. 0. 6.66666683e-003 6.66666683e-003 0. 0. 0. 0. 0.
      0. 0. 0. 0. 0. 0. 0. 0. 0. 0. 0. 0. 0. 0. 0. 0. 0. 1.33333337e-002
      0. 0. 6.66666683e-003 0. 0. 0. 0. 1.33333337e-002 0. 0. 0. 0. 0.
      0. 0. 0. 0. 0. 0. 0. 0. 0. 0. 0. 0. 0. 0. 0. 0. 1.33333337e-002 0.
      0. 0. 6.66666683e-003 0. 0. 0. 0. 0. 0. 0. 0. 0. 6.66666683e-003
      0. 6.66666683e-003 0. 0. 0. 0. 0. 0. 0. 6.66666683e-003 0. 0.
      6.66666683e-003 0. 0. 1.33333337e-002 0. 0. 0. 0. 0. 0. 0. 0. 0.
      0. 0. 0. 0. 6.66666683e-003 0. 0. 0. 0. 0. 6.66666683e-003 0. 0.
      0. 0. 0. 0. 0. 6.66666683e-003 0. 0. 0. 6.66666683e-003 0. 0. 0.
      0. 0. 6.66666683e-003 0. 0. 0. 0. 0. 0. 0. 0. 0. 0. 0. 0. 0. 0. 0.
      6.66666683e-003 0. 0. 0. 0. 0. 6.66666683e-003 0. 6.66666683e-003
      0. 0. 0. 0. 0. 0. 6.66666683e-003 0. 0. 0. 0. 6.66666683e-003 0.
      6.66666683e-003 0. 0. 0. 0. 6.66666683e-003 0. 6.66666683e-003 0.
      0. 6.66666683e-003 0. 0. 0. 0. 0. 0. 0. 6.66666683e-003 0. 0. 0.
      1.33333337e-002 0. 6.66666683e-003 0. 0. 6.66666683e-003 0. 0. 0.
      6.66666683e-003 0. 0. 0. 0. 0. 0. 6.66666683e-003 0. 0. 0. 0. 0.
      0. 0. 6.66666683e-003 0. 0. 6.66666683e-003 0. 0. 0. 0. 0. 0. 0.
      0. 0. 0. 6.66666683e-003 0. 0. 0. 0. 0. 0. 0. 0. 0.
      6.66666683e-003 0. 0. 0. 0. 0. 0. 0. 0. 0. 0. 6.66666683e-003 0.
      0. 0. 0. 0. 0. 0. 0. 0. 0. 0. 6.66666683e-003 0. 0. 0. 0.
      1.33333337e-002 0. 0. 6.66666683e-003 0. 6.66666683e-003
      6.66666683e-003 0. 0. 0. 0. 0. 0. 0. 6.66666683e-003 0. 0. 0. 0.
      0. 6.66666683e-003 0. 0. 0. 0. 0. 0. 0. 0. 0. 0. 0. 0. 0. 0. 0. 0.
      0. 0. 0. 0. 0. 0. 0. 0. 0. 0. 0. 0. 0. 0. 0. 0. 0. 0. 0. 0. 0. 0.
      0. 0. 0. 0. 0. 0. 0. 0. 6.66666683e-003 0. 0. 0. 0. 0. 0.
      6.66666683e-003 0. 0. 1.33333337e-002 0. 0. 0. 0. 0. 0. 0. 0.
      6.66666683e-003 0. 0. 6.66666683e-003 0. 0. 0. 0. 0. 0.
      6.66666683e-003 0. 0. 0. 6.66666683e-003 6.66666683e-003 0. 0.
      6.66666683e-003 0. 0. 1.33333337e-002 6.66666683e-003 0. 0. 0. 0.
      0. 0. 0. 0. 6.66666683e-003 0. 0. 0. 0. 0. 6.66666683e-003 0. 0.
      0. 0. 0. 0. 0. 0. 0. 0. 0. 0. 0. 0. 0. 0. 0. 0. 0. 0. 0. 0. 0. 0.
      0. 0. 0. 0. 0. 0. 0. 0. 6.66666683e-003 0. 0. 0. 0. 0. 0. 0. 0. 0.
      0. 0. 0. 0. 0. 0. 0. 0. 0. 0. 0. 0. 0. 0. 0. 0. 0. 0. 0. 0. 0. 0.
      0. 6.66666683e-003 0. 0. 6.66666683e-003 0. 0. 0. 0. 0. 0. 0. 0.
      0. 0. 0. 6.66666683e-003 0. 0. 0. 6.66666683e-003 0. 0. 0.
      6.66666683e-003 0. 0. 0. 0. 0. 6.66666683e-003 6.66666683e-003 0.
      0. 0. 0. 0. 0. 0. 0. 0. 0. 0. 6.66666683e-003 0. 0. 0. 0. 0. 0. 0.
      0. 6.66666683e-003 0. 0. 0. 0. 0. 0. 0. 0. 0. 0.</_>
    <_>
      0. 0. 8.77192989e-003 0. 0. 0. 0. 0. 8.77192989e-003 0. 0. 0. 0.
      0. 0. 0. 0. 0. 8.77192989e-003 0. 0. 0. 0. 0. 0. 0. 0. 0. 0. 0. 0.
      0. 0. 0. 8.77192989e-003 0. 0. 0. 0. 0. 0. 0. 0. 0. 0.
      8.77192989e-003 0. 0. 0. 0. 0. 0. 0. 0. 0. 0. 0. 8.77192989e-003
      8.77192989e-003 0. 0. 0. 0. 0. 0. 0. 0. 0. 0. 0. 0. 0. 0. 0. 0. 0.
      0. 0. 0. 0. 0. 0. 0. 0. 0. 8.77192989e-003 0. 0. 0. 0. 0. 0. 0. 0.
      0. 8.77192989e-003 1.75438598e-002 0. 0. 0. 0. 0. 0. 0. 0. 0. 0.
      0. 0. 0. 0. 0. 0. 0. 0. 0. 0. 0. 0. 0. 0. 0. 0. 0. 0. 0. 0. 0. 0.
      0. 0. 0. 0. 0. 0. 0. 0. 0. 0. 0. 0. 0. 0. 0. 0. 0. 0. 0. 0. 0. 0.
      0. 0. 0. 0. 0. 0. 0. 0. 0. 0. 0. 8.77192989e-003 0. 0.
      8.77192989e-003 0. 0. 0. 0. 0. 0. 8.77192989e-003 0.
      8.77192989e-003 0. 8.77192989e-003 0. 0. 0. 0. 0. 0. 0. 0. 0. 0.
      8.77192989e-003 0. 0. 0. 8.77192989e-003 8.77192989e-003 0. 0. 0.
      0. 0. 0. 0. 0. 0. 0. 0. 0. 0. 0. 0. 0. 0. 0. 0. 0. 0. 0. 0.
      8.77192989e-003 0. 0. 0. 0. 0. 0. 0. 0. 8.77192989e-003 0. 0. 0.
      0. 0. 0. 0. 0. 0. 0. 0. 0. 0. 0. 0. 0. 0. 8.77192989e-003 0.
      8.77192989e-003 0. 0. 0. 0. 0. 0. 8.77192989e-003 0. 0. 0. 0. 0.
      0. 0. 0. 0. 0. 0. 0. 0. 8.77192989e-003 0. 0. 0. 0. 0. 0. 0. 0. 0.
      0. 0. 0. 0. 0. 0. 0. 0. 0. 0. 0. 0. 0. 0. 0. 8.77192989e-003 0. 0.
      0. 0. 0. 0. 0. 8.77192989e-003 0. 0. 0. 0. 0. 0. 0. 0. 0. 0. 0. 0.
      8.77192989e-003 0. 0. 0. 0. 0. 0. 0. 0. 0. 0. 0. 0. 0. 0.
      8.77192989e-003 0. 0. 0. 0. 0. 0. 0. 0. 0. 0. 0. 0.
      8.77192989e-003 0. 0. 8.77192989e-003 8.77192989e-003 0. 0. 0. 0.
      0. 0. 0. 0. 0. 0. 0. 0. 0. 0. 0. 0. 0. 0. 0. 0. 0. 0. 0.
      8.77192989e-003 0. 0. 0. 0. 0. 0. 0. 0. 0. 0. 0. 0. 0. 0. 0. 0. 0.
      8.77192989e-003 0. 0. 0. 0. 8.77192989e-003 0. 8.77192989e-003 0.
      8.77192989e-003 0. 0. 0. 0. 0. 0. 0. 0. 0. 0. 0. 0. 0. 0. 0.
      8.77192989e-003 0. 0. 0. 8.77192989e-003 0. 0. 0. 0.
      8.77192989e-003 0. 0. 0. 0. 0. 0. 0. 0. 0. 0. 0. 8.77192989e-003
      0. 0. 8.77192989e-003 1.75438598e-002 0. 0. 0. 8.77192989e-003 0.
      0. 0. 0. 8.77192989e-003 0. 0. 0. 0. 0. 0. 0. 0. 0. 0. 0. 0.
      1.75438598e-002 0. 0. 0. 8.77192989e-003 8.77192989e-003 0. 0. 0.
      0. 0. 8.77192989e-003 0. 0. 8.77192989e-003 0. 0. 0. 0. 0. 0. 0.
      0. 0. 0. 0. 0. 0. 0. 0. 0. 0. 0. 0. 8.77192989e-003 0. 0. 0. 0. 0.
      0. 0. 0. 8.77192989e-003 0. 0. 0. 0. 0. 0. 0. 8.77192989e-003 0.
      0. 0. 0. 8.77192989e-003 0. 0. 0. 8.77192989e-003 0. 0. 0. 0. 0.
      8.77192989e-003 0. 0. 8.77192989e-003 8.77192989e-003 0. 0. 0. 0.
      0. 0. 0. 0. 0. 0. 0. 0. 0. 0. 0. 0. 0. 0. 0. 0. 0. 0. 0. 0.
      8.77192989e-003 0. 0. 0. 0. 0. 0. 8.77192989e-003 0.
      1.75438598e-002 0. 0. 0. 0. 0. 0. 0. 0. 8.77192989e-003 0. 0. 0.
      0. 0. 0. 0. 0. 0. 0. 0. 0. 0. 0. 0. 0. 0. 0. 0. 0. 0. 0. 0. 0. 0.
      0. 0. 0. 8.77192989e-003 8.77192989e-003 0. 0. 0. 8.77192989e-003
      0. 0. 0. 0. 0. 8.77192989e-003 0. 0. 0. 0. 0. 0. 0. 0. 0. 0. 0. 0.
      0. 0. 0. 0. 0. 0. 8.77192989e-003 0. 0. 0. 0. 0. 0. 0. 0. 0. 0. 0.
      0. 0. 0. 0. 0. 0. 0. 0. 8.77192989e-003 0. 0. 0. 0. 0. 0. 0. 0.
      8.77192989e-003 0. 0. 0. 0. 0. 0. 1.75438598e-002 0. 0. 0. 0. 0.
      0. 0. 0. 0. 0. 8.77192989e-003 0. 8.77192989e-003 0. 0. 0. 0. 0.
      0. 0. 0. 0. 0. 0. 0. 0. 0. 0. 0. 0. 0. 0. 0. 0. 0. 0. 0.
      8.77192989e-003 0. 0. 0. 0. 8.77192989e-003 0. 0. 0. 0. 0. 0. 0.
      0. 8.77192989e-003 0. 0. 0. 0. 0. 0. 0. 0. 0. 0. 0. 0. 0. 0. 0. 0.
      0. 0. 0. 0. 0. 0. 0. 0. 8.77192989e-003 0. 0. 0. 1.75438598e-002
      0. 0. 0. 8.77192989e-003 1.75438598e-002 0. 0. 2.63157897e-002 0.
      0. 0. 0. 0. 0. 8.77192989e-003 0. 0. 0. 0. 0. 0. 0. 0. 0. 0. 0. 0.
      0. 0. 0. 8.77192989e-003 0. 0. 0. 0. 0. 0. 0. 0. 0. 0. 0. 0. 0.
      8.77192989e-003 0. 0. 0. 0. 0. 0. 0. 0. 0. 0. 0. 0. 0. 0. 0. 0. 0.
      8.77192989e-003 0. 0. 0. 0. 0. 0. 0. 0. 0. 0. 0. 0. 0. 0. 0. 0. 0.
      0. 0. 0. 0. 8.77192989e-003 0. 0. 0. 8.77192989e-003 0. 0. 0. 0.
      0. 0. 0. 0. 0. 0. 0. 8.77192989e-003 0. 0. 8.77192989e-003 0. 0.
      0. 0. 8.77192989e-003 0. 0. 0. 0. 0. 0. 0. 0. 0. 0. 0. 0. 0. 0. 0.
      0. 0. 0. 0. 0. 0. 0. 0. 0. 0. 0. 0. 0. 0. 0. 8.77192989e-003 0. 0.
      0. 8.77192989e-003 0. 0. 0. 0. 0. 0. 0. 8.77192989e-003 0. 0. 0.
      0. 0. 0. 0. 0. 8.77192989e-003 0. 0. 0. 0. 0. 0. 0. 0.
      8.77192989e-003 0. 8.77192989e-003 0. 0. 0. 0. 0. 0. 0. 0. 0. 0.
      0. 0. 0. 8.77192989e-003 0. 0. 0. 0. 0. 0. 0. 1.75438598e-002 0.
      0. 0. 8.77192989e-003 0. 0. 0. 0. 0. 0. 0. 0. 0. 0. 0. 0. 0. 0. 0.
      0. 0. 0. 8.77192989e-003 0. 0. 0. 8.77192989e-003 0. 0. 0. 0. 0.
      0. 0. 0. 0. 0. 0. 8.77192989e-003 0. 8.77192989e-003 0. 0. 0. 0.
      0. 0. 0. 0. 0. 0. 0. 0. 0. 0. 0. 2.63157897e-002 0.</_>
    <_>
      0. 0. 0. 0. 0. 0. 0. 0. 0. 0. 0. 0. 0. 1.38888890e-002 0. 0. 0. 0.
      0. 0. 0. 6.94444450e-003 0. 0. 0. 0. 0. 0. 0. 0. 0. 0.
      6.94444450e-003 0. 0. 0. 0. 0. 6.94444450e-003 0. 0. 0.
      6.94444450e-003 0. 0. 0. 0. 0. 0. 0. 0. 0. 0. 0. 0. 0. 0.
      6.94444450e-003 0. 0. 0. 0. 0. 0. 0. 0. 0. 0. 0. 0. 0. 0. 0. 0. 0.
      0. 0. 0. 0. 0. 0. 0. 0. 0. 0. 0. 0. 0. 0. 0. 0. 0. 0. 0. 0. 0. 0.
      0. 0. 0. 0. 0. 0. 0. 0. 0. 0. 0. 0. 0. 0. 0. 6.94444450e-003 0. 0.
      0. 0. 0. 0. 0. 0. 6.94444450e-003 0. 0. 0. 0. 0. 0. 0. 0. 0. 0. 0.
      6.94444450e-003 0. 6.94444450e-003 0. 0. 6.94444450e-003 0. 0. 0.
      0. 0. 0. 0. 0. 0. 0. 0. 0. 0. 0. 0. 0. 0. 0. 0. 0. 0. 0. 0. 0. 0.
      0. 0. 0. 0. 6.94444450e-003 0. 0. 0. 0. 0. 0. 0. 0. 0. 0. 0. 0. 0.
      0. 6.94444450e-003 0. 0. 0. 6.94444450e-003 0. 0. 0. 0. 0. 0. 0.
      0. 0. 0. 6.94444450e-003 0. 0. 0. 0. 0. 0. 0. 0. 0. 0. 0. 0. 0.
      6.94444450e-003 0. 0. 0. 0. 0. 0. 0. 0. 6.94444450e-003
      6.94444450e-003 0. 0. 0. 0. 0. 0. 6.94444450e-003 0. 0. 0. 0.
      6.94444450e-003 0. 0. 0. 0. 0. 0. 0. 0. 0. 0. 0. 0. 0. 0. 0. 0. 0.
      0. 0. 0. 0. 0. 0. 0. 6.94444450e-003 0. 0. 6.94444450e-003 0. 0.
      0. 0. 0. 0. 0. 0. 0. 6.94444450e-003 0. 0. 1.38888890e-002 0. 0.
      0. 0. 0. 1.38888890e-002 0. 0. 1.38888890e-002 0. 0. 0. 0. 0. 0.
      0. 0. 0. 6.94444450e-003 0. 0. 0. 0. 0. 0. 0. 0. 0. 0. 0. 0.
      6.94444450e-003 0. 0. 0. 0. 0. 0. 0. 0. 0. 0. 0. 0. 0. 0. 0. 0. 0.
      0. 0. 0. 0. 0. 0. 0. 0. 0. 0. 0. 0. 0. 0. 0. 0. 0. 0. 0. 0.
      1.38888890e-002 0. 0. 0. 0. 0. 0. 0. 0. 0. 0. 0. 0. 0. 0. 0. 0. 0.
      0. 6.94444450e-003 0. 0. 6.94444450e-003 0. 0. 0. 0.
      6.94444450e-003 0. 0. 1.38888890e-002 0. 0. 0. 0. 0. 0. 0. 0.
      6.94444450e-003 0. 0. 0. 0. 0. 6.94444450e-003 0. 0. 0. 0.
      6.94444450e-003 0. 0. 0. 6.94444450e-003 0. 0. 0. 0. 0. 0. 0.
      6.94444450e-003 0. 0. 0. 0. 0. 0. 0. 0. 6.94444450e-003 0. 0. 0.
      1.38888890e-002 0. 0. 0. 0. 0. 0. 0. 0. 0. 0. 0. 0. 0.
      6.94444450e-003 0. 0. 6.94444450e-003 1.38888890e-002 0. 0. 0. 0.
      6.94444450e-003 0. 0. 0. 0. 0. 0. 0. 0. 0. 0. 0. 6.94444450e-003
      0. 0. 0. 0. 0. 0. 0. 0. 0. 0. 6.94444450e-003 0. 6.94444450e-003
      6.94444450e-003 0. 6.94444450e-003 0. 0. 0. 0. 0. 6.94444450e-003
      0. 0. 0. 0. 0. 0. 0. 0. 0. 0. 6.94444450e-003 0. 0.
      6.94444450e-003 0. 1.38888890e-002 6.94444450e-003 0. 0. 0. 0. 0.
      6.94444450e-003 0. 0. 0. 0. 6.94444450e-003 6.94444450e-003 0. 0.
      0. 0. 0. 0. 0. 0. 0. 0. 0. 0. 0. 0. 0. 0. 0. 0. 0. 0.
      6.94444450e-003 0. 0. 0. 0. 0. 0. 0. 0. 0. 0. 0. 6.94444450e-003
      0. 0. 0. 0. 0. 0. 6.94444450e-003 0. 0. 0. 0. 0. 0.
      1.38888890e-002 0. 0. 0. 0. 0. 6.94444450e-003 0. 0. 0. 0. 0. 0.
      0. 6.94444450e-003 0. 0. 0. 6.94444450e-003 0. 6.94444450e-003 0.
      0. 0. 0. 0. 0. 0. 6.94444450e-003 0. 0. 0. 0. 0. 0.
      6.94444450e-003 0. 0. 0. 0. 0. 0. 0. 0. 6.94444450e-003 0. 0.
      6.94444450e-003 0. 0. 0. 0. 0. 0. 0. 0. 0. 0. 0. 0. 0. 0. 0.
      6.94444450e-003 0. 0. 0. 0. 0. 6.94444450e-003 0. 0. 0. 0.
      6.94444450e-003 6.94444450e-003 0. 6.94444450e-003 0. 0. 0. 0.
      1.38888890e-002 0. 0. 0. 0. 0. 0. 0. 0. 0. 0. 6.94444450e-003 0.
      0. 0. 0. 0. 0. 0. 0. 0. 1.38888890e-002 0. 0. 0. 0. 0. 0. 0. 0. 0.
      0. 0. 0. 0. 6.94444450e-003 0. 0. 0. 0. 0. 0. 6.94444450e-003 0.
      0. 0. 6.94444450e-003 0. 0. 0. 6.94444450e-003 0. 0. 0. 0. 0. 0.
      0. 0. 0. 0. 0. 0. 6.94444450e-003 0. 6.94444450e-003 0. 0. 0. 0.
      0. 0. 0. 0. 6.94444450e-003 0. 0. 6.94444450e-003 0. 0. 0. 0. 0.
      0. 0. 6.94444450e-003 0. 0. 0. 0. 0. 0. 0. 0. 0. 0.
      6.94444450e-003 0. 0. 0. 0. 0. 0. 0. 0. 0. 0. 6.94444450e-003 0.
      0. 0. 0. 0. 0. 0. 0. 0. 0. 0. 0. 0. 0. 0. 6.94444450e-003 0. 0. 0.
      0. 0. 0. 0. 0. 6.94444450e-003 0. 0. 0. 6.94444450e-003 0. 0. 0.
      0. 0. 0. 6.94444450e-003 0. 0. 6.94444450e-003 0. 1.38888890e-002
      0. 0. 0. 0. 0. 0. 0. 0. 3.47222239e-002 6.94444450e-003
      1.38888890e-002 0. 0. 0. 6.94444450e-003 0. 0. 0. 0. 0. 0.
      1.38888890e-002 0. 0. 0. 0. 6.94444450e-003 6.94444450e-003 0. 0.
      0. 6.94444450e-003 0. 0. 0. 0. 0. 0. 0. 6.94444450e-003 0. 0.
      6.94444450e-003 6.94444450e-003 0. 0. 0. 0. 6.94444450e-003 0. 0.
      0. 0. 0. 0. 0. 6.94444450e-003 0. 0. 0. 0. 6.94444450e-003 0. 0.
      0. 0. 0. 6.94444450e-003 0. 6.94444450e-003 0. 0. 0. 0. 0. 0. 0.
      0. 0. 0. 0. 0. 0. 0. 0. 0. 0. 0. 0. 0. 0. 0. 0. 6.94444450e-003 0.
      0. 0. 0. 0. 0. 0. 0. 0. 0. 0. 0. 0. 0. 0. 6.94444450e-003
      6.94444450e-003 0. 0. 0. 0. 0. 0. 0. 0. 0. 0. 0. 0.
      6.94444450e-003 0. 0. 0. 0. 0. 0. 0. 0. 0. 0. 0. 0.
      6.94444450e-003 0. 0. 0. 0. 0. 0. 0. 6.94444450e-003 0. 0. 0. 0.
      6.94444450e-003 0. 0. 0. 0. 0. 0. 0. 0. 0. 0. 0. 0. 0. 0. 0. 0.
      6.94444450e-003 0. 6.94444450e-003 0. 0. 0. 0. 0. 0. 0. 0. 0. 0.
      0. 0. 0. 0. 6.94444450e-003 0. 0. 0. 0. 0. 0. 0. 0. 0. 0. 0. 0. 0.
      0. 0. 0. 1.38888890e-002 0. 6.94444450e-003 0. 0. 0. 0. 0. 0. 0.
      0. 6.94444450e-003 0. 6.94444450e-003 0. 0.</_>
    <_>
      0. 0. 0. 0. 0. 0. 6.75675692e-003 0. 0. 0. 0. 0. 0. 0. 0. 0. 0. 0.
      6.75675692e-003 0. 6.75675692e-003 0. 6.75675692e-003 0. 0. 0. 0.
      0. 0. 0. 0. 0. 0. 0. 1.35135138e-002 0. 1.35135138e-002 0. 0. 0.
      0. 0. 0. 0. 0. 0. 0. 6.75675692e-003 0. 0. 0. 0. 0. 0. 0. 0. 0. 0.
      0. 0. 0. 0. 0. 0. 0. 0. 0. 0. 6.75675692e-003 0. 0. 0. 0. 0. 0. 0.
      6.75675692e-003 0. 0. 1.35135138e-002 0. 0. 6.75675692e-003
      6.75675692e-003 0. 0. 0. 0. 0. 0. 0. 0. 0. 0. 0. 6.75675692e-003
      6.75675692e-003 0. 0. 0. 0. 0. 0. 0. 0. 0. 6.75675692e-003
      6.75675692e-003 0. 0. 0. 0. 0. 6.75675692e-003 0. 0. 0. 0. 0. 0.
      0. 0. 0. 0. 0. 0. 0. 0. 0. 0. 0. 0. 6.75675692e-003 0. 0. 0. 0. 0.
      0. 0. 0. 0. 0. 6.75675692e-003 0. 0. 0. 0. 0. 0. 0. 0. 0. 0. 0. 0.
      0. 6.75675692e-003 1.35135138e-002 0. 0. 0. 0. 0. 0. 0. 0. 0. 0.
      0. 0. 0. 0. 6.75675692e-003 0. 0. 0. 0. 0. 6.75675692e-003 0. 0.
      0. 0. 0. 0. 0. 0. 0. 0. 0. 0. 0. 0. 0. 0. 0. 0. 0. 0. 0. 0. 0. 0.
      0. 0. 0. 0. 0. 6.75675692e-003 0. 0. 0. 0. 0. 0. 6.75675692e-003
      0. 6.75675692e-003 0. 0. 0. 0. 0. 0. 0. 0. 6.75675692e-003 0. 0.
      0. 0. 0. 0. 0. 0. 0. 6.75675692e-003 0. 0. 0. 0. 0. 0. 0. 0. 0. 0.
      0. 0. 0. 0. 0. 0. 0. 0. 6.75675692e-003 0. 6.75675692e-003 0. 0.
      0. 0. 0. 0. 0. 0. 6.75675692e-003 0. 0. 6.75675692e-003 0. 0. 0.
      6.75675692e-003 0. 0. 0. 0. 0. 0. 0. 6.75675692e-003 0. 0. 0. 0.
      0. 0. 0. 0. 0. 0. 0. 0. 0. 0. 0. 0. 6.75675692e-003 0. 0. 0. 0. 0.
      0. 0. 0. 0. 6.75675692e-003 0. 0. 0. 0. 0. 0. 6.75675692e-003
      6.75675692e-003 0. 6.75675692e-003 0. 0. 0. 0. 0. 0. 0. 0.
      6.75675692e-003 0. 0. 6.75675692e-003 0. 0. 0. 0. 0. 0. 0. 0.
      6.75675692e-003 0. 6.75675692e-003 0. 6.75675692e-003 0. 0. 0. 0.
      0. 0. 6.75675692e-003 0. 0. 0. 0. 6.75675692e-003 0. 0. 0. 0. 0.
      0. 1.35135138e-002 6.75675692e-003 0. 0. 0. 0. 0. 0.
      6.75675692e-003 0. 0. 0. 6.75675692e-003 0. 0. 0. 0.
      6.75675692e-003 0. 1.35135138e-002 0. 0. 0. 0. 0. 6.75675692e-003
      0. 0. 0. 6.75675692e-003 0. 0. 0. 0. 0. 0. 0. 0. 0. 0. 0.
      6.75675692e-003 0. 0. 0. 6.75675692e-003 0. 0. 0. 0. 0. 0. 0. 0.
      0. 0. 0. 0. 0. 0. 0. 0. 0. 0. 6.75675692e-003 0. 0. 0. 0. 0. 0.
      6.75675692e-003 6.75675692e-003 0. 0. 0. 0. 0. 0. 6.75675692e-003
      0. 0. 6.75675692e-003 0. 0. 0. 0. 6.75675692e-003 0.
      6.75675692e-003 1.35135138e-002 0. 0. 0. 0. 0. 0. 0. 0.
      6.75675692e-003 0. 0. 0. 6.75675692e-003 0. 6.75675692e-003 0. 0.
      0. 0. 6.75675692e-003 0. 0. 0. 0. 0. 0. 6.75675692e-003 0. 0. 0.
      0. 0. 0. 0. 0. 6.75675692e-003 0. 0. 0. 0. 0. 0. 0. 0. 0. 0. 0. 0.
      6.75675692e-003 0. 0. 0. 0. 0. 0. 0. 0. 0. 0. 0. 0. 0. 0. 0.
      6.75675692e-003 0. 6.75675692e-003 0. 0. 0. 6.75675692e-003 0. 0.
      0. 0. 0. 0. 6.75675692e-003 0. 0. 0. 0. 0. 0. 0. 0.
      6.75675692e-003 6.75675692e-003 0. 6.75675692e-003 0. 0.
      1.35135138e-002 0. 0. 0. 0. 0. 0. 0. 0. 0. 0. 0. 6.75675692e-003
      0. 0. 0. 1.35135138e-002 0. 0. 0. 0. 0. 0. 0. 0. 6.75675692e-003
      6.75675692e-003 6.75675692e-003 0. 0. 0. 0. 0. 0. 0. 0. 0. 0. 0.
      0. 0. 1.35135138e-002 0. 0. 0. 0. 6.75675692e-003 0. 0. 0. 0. 0.
      0. 0. 0. 0. 0. 0. 0. 0. 1.35135138e-002 0. 0. 0. 0.
      1.35135138e-002 6.75675692e-003 6.75675692e-003 0. 0. 0.
      6.75675692e-003 1.35135138e-002 0. 0. 0. 0. 0. 0. 0. 0.
      6.75675692e-003 0. 6.75675692e-003 0. 0. 0. 0. 0. 6.75675692e-003
      0. 0. 0. 0. 0. 0. 0. 0. 0. 0. 0. 0. 0. 0. 0. 0. 0. 0. 0. 0.
      6.75675692e-003 6.75675692e-003 0. 0. 0. 6.75675692e-003 0. 0. 0.
      0. 6.75675692e-003 6.75675692e-003 0. 0. 0. 6.75675692e-003
      1.35135138e-002 0. 0. 0. 0. 0. 0. 0. 0. 0. 0. 0. 0. 0. 0. 0. 0. 0.
      0. 0. 0. 0. 0. 0. 0. 0. 0. 0. 0. 6.75675692e-003 0. 0. 0. 0. 0. 0.
      0. 0. 0. 0. 0. 6.75675692e-003 0. 0. 0. 0. 0. 0. 0. 0. 0. 0. 0. 0.
      0. 0. 0. 0. 6.75675692e-003 0. 0. 0. 0. 0. 0. 0. 0. 0. 0. 0.
      6.75675692e-003 0. 0. 6.75675692e-003 0. 0. 0. 0. 0. 0. 0. 0.
      6.75675692e-003 0. 0. 0. 0. 0. 0. 0. 0. 6.75675692e-003 0. 0.
      6.75675692e-003 0. 0. 0. 0. 0. 0. 0. 0. 0. 0. 0. 0. 0. 0. 0. 0. 0.
      0. 0. 0. 0. 0. 0. 0. 0. 0. 0. 0. 0. 0. 0. 0. 0. 0. 0. 0. 0. 0. 0.
      0. 0. 0. 0. 0. 0. 0. 0. 0. 0. 0. 0. 0. 0. 0. 0. 0. 6.75675692e-003
      0. 0. 0. 0. 0. 0. 0. 0. 0. 0. 0. 0. 0. 0. 0. 0. 6.75675692e-003 0.
      0. 0. 0. 6.75675692e-003 0. 0. 0. 6.75675692e-003 0. 0. 0.
      6.75675692e-003 0. 0. 0. 0. 6.75675692e-003 0. 0. 0.
      6.75675692e-003 0. 0. 0. 0. 0. 0. 6.75675692e-003 0. 0. 0. 0. 0.
      0. 0. 0. 0. 0. 0. 6.75675692e-003 0. 0. 0. 0. 0. 6.75675692e-003
      0. 0. 0. 0. 0. 0. 0. 0. 6.75675692e-003 0. 0. 0. 0. 0. 0.
      1.35135138e-002 0. 0. 0. 0. 0. 0. 2.02702712e-002 6.75675692e-003
      0. 0. 0. 0. 0. 0. 0. 0. 6.75675692e-003 0. 0. 0. 0. 0. 0. 0. 0. 0.
      0. 0. 0. 0. 0. 0. 0. 0. 0. 0. 0. 0. 0. 0. 0. 0. 0. 0. 0. 0.
      6.75675692e-003 0. 0. 0. 0. 1.35135138e-002 0. 0. 0.
      6.75675692e-003 0. 0. 0. 0. 0. 0. 0. 0. 6.75675692e-003 0. 0. 0.
      0. 0. 0. 0. 0. 0. 0. 0. 0. 0. 0. 0. 0. 0. 0. 0. 0. 0. 0.
      6.75675692e-003 0. 0. 0. 0. 0. 0. 0. 0.</_>
    <_>
      0. 0. 4.95049497e-003 0. 0. 0. 9.90098994e-003 0. 4.95049497e-003
      0. 9.90098994e-003 0. 0. 1.98019799e-002 9.90098994e-003 0. 0.
      4.95049497e-003 9.90098994e-003 0. 0. 0. 4.95049497e-003
      4.95049497e-003 0. 4.95049497e-003 0. 0. 0. 0. 0. 0. 0. 0.
      4.95049497e-003 0. 0. 4.95049497e-003 0. 0. 0. 0. 0. 0. 0. 0. 0.
      0. 0. 4.95049497e-003 0. 0. 0. 1.48514844e-002 0. 0. 0. 0. 0. 0.
      4.95049497e-003 0. 0. 0. 0. 0. 9.90098994e-003 0. 0. 0. 0.
      4.95049497e-003 0. 0. 0. 0. 0. 0. 0. 4.95049497e-003 0. 0. 0. 0.
      0. 4.95049497e-003 0. 0. 4.95049497e-003 0. 0. 0. 0. 0. 0.
      1.98019799e-002 0. 0. 0. 0. 0. 0. 0. 0. 4.95049497e-003 0. 0. 0.
      0. 4.95049497e-003 0. 4.95049497e-003 0. 0. 4.95049497e-003 0. 0.
      0. 0. 0. 0. 0. 0. 0. 0. 0. 0. 0. 0. 0. 0. 0. 4.95049497e-003 0. 0.
      0. 4.95049497e-003 0. 0. 0. 4.95049497e-003 4.95049497e-003
      3.46534662e-002 0. 0. 0. 0. 0. 0. 0. 0. 0. 0. 0. 0. 0.
      9.90098994e-003 0. 0. 0. 0. 0. 0. 0. 0. 0. 0. 0. 0. 0. 0. 0. 0. 0.
      0. 0. 0. 0. 0. 0. 0. 4.95049497e-003 4.95049497e-003 0. 0.
      4.95049497e-003 0. 0. 0. 0. 0. 0. 0. 0. 4.95049497e-003 0. 0.
      4.95049497e-003 0. 0. 0. 4.95049497e-003 4.95049497e-003 0. 0. 0.
      0. 0. 0. 0. 0. 0. 0. 0. 0. 0. 0. 0. 0. 0. 0. 0. 0. 0.
      4.95049497e-003 0. 4.95049497e-003 4.95049497e-003 0. 0. 0. 0. 0.
      0. 0. 0. 0. 0. 0. 4.95049497e-003 0. 0. 0. 0. 0. 4.95049497e-003
      0. 0. 0. 0. 0. 0. 4.95049497e-003 0. 0. 0. 0. 0. 0. 0. 0. 0. 0. 0.
      0. 0. 0. 0. 0. 0. 0. 4.95049497e-003 0. 0. 4.95049497e-003
      4.95049497e-003 0. 0. 0. 0. 0. 0. 0. 0. 0. 4.95049497e-003 0. 0.
      4.95049497e-003 0. 0. 4.95049497e-003 4.95049497e-003 0. 0. 0. 0.
      0. 0. 0. 4.95049497e-003 0. 0. 0. 0. 0. 0. 0. 4.95049497e-003
      4.95049497e-003 0. 0. 4.95049497e-003 0. 0. 0. 0. 0. 0.
      4.95049497e-003 0. 4.95049497e-003 0. 0. 0. 0. 0. 0. 0. 0. 0. 0.
      0. 0. 9.90098994e-003 0. 0. 0. 0. 0. 4.95049497e-003 0. 0. 0.
      4.95049497e-003 0. 0. 0. 0. 0. 0. 4.95049497e-003 0.
      4.95049497e-003 0. 0. 0. 0. 0. 9.90098994e-003 0. 0.
      4.95049497e-003 0. 0. 0. 0. 0. 0. 0. 0. 0. 0. 0. 0. 0. 0. 0. 0. 0.
      0. 0. 0. 0. 0. 0. 0. 0. 4.95049497e-003 0. 0. 0. 0. 0. 0.
      4.95049497e-003 0. 0. 0. 0. 0. 0. 0. 0. 0. 0. 0. 0. 0. 0. 0. 0. 0.
      0. 4.95049497e-003 0. 0. 0. 0. 0. 0. 0. 0. 0. 0. 0. 0. 0. 0.
      4.95049497e-003 4.95049497e-003 0. 0. 0. 4.95049497e-003 0.
      4.95049497e-003 0. 0. 0. 0. 0. 0. 0. 0. 4.95049497e-003 0.
      9.90098994e-003 0. 9.90098994e-003 0. 0. 0. 0. 0. 0. 0. 0. 0.
      4.95049497e-003 4.95049497e-003 0. 9.90098994e-003 1.48514844e-002
      0. 0. 0. 0. 0. 0. 4.95049497e-003 0. 0. 0. 0. 0. 0. 0. 0. 0.
      4.95049497e-003 0. 0. 0. 0. 0. 0. 4.95049497e-003 4.95049497e-003
      0. 0. 0. 0. 0. 0. 0. 0. 0. 0. 0. 0. 0. 0. 0. 0. 4.95049497e-003 0.
      0. 0. 0. 0. 0. 4.95049497e-003 4.95049497e-003 0. 4.95049497e-003
      0. 0. 4.95049497e-003 0. 4.95049497e-003 0. 0. 0. 0. 0. 0. 0.
      4.95049497e-003 4.95049497e-003 0. 0. 0. 0. 4.95049497e-003 0. 0.
      4.95049497e-003 0. 0. 0. 0. 0. 0. 0. 0. 0. 0. 0. 4.95049497e-003
      4.95049497e-003 0. 4.95049497e-003 0. 0. 4.95049497e-003 0. 0. 0.
      0. 4.95049497e-003 4.95049497e-003 0. 0. 4.95049497e-003 0. 0.
      4.95049497e-003 0. 0. 0. 0. 0. 0. 0. 4.95049497e-003 0. 0. 0. 0.
      0. 0. 4.95049497e-003 0. 0. 0. 0. 0. 0. 0. 0. 0. 0. 0. 0. 0. 0. 0.
      0. 0. 0. 0. 0. 0. 4.95049497e-003 0. 0. 0. 0. 0. 0.
      4.95049497e-003 0. 4.95049497e-003 0. 4.95049497e-003 0. 0. 0. 0.
      0. 0. 0. 0. 0. 0. 0. 4.95049497e-003 4.95049497e-003 0. 0. 0. 0.
      0. 0. 0. 0. 0. 4.95049497e-003 4.95049497e-003 9.90098994e-003 0.
      0. 0. 0. 0. 0. 0. 4.95049497e-003 0. 4.95049497e-003 0.
      9.90098994e-003 0. 0. 0. 4.95049497e-003 0. 0. 4.95049497e-003 0.
      0. 0. 0. 0. 0. 9.90098994e-003 0. 0. 0. 0. 0. 0. 0. 0. 0. 0. 0. 0.
      0. 4.95049497e-003 0. 0. 0. 0. 4.95049497e-003 0. 0. 0. 0. 0. 0.
      0. 0. 0. 4.95049497e-003 0. 4.95049497e-003 0. 0. 4.95049497e-003
      0. 0. 0. 0. 0. 0. 0. 0. 4.95049497e-003 0. 0. 9.90098994e-003 0.
      4.95049497e-003 0. 0. 0. 0. 0. 0. 0. 0. 0. 0. 0. 0. 0. 0.
      4.95049497e-003 0. 9.90098994e-003 0. 0. 4.95049497e-003 0. 0.
      4.95049497e-003 4.95049497e-003 0. 0. 0. 0. 0. 0. 4.95049497e-003
      0. 0. 0. 0. 0. 0. 0. 0. 0. 0. 0. 4.95049497e-003 4.95049497e-003
      0. 0. 0. 0. 0. 0. 0. 0. 0. 0. 9.90098994e-003 0. 4.95049497e-003
      0. 4.95049497e-003 0. 0. 0. 0. 4.95049497e-003 0. 4.95049497e-003
      0. 0. 0. 0. 0. 4.95049497e-003 0. 0. 0. 0. 0. 0. 0. 0. 0. 0. 0. 0.
      0. 0. 0. 0. 4.95049497e-003 0. 0. 0. 0. 0. 0. 0. 0. 0. 0. 0. 0. 0.
      0. 0. 0. 0. 0. 0. 4.95049497e-003 0. 0. 4.95049497e-003 0. 0. 0.
      0. 0. 0. 0. 0. 0. 0. 0. 0. 0. 0. 0. 0. 0. 0. 0. 0. 0. 0. 0. 0. 0.
      0. 4.95049497e-003 0. 0. 0. 0. 4.95049497e-003 0. 0. 0. 0. 0.
      4.95049497e-003 0. 0. 0. 0. 0. 0. 0. 0. 0. 4.95049497e-003 0.
      4.95049497e-003 0. 0. 0. 0. 0. 0. 4.95049497e-003 0. 0.
      4.95049497e-003 0. 0. 0. 0. 0. 0. 0. 0. 0. 0. 0. 0. 0. 0. 0. 0. 0.
      9.90098994e-003 0. 0. 0. 0. 0. 0. 0. 0. 0. 0. 0. 0. 0. 0. 0. 0. 0.
      4.95049497e-003 4.95049497e-003 0. 0. 0. 0. 0. 0. 0. 0.
      4.95049497e-003 0. 0. 0. 0. 0. 0. 4.95049497e-003 0. 0. 0. 0. 0.
      0. 4.95049497e-003 0. 4.95049497e-003 0. 0. 0. 4.95049497e-003 0.
      0. 0. 0. 9.90098994e-003 0. 1.48514844e-002 0. 0. 0. 0. 0. 0. 0.
      0. 4.95049497e-003 0. 0. 0. 0. 0. 0. 0. 0. 0. 0. 0. 0. 0. 0. 0. 0.
      0. 4.95049497e-003 0. 4.95049497e-003 0. 0. 4.95049497e-003 0. 0.
      0. 0. 0. 0. 4.95049497e-003 0.</_>
    <_>
      0. 0. 0. 6.89655170e-003 0. 0. 6.89655170e-003 0. 0. 0. 0. 0. 0.
      0. 0. 0. 0. 0. 0. 0. 0. 0. 0. 0. 0. 6.89655170e-003 0. 0. 0. 0. 0.
      0. 0. 0. 6.89655170e-003 0. 6.89655170e-003 0. 0. 0. 0. 0. 0. 0.
      6.89655170e-003 6.89655170e-003 0. 0. 0. 0. 0. 0. 0. 0. 0. 0. 0.
      0. 0. 0. 0. 0. 0. 0. 0. 0. 0. 0. 0. 0. 0. 0. 0. 0. 0. 0. 0. 0.
      1.37931034e-002 0. 0. 0. 0. 0. 0. 0. 0. 0. 0. 0. 0.
      6.89655170e-003 0. 6.89655170e-003 6.89655170e-003 6.89655170e-003
      0. 0. 0. 0. 0. 0. 0. 0. 0. 0. 0. 0. 0. 0. 0. 0. 6.89655170e-003 0.
      6.89655170e-003 6.89655170e-003 0. 0. 0. 0. 0. 0. 0. 0. 0. 0.
      6.89655170e-003 0. 0. 6.89655170e-003 0. 0. 0. 6.89655170e-003 0.
      0. 6.89655170e-003 0. 0. 0. 0. 0. 0. 0. 0. 0. 0. 0. 0. 0. 0. 0. 0.
      0. 0. 0. 6.89655170e-003 0. 0. 0. 0. 0. 0. 0. 0. 0.
      6.89655170e-003 0. 0. 0. 0. 0. 0. 0. 6.89655170e-003 0. 0. 0. 0.
      0. 0. 0. 0. 0. 6.89655170e-003 0. 0. 0. 0. 0. 0. 0. 0. 0.
      6.89655170e-003 0. 0. 0. 0. 0. 0. 0. 0. 0. 0. 0. 0. 0. 0. 0.
      6.89655170e-003 6.89655170e-003 0. 6.89655170e-003 0. 0. 0. 0. 0.
      0. 0. 6.89655170e-003 0. 0. 6.89655170e-003 6.89655170e-003 0. 0.
      0. 0. 0. 0. 6.89655170e-003 6.89655170e-003 0. 0. 0. 0. 0. 0. 0.
      0. 0. 0. 0. 0. 0. 0. 0. 0. 0. 0. 0. 0. 0. 0. 6.89655170e-003 0. 0.
      0. 0. 6.89655170e-003 0. 0. 0. 6.89655170e-003 6.89655170e-003 0.
      0. 0. 0. 0. 0. 0. 0. 6.89655170e-003 0. 0. 0. 0. 0. 0. 0. 0. 0. 0.
      0. 0. 0. 0. 0. 0. 0. 0. 0. 0. 0. 0. 0. 0. 0. 0. 0. 6.89655170e-003
      0. 0. 6.89655170e-003 6.89655170e-003 6.89655170e-003 0. 0. 0. 0.
      0. 0. 0. 0. 0. 0. 0. 0. 0. 0. 0. 0. 6.89655170e-003 0. 0. 0. 0.
      6.89655170e-003 0. 0. 6.89655170e-003 0. 6.89655170e-003 0.
      6.89655170e-003 0. 0. 0. 0. 0. 0. 6.89655170e-003 0. 0. 0. 0. 0.
      0. 0. 0. 0. 0. 0. 0. 0. 0. 6.89655170e-003 0. 0. 0. 0. 0.
      6.89655170e-003 0. 0. 0. 0. 0. 0. 0. 0. 0. 0. 0. 0. 0. 0. 0. 0. 0.
      0. 6.89655170e-003 0. 0. 0. 0. 0. 0. 0. 0. 0. 0. 0. 0. 0. 0.
      6.89655170e-003 0. 6.89655170e-003 0. 0. 0. 0. 6.89655170e-003 0.
      0. 0. 0. 0. 0. 0. 0. 0. 0. 0. 0. 0. 6.89655170e-003 0. 0. 0. 0. 0.
      0. 0. 0. 0. 0. 0. 0. 0. 0. 0. 6.89655170e-003 0. 0. 0. 0. 0. 0. 0.
      6.89655170e-003 0. 0. 0. 0. 0. 6.89655170e-003 0. 0. 0. 0. 0. 0.
      0. 0. 6.89655170e-003 0. 0. 0. 0. 0. 0. 0. 0. 6.89655170e-003 0.
      0. 0. 0. 0. 0. 0. 0. 0. 6.89655170e-003 0. 0. 0. 0. 0. 0. 0. 0. 0.
      6.89655170e-003 0. 0. 0. 0. 0. 0. 0. 0. 6.89655170e-003 0. 0. 0.
      6.89655170e-003 0. 0. 0. 0. 0. 0. 0. 0. 0. 0. 0. 0. 0. 0. 0. 0.
      6.89655170e-003 6.89655170e-003 0. 0. 6.89655170e-003 0. 0. 0. 0.
      6.89655170e-003 0. 0. 0. 0. 1.37931034e-002 0. 0. 0. 0. 0.
      6.89655170e-003 0. 0. 6.89655170e-003 0. 0. 0. 0. 0. 0. 0. 0. 0.
      0. 0. 0. 0. 0. 0. 0. 0. 0. 0. 0. 0. 0. 0. 0. 0. 0. 0. 0. 0. 0. 0.
      0. 0. 0. 0. 0. 0. 0. 0. 1.37931034e-002 0. 6.89655170e-003
      6.89655170e-003 6.89655170e-003 0. 0. 0. 0. 6.89655170e-003 0. 0.
      6.89655170e-003 0. 6.89655170e-003 0. 6.89655170e-003 0. 0.
      6.89655170e-003 0. 0. 0. 0. 0. 0. 0. 0. 0. 0. 6.89655170e-003 0.
      0. 6.89655170e-003 0. 0. 6.89655170e-003 0. 0. 0. 0. 0. 0. 0. 0.
      0. 0. 0. 0. 0. 0. 0. 0. 0. 0. 0. 0. 0. 0. 6.89655170e-003 0. 0.
      6.89655170e-003 0. 0. 0. 0. 0. 0. 0. 0. 0. 0. 1.37931034e-002 0.
      0. 0. 6.89655170e-003 6.89655170e-003 0. 0. 0. 0. 0. 0.
      6.89655170e-003 0. 0. 0. 6.89655170e-003 0. 0. 6.89655170e-003 0.
      0. 0. 0. 0. 0. 0. 0. 6.89655170e-003 0. 0. 0. 0. 0. 0. 0. 0. 0. 0.
      0. 0. 0. 0. 6.89655170e-003 0. 0. 0. 0. 0. 0. 0. 0. 0. 0. 0. 0. 0.
      0. 0. 0. 0. 6.89655170e-003 0. 0. 0. 0. 0. 6.89655170e-003
      6.89655170e-003 0. 0. 0. 0. 0. 0. 0. 0. 0. 0. 0. 0. 0. 0. 0. 0. 0.
      0. 0. 0. 6.89655170e-003 0. 0. 0. 6.89655170e-003 6.89655170e-003
      6.89655170e-003 0. 0. 6.89655170e-003 0. 1.37931034e-002 0. 0. 0.
      0. 0. 0. 0. 0. 0. 0. 0. 0. 0. 1.37931034e-002 6.89655170e-003 0.
      0. 0. 0. 0. 0. 0. 6.89655170e-003 6.89655170e-003 0. 0. 0. 0. 0.
      0. 0. 0. 0. 0. 0. 0. 0. 0. 0. 0. 0. 0. 1.37931034e-002 0. 0. 0. 0.
      0. 0. 0. 0. 0. 0. 6.89655170e-003 0. 0. 0. 0. 0. 0. 0. 0. 0. 0. 0.
      0. 1.37931034e-002 0. 0. 0. 0. 0. 0. 0. 0. 6.89655170e-003 0.
      6.89655170e-003 6.89655170e-003 0. 0. 0. 0. 0. 6.89655170e-003 0.
      0. 0. 1.37931034e-002 0. 0. 0. 0. 0. 0. 0. 0. 0. 0. 0. 0. 0. 0. 0.
      6.89655170e-003 0. 0. 0. 0. 0. 0. 0. 0. 0. 0. 0. 0. 0. 0. 0. 0. 0.
      6.89655170e-003 0. 0. 0. 0. 1.37931034e-002 0. 0. 0. 0. 0. 0.
      6.89655170e-003 0. 0. 0. 0. 0. 0. 0. 0. 6.89655170e-003 0. 0. 0.
      0. 0. 1.37931034e-002 0. 0. 0. 0. 6.89655170e-003 0. 0. 0. 0. 0.
      0. 0. 0. 0. 0. 6.89655170e-003 0. 0. 6.89655170e-003 0. 0. 0.
      6.89655170e-003 0. 6.89655170e-003 0. 0. 0. 0. 0. 0. 0. 0. 0. 0.
      6.89655170e-003 0. 0. 0. 0. 0. 0. 0. 0. 0. 0. 0. 0. 0. 0.
      6.89655170e-003 0. 0. 0. 0. 0. 0. 0. 0. 0. 6.89655170e-003 0. 0.
      0. 0. 2.06896551e-002 0. 0. 0. 6.89655170e-003 0. 0. 0. 0.
      6.89655170e-003 0. 0. 0. 0. 0. 0. 6.89655170e-003 0. 0. 0. 0. 0.
      0. 0. 0. 0. 6.89655170e-003 0. 0. 0.</_>
    <_>
      0. 0. 0. 0. 0. 0. 0. 0. 0. 0. 1.52671756e-002 0. 0.
      7.63358781e-003 0. 0. 0. 0. 7.63358781e-003 0. 0. 0. 0. 0. 0. 0.
      0. 0. 0. 0. 0. 0. 0. 0. 0. 0. 0. 0. 0. 0. 0. 0. 0. 0. 0. 0. 0. 0.
      0. 0. 0. 7.63358781e-003 0. 0. 0. 0. 0. 7.63358781e-003 0. 0. 0.
      1.52671756e-002 2.29007639e-002 0. 0. 0. 0. 0. 0. 0. 0. 0.
      7.63358781e-003 0. 0. 0. 7.63358781e-003 0. 0. 0. 0. 0. 0. 0. 0.
      0. 7.63358781e-003 0. 0. 0. 0. 0. 0. 0. 0. 0. 0. 0. 0.
      7.63358781e-003 0. 0. 7.63358781e-003 0. 0. 0. 0. 0. 0. 0. 0. 0.
      0. 0. 7.63358781e-003 0. 0. 0. 7.63358781e-003 0. 0. 0. 0. 0. 0.
      0. 0. 0. 0. 0. 0. 0. 0. 0. 0. 0. 7.63358781e-003 0. 0. 0. 0. 0. 0.
      0. 7.63358781e-003 0. 0. 0. 0. 0. 0. 0. 0. 0. 0. 0. 0. 0. 0. 0. 0.
      0. 0. 7.63358781e-003 0. 0. 0. 0. 7.63358781e-003 0.
      7.63358781e-003 7.63358781e-003 0. 0. 0. 0. 0. 0. 0. 0.
      1.52671756e-002 0. 0. 0. 0. 0. 0. 0. 0. 0. 7.63358781e-003 0. 0.
      0. 7.63358781e-003 0. 0. 0. 0. 0. 0. 0. 0. 0. 0. 0.
      7.63358781e-003 0. 0. 0. 0. 0. 7.63358781e-003 0. 0.
      7.63358781e-003 0. 0. 0. 0. 0. 0. 7.63358781e-003 0. 0. 0.
      7.63358781e-003 0. 0. 0. 0. 0. 0. 7.63358781e-003 0. 0. 0. 0. 0.
      0. 0. 0. 7.63358781e-003 7.63358781e-003 0. 7.63358781e-003
      7.63358781e-003 0. 0. 7.63358781e-003 0. 0. 0. 0. 0. 0. 0. 0. 0.
      0. 0. 0. 0. 0. 0. 0. 0. 0. 0. 0. 0. 7.63358781e-003 0. 0. 0. 0. 0.
      0. 0. 0. 0. 0. 0. 0. 0. 0. 0. 0. 0. 0. 0. 0. 0. 0. 0. 0. 0. 0. 0.
      0. 0. 0. 0. 0. 0. 0. 0. 7.63358781e-003 0. 0. 0. 0. 0.
      7.63358781e-003 0. 0. 0. 0. 0. 7.63358781e-003 0. 0. 0. 0. 0. 0.
      0. 0. 0. 0. 0. 0. 0. 0. 0. 0. 0. 0. 0. 0. 0. 0. 0. 0. 0. 0. 0. 0.
      0. 0. 0. 0. 0. 0. 0. 0. 0. 0. 0. 7.63358781e-003 0. 0. 0. 0. 0. 0.
      0. 0. 0. 0. 0. 0. 0. 0. 0. 0. 7.63358781e-003 0. 0. 0. 0. 0. 0. 0.
      0. 0. 0. 0. 0. 0. 0. 0. 0. 0. 0. 0. 1.52671756e-002 0. 0. 0. 0.
      7.63358781e-003 0. 0. 0. 0. 0. 0. 7.63358781e-003 0. 0. 0. 0.
      7.63358781e-003 0. 0. 0. 0. 0. 0. 0. 0. 0. 0. 0. 0. 0. 0. 0. 0. 0.
      0. 0. 0. 0. 0. 7.63358781e-003 0. 0. 0. 0. 0. 0. 0.
      1.52671756e-002 0. 0. 0. 0. 0. 0. 0. 0. 0. 0. 0. 0. 0.
      1.52671756e-002 0. 0. 0. 0. 0. 0. 0. 0. 0. 0. 0. 0. 0. 0. 0. 0. 0.
      0. 0. 0. 0. 0. 0. 0. 0. 0. 0. 0. 2.29007639e-002 0. 0. 0. 0. 0. 0.
      0. 0. 0. 0. 7.63358781e-003 7.63358781e-003 0. 0. 0. 0. 0. 0. 0.
      7.63358781e-003 7.63358781e-003 0. 0. 0. 1.52671756e-002 0. 0. 0.
      7.63358781e-003 0. 0. 0. 0. 0. 0. 7.63358781e-003 1.52671756e-002
      0. 0. 0. 0. 0. 0. 7.63358781e-003 0. 0. 0. 0. 0. 0. 0. 0. 0. 0. 0.
      0. 0. 7.63358781e-003 0. 0. 0. 0. 0. 0. 0. 0. 0. 0. 0.
      7.63358781e-003 0. 0. 0. 0. 0. 0. 0. 0. 0. 0. 0. 0. 0. 0.
      1.52671756e-002 0. 0. 0. 0. 0. 0. 0. 7.63358781e-003 0. 0. 0. 0.
      0. 0. 0. 0. 0. 0. 0. 0. 0. 0. 0. 0. 0. 0. 0. 0. 0. 0. 0. 0. 0. 0.
      0. 0. 0. 0. 0. 0. 0. 0. 0. 7.63358781e-003 1.52671756e-002
      7.63358781e-003 0. 0. 0. 0. 0. 0. 7.63358781e-003 0. 0. 0. 0.
      7.63358781e-003 0. 0. 0. 0. 0. 0. 0. 0. 0. 7.63358781e-003 0. 0.
      0. 0. 0. 0. 0. 0. 0. 0. 0. 0. 0. 7.63358781e-003 0. 0. 0. 0. 0. 0.
      0. 0. 0. 0. 7.63358781e-003 0. 0. 0. 0. 0. 0. 0. 0. 0. 0. 0. 0.
      7.63358781e-003 7.63358781e-003 0. 0. 0. 0. 0. 0. 0.
      7.63358781e-003 0. 0. 0. 0. 0. 0. 0. 0. 0. 7.63358781e-003 0.
      7.63358781e-003 7.63358781e-003 0. 0. 0. 0. 0. 0. 0. 0.
      7.63358781e-003 0. 0. 0. 0. 0. 0. 0. 7.63358781e-003 0. 0. 0. 0.
      0. 0. 0. 0. 0. 0. 0. 0. 7.63358781e-003 0. 0. 0. 7.63358781e-003
      0. 0. 0. 0. 0. 0. 0. 7.63358781e-003 0. 0. 7.63358781e-003 0. 0.
      0. 0. 0. 0. 7.63358781e-003 0. 0. 7.63358781e-003 0. 0.
      7.63358781e-003 0. 0. 0. 0. 0. 0. 7.63358781e-003 0. 0. 0. 0. 0.
      0. 0. 0. 0. 0. 0. 7.63358781e-003 0. 0. 0. 0. 0. 0. 0. 0. 0. 0. 0.
      0. 0. 0. 0. 0. 0. 0. 1.52671756e-002 0. 0. 0. 0. 0.
      7.63358781e-003 0. 0. 0. 0. 0. 0. 0. 0. 7.63358781e-003
      7.63358781e-003 0. 0. 0. 7.63358781e-003 0. 0. 0. 0. 0. 0. 0. 0.
      0. 0. 0. 0. 0. 0. 0. 0. 0. 0. 0. 7.63358781e-003 0. 0. 0. 0. 0. 0.
      0. 0. 0. 0. 0. 0. 0. 0. 0. 0. 0. 0. 0. 7.63358781e-003 0. 0.
      7.63358781e-003 0. 0. 0. 0. 0. 0. 0. 0. 0. 0. 0. 0. 0. 0. 0. 0. 0.
      0. 0. 0. 0. 0. 0. 0. 0. 0. 7.63358781e-003 0. 0. 0. 0. 0. 0. 0. 0.
      7.63358781e-003 1.52671756e-002 0. 0. 0. 0. 0. 0. 0. 0. 0.
      7.63358781e-003 7.63358781e-003 0. 0. 7.63358781e-003 0. 0. 0. 0.
      7.63358781e-003 0. 0. 0. 0. 0. 0. 0. 1.52671756e-002 0. 0. 0. 0.
      0. 0. 7.63358781e-003 0. 0. 0. 7.63358781e-003 7.63358781e-003 0.
      7.63358781e-003 0. 0. 0. 0. 0. 0. 0. 0. 0. 0. 7.63358781e-003
      1.52671756e-002 0. 0. 0. 0. 0. 7.63358781e-003 0. 0. 0. 0. 0. 0.
      0. 0. 0. 0. 0. 0. 0. 0. 0. 0. 0. 0. 0. 0. 0. 0. 0. 0. 0. 0. 0. 0.
      0. 0. 0. 7.63358781e-003 7.63358781e-003 1.52671756e-002 0. 0. 0.
      0. 0. 0. 0. 0. 0. 0.</_>
    <_>
      0. 0. 7.19424477e-003 7.19424477e-003 0. 0. 0. 0. 0. 0.
      1.43884895e-002 0. 0. 0. 0. 0. 0. 0. 0. 0. 0. 0. 0. 0. 0. 0. 0.
      7.19424477e-003 7.19424477e-003 0. 0. 0. 0. 0. 7.19424477e-003 0.
      0. 0. 0. 0. 7.19424477e-003 0. 0. 0. 0. 7.19424477e-003 0. 0. 0.
      0. 0. 0. 0. 0. 7.19424477e-003 0. 0. 0. 0. 0. 7.19424477e-003 0.
      0. 0. 0. 0. 0. 0. 0. 0. 0. 0. 0. 0. 0. 0. 0. 0. 0. 0. 0.
      7.19424477e-003 0. 0. 0. 7.19424477e-003 0. 0. 0. 0. 0. 0. 0.
      1.43884895e-002 0. 0. 0. 0. 7.19424477e-003 0. 0. 0. 0.
      7.19424477e-003 0. 0. 7.19424477e-003 0. 0. 0. 0. 7.19424477e-003
      0. 0. 7.19424477e-003 0. 0. 0. 0. 0. 7.19424477e-003 0. 0. 0.
      7.19424477e-003 0. 0. 0. 0. 0. 0. 0. 0. 0. 7.19424477e-003 0. 0.
      0. 0. 7.19424477e-003 0. 0. 0. 0. 0. 0. 0. 0. 0. 7.19424477e-003
      0. 0. 0. 0. 0. 0. 0. 0. 0. 0. 0. 0. 0. 0. 0. 0. 7.19424477e-003 0.
      7.19424477e-003 0. 0. 0. 0. 0. 0. 0. 0. 0. 7.19424477e-003 0. 0.
      0. 0. 0. 0. 0. 0. 0. 0. 0. 7.19424477e-003 7.19424477e-003 0. 0.
      0. 0. 0. 0. 0. 0. 0. 0. 0. 7.19424477e-003 0. 0. 0. 0. 0. 0. 0. 0.
      7.19424477e-003 0. 0. 0. 7.19424477e-003 0. 0. 0. 0.
      7.19424477e-003 0. 0. 0. 0. 0. 0. 0. 0. 0. 0. 0. 0. 0.
      7.19424477e-003 0. 7.19424477e-003 7.19424477e-003 7.19424477e-003
      0. 0. 0. 7.19424477e-003 0. 0. 0. 0. 0. 0. 0. 0. 0. 0. 0.
      7.19424477e-003 7.19424477e-003 7.19424477e-003 7.19424477e-003 0.
      0. 0. 0. 0. 0. 0. 0. 1.43884895e-002 0. 0. 0. 0. 0. 0. 0.
      7.19424477e-003 0. 0. 0. 0. 0. 0. 0. 0. 0. 0. 0. 0. 0. 0. 0. 0. 0.
      0. 0. 7.19424477e-003 0. 0. 0. 0. 0. 7.19424477e-003 0. 0. 0. 0.
      7.19424477e-003 0. 0. 0. 7.19424477e-003 0. 0. 0. 0. 0. 0. 0. 0.
      0. 7.19424477e-003 7.19424477e-003 0. 0. 0. 0. 0. 0. 0. 0. 0. 0.
      0. 0. 0. 0. 0. 0. 7.19424477e-003 0. 0. 0. 0. 0. 7.19424477e-003
      0. 0. 0. 0. 0. 0. 0. 0. 0. 0. 0. 0. 0. 0. 0. 0. 0. 0. 0.
      7.19424477e-003 0. 0. 0. 0. 0. 0. 1.43884895e-002 0. 0. 0. 0. 0.
      7.19424477e-003 0. 0. 0. 0. 0. 0. 7.19424477e-003 0. 0. 0. 0. 0.
      0. 0. 7.19424477e-003 0. 0. 0. 0. 0. 0. 0. 0. 0. 0. 0. 0. 0. 0. 0.
      0. 0. 0. 0. 0. 0. 0. 0. 1.43884895e-002 0. 0. 0. 0. 0. 0. 0. 0. 0.
      0. 0. 0. 1.43884895e-002 0. 0. 0. 0. 0. 0. 0. 0. 0. 0. 0. 0. 0. 0.
      0. 0. 0. 7.19424477e-003 1.43884895e-002 0. 0. 0. 0. 0. 0. 0. 0.
      0. 0. 0. 0. 0. 7.19424477e-003 0. 7.19424477e-003 0. 0.
      7.19424477e-003 0. 0. 0. 7.19424477e-003 0. 0. 0. 0. 0. 0. 0. 0.
      7.19424477e-003 0. 0. 0. 0. 0. 0. 0. 7.19424477e-003 0. 0. 0. 0.
      0. 0. 0. 0. 0. 0. 0. 0. 0. 0. 0. 7.19424477e-003 0. 0. 0. 0.
      7.19424477e-003 0. 0. 0. 0. 0. 0. 0. 0. 1.43884895e-002 0.
      7.19424477e-003 0. 0. 7.19424477e-003 7.19424477e-003
      7.19424477e-003 0. 0. 0. 0. 0. 7.19424477e-003 0. 0.
      7.19424477e-003 0. 0. 0. 0. 0. 0. 0. 0. 0. 0. 0. 0. 0. 0. 0. 0. 0.
      7.19424477e-003 0. 0. 0. 0. 0. 0. 0. 0. 0. 0. 0. 0. 0.
      7.19424477e-003 0. 0. 0. 0. 0. 0. 0. 0. 0. 0. 0. 0. 0.
      7.19424477e-003 0. 0. 7.19424477e-003 0. 0. 0. 0. 0. 0. 0. 0.
      1.43884895e-002 0. 0. 0. 7.19424477e-003 0. 0. 0. 0. 0. 0.
      7.19424477e-003 0. 7.19424477e-003 0. 0. 0. 0. 0. 0. 0. 0. 0. 0.
      0. 7.19424477e-003 0. 0. 7.19424477e-003 0. 0. 0. 0. 0. 0. 0. 0.
      0. 0. 0. 0. 0. 7.19424477e-003 0. 0. 0. 0. 0. 0. 0.
      7.19424477e-003 7.19424477e-003 0. 0. 0. 0. 0. 0. 0. 0. 0. 0. 0.
      7.19424477e-003 1.43884895e-002 0. 7.19424477e-003 0. 0. 0.
      7.19424477e-003 0. 0. 0. 0. 0. 0. 7.19424477e-003 0. 0. 0. 0. 0.
      0. 0. 0. 0. 0. 0. 0. 0. 0. 0. 0. 0. 0. 0. 0. 0. 0. 0. 0. 0. 0. 0.
      1.43884895e-002 0. 0. 0. 0. 0. 7.19424477e-003 0. 0. 0. 0. 0. 0.
      1.43884895e-002 0. 0. 0. 0. 0. 0. 0. 0. 0. 0. 0. 0. 0. 0. 0. 0. 0.
      0. 0. 7.19424477e-003 0. 7.19424477e-003 0. 0. 0. 0.
      7.19424477e-003 0. 7.19424477e-003 0. 0. 0. 0. 0. 0. 0. 0. 0. 0.
      0. 0. 0. 0. 0. 0. 0. 0. 0. 0. 0. 0. 0. 0. 0. 0. 0. 0.
      7.19424477e-003 0. 0. 0. 0. 0. 0. 0. 7.19424477e-003 0. 0. 0. 0.
      0. 0. 0. 0. 0. 0. 0. 0. 0. 0. 0. 1.43884895e-002 0. 0. 0. 0. 0. 0.
      0. 0. 0. 0. 7.19424477e-003 0. 0. 0. 0. 0. 0. 0. 0. 0.
      7.19424477e-003 7.19424477e-003 0. 0. 0. 0. 0. 0. 0. 0. 0. 0. 0.
      0. 0. 0. 0. 7.19424477e-003 0. 0. 0. 0. 0. 1.43884895e-002 0. 0.
      0. 0. 0. 0. 0. 0. 0. 0. 0. 0. 7.19424477e-003 0. 0. 0. 0. 0. 0. 0.
      0. 0. 0. 0. 0. 0. 0. 0. 0. 0. 1.43884895e-002 0. 0. 0. 0. 0.
      1.43884895e-002 0. 0. 0. 7.19424477e-003 0. 0. 0. 0. 0. 0. 0. 0.
      0. 0. 0. 7.19424477e-003 0. 0. 0. 0. 0. 0. 0. 0. 0. 0. 0. 0. 0. 0.
      0. 7.19424477e-003 0. 0. 0. 7.19424477e-003 0. 0. 7.19424477e-003
      0. 0. 0. 0. 0. 0. 0. 0. 7.19424477e-003 0. 7.19424477e-003 0. 0.
